//Numpy array shape [64, 32]
//Min -0.246503215476
//Max 0.248087944692
//Number of zeros 0

#ifndef CORE_NODE_W0_H_
#define CORE_NODE_W0_H_

#ifndef __SYNTHESIS__
ap_fixed<16,6> core_node_w0[2048];
#else
ap_fixed<16,6> core_node_w0[2048] = {-0.110187, 0.069483, -0.155632, 0.051065, 0.176467, -0.242188, 0.011593, -0.064386, 0.172678, 0.005171, -0.209192, 0.111555, -0.018082, 0.182489, -0.000454, -0.093216, -0.081997, -0.048294, -0.126803, 0.219776, -0.187976, -0.098105, -0.174253, -0.222391, -0.081313, -0.071659, 0.017833, 0.115249, 0.128037, 0.138312, -0.006768, 0.137627, 0.107051, -0.059275, -0.195067, 0.132100, 0.177364, -0.036610, -0.023872, 0.144970, 0.123597, -0.059820, -0.033368, -0.146433, 0.050538, -0.023422, 0.037623, -0.026513, 0.041357, -0.129346, -0.178674, 0.041381, -0.100722, -0.050952, 0.013463, 0.057457, -0.101785, -0.107491, -0.175631, -0.131414, 0.114308, -0.054304, -0.137409, -0.047835, 0.054127, -0.000756, -0.041999, 0.027797, 0.083816, 0.173328, -0.066713, -0.010328, -0.048438, -0.039526, -0.010944, -0.217593, -0.042886, -0.055108, 0.199403, -0.106541, 0.043419, 0.225636, -0.053319, 0.095098, 0.053670, 0.080498, 0.102993, -0.060816, 0.037307, 0.078871, -0.030695, -0.034460, -0.110100, 0.002712, -0.119466, -0.239779, 0.083870, -0.102901, -0.050871, 0.058810, -0.076030, -0.171455, 0.087490, 0.130577, 0.022240, -0.216308, -0.006180, -0.096842, 0.092609, -0.038973, 0.031080, 0.137651, -0.112115, 0.230157, -0.024816, 0.084912, 0.118596, -0.021947, -0.067342, 0.153003, -0.142009, -0.027891, 0.072644, 0.031830, 0.020792, 0.210509, -0.110644, -0.059810, -0.112553, -0.166596, -0.061539, -0.153240, 0.130385, -0.096893, 0.057641, -0.164211, -0.161329, -0.062828, -0.023122, -0.085906, -0.172907, 0.190414, 0.209023, 0.034989, -0.022862, 0.141510, 0.040886, 0.042743, -0.165692, -0.173186, 0.133615, 0.084533, -0.106766, -0.141634, -0.147438, -0.081451, -0.020442, -0.052463, -0.191281, -0.117873, 0.088062, -0.020826, 0.096441, -0.018486, -0.018359, -0.009610, 0.004070, -0.134996, 0.077018, 0.176226, -0.072628, -0.023112, -0.054065, -0.107755, 0.089666, -0.071833, 0.096516, 0.226841, -0.109064, -0.164024, -0.093051, 0.127411, -0.017935, 0.233327, 0.026065, -0.038487, 0.124737, 0.080838, 0.241855, -0.076178, -0.025843, -0.089291, 0.217022, 0.001967, -0.111766, 0.008254, 0.175874, 0.017160, 0.088674, -0.004190, 0.000128, -0.050884, -0.134505, -0.024136, -0.025773, 0.034233, -0.164347, 0.063631, -0.062413, 0.063783, 0.095724, -0.159804, 0.108591, 0.238854, -0.124479, 0.165827, -0.054964, 0.067677, -0.010492, -0.193014, -0.062838, 0.038494, 0.133787, -0.004619, -0.025275, -0.163196, -0.023710, -0.103219, 0.109237, 0.211035, 0.150763, -0.023146, 0.055393, 0.033193, 0.075873, 0.031640, -0.046637, 0.129218, -0.139570, 0.012124, -0.114293, 0.144804, -0.233349, 0.049100, -0.150544, 0.204177, 0.155549, 0.188216, 0.151487, -0.151986, 0.039788, -0.198712, 0.168544, 0.073390, 0.052383, 0.097173, 0.006641, 0.036619, 0.033054, 0.081194, -0.076859, -0.056223, -0.041838, -0.157942, -0.023431, 0.114870, 0.040601, -0.061374, 0.003697, 0.152297, 0.161232, -0.072492, -0.066672, -0.054241, 0.029506, 0.141827, -0.088945, 0.086602, -0.007841, -0.037078, 0.019916, 0.075846, -0.048643, 0.173968, 0.178586, 0.152586, -0.035667, -0.062438, -0.083113, -0.068495, 0.172126, -0.096038, -0.231187, -0.023917, 0.081657, -0.037413, 0.074392, 0.170773, 0.127208, -0.184507, 0.135469, 0.009858, -0.135216, 0.106694, 0.189192, -0.076314, 0.085058, -0.137285, 0.086918, -0.111698, -0.028893, -0.188308, -0.096732, -0.062875, -0.034422, -0.101898, -0.145523, 0.071874, 0.043974, 0.049650, -0.018575, 0.004887, -0.036066, 0.046349, 0.109672, -0.068520, 0.061965, -0.061515, 0.247574, -0.063412, 0.074654, -0.037844, -0.029772, 0.133878, 0.052479, 0.133922, 0.003821, 0.005471, 0.226533, -0.119133, 0.126515, -0.222055, 0.093603, -0.037384, -0.196353, 0.027935, -0.131317, 0.034981, -0.171567, -0.081318, -0.002811, 0.184579, -0.094405, 0.070401, 0.082658, 0.237741, 0.023680, -0.197498, 0.090080, -0.208914, 0.059090, -0.096415, -0.167825, -0.023737, 0.063992, -0.075657, -0.071137, -0.222243, -0.030828, -0.097552, -0.007450, 0.038520, 0.152624, -0.156464, -0.054625, 0.153913, -0.044736, -0.038925, 0.064094, -0.077958, -0.214924, -0.188907, -0.115160, -0.158648, -0.017256, 0.052138, -0.032274, 0.072553, 0.094341, 0.016893, -0.211575, 0.069861, 0.013433, 0.081360, 0.058107, -0.091399, -0.045302, 0.123005, -0.085592, 0.098913, 0.000006, 0.012075, 0.149279, 0.180002, -0.024690, 0.113359, 0.082478, -0.212573, 0.047600, 0.094857, 0.053847, 0.005819, 0.127864, 0.034386, -0.228463, -0.130038, -0.061724, 0.144638, -0.183007, -0.001699, -0.112856, -0.168051, 0.035563, -0.229844, 0.104061, 0.017332, 0.223610, -0.003070, -0.183225, -0.171564, -0.032974, -0.177955, 0.171746, 0.150540, -0.120450, -0.162249, -0.054427, 0.015845, 0.106022, -0.107834, -0.183770, 0.061573, 0.005181, -0.009289, 0.049401, -0.008705, -0.035765, 0.188822, 0.021350, 0.067854, -0.019914, 0.047865, 0.043128, 0.068551, 0.147111, -0.009612, 0.113247, 0.128166, -0.000333, 0.093442, -0.073500, 0.076314, 0.101035, -0.082174, 0.046518, -0.030182, 0.211507, -0.085340, -0.053146, -0.159545, 0.219482, 0.026628, -0.001379, 0.194522, 0.161048, -0.055200, 0.051773, -0.111796, 0.171037, -0.019529, -0.092733, 0.111553, 0.071230, -0.152308, -0.025537, 0.072605, -0.004801, 0.028043, -0.045644, -0.186154, -0.162164, -0.014100, -0.086655, -0.043656, 0.011811, 0.094711, 0.003529, 0.094899, -0.088384, -0.073333, -0.031223, -0.171139, -0.027228, 0.203431, -0.126788, -0.092094, -0.093358, 0.073989, 0.246522, -0.096266, -0.061586, 0.122016, -0.017946, -0.009483, -0.052987, 0.240645, 0.183001, 0.057259, -0.011855, -0.011636, 0.097541, -0.080520, 0.026367, -0.070652, 0.128093, -0.179200, 0.044998, -0.094975, 0.013984, 0.004937, -0.042046, 0.084305, 0.127629, 0.056284, 0.083947, -0.219826, 0.031285, 0.204589, -0.031807, 0.159597, 0.013529, -0.163893, 0.067343, -0.015524, 0.194182, 0.156761, 0.051241, -0.044140, 0.030180, 0.013880, -0.034750, -0.091849, -0.028823, -0.016918, -0.147624, -0.012844, 0.104571, -0.123271, -0.069046, 0.047122, -0.220808, -0.155116, -0.031329, 0.023482, -0.020192, 0.155344, 0.225274, 0.126621, 0.107794, -0.033587, -0.003174, -0.050161, 0.089747, -0.049645, -0.106895, 0.058743, 0.012806, 0.101544, 0.238318, -0.033346, -0.232037, -0.040707, -0.010594, 0.143062, 0.009655, -0.241641, -0.105792, 0.008872, 0.094622, -0.163055, -0.120929, 0.081137, 0.170677, -0.005637, -0.002836, 0.035711, -0.037284, 0.149657, -0.000826, -0.050870, -0.243401, 0.070185, -0.004277, -0.112079, -0.189246, 0.065893, 0.044612, 0.134292, 0.052303, 0.085688, 0.174582, 0.011192, 0.171636, -0.095829, -0.233413, 0.097032, 0.170706, -0.066758, -0.176765, -0.215642, -0.140602, -0.036535, -0.066448, 0.028960, 0.081459, -0.013205, 0.003025, 0.109872, -0.126630, 0.152172, 0.015136, 0.165417, -0.055133, 0.169094, -0.050663, 0.051307, -0.089731, -0.203023, -0.078236, 0.006985, -0.004578, 0.132556, -0.176213, -0.099280, -0.196803, 0.050867, -0.179442, 0.078200, -0.076183, 0.019805, 0.101194, 0.102741, 0.082760, -0.098048, 0.037976, 0.014433, 0.106711, -0.060359, 0.227896, -0.016316, 0.139311, -0.029091, -0.025890, -0.053442, 0.153222, 0.004421, 0.179384, 0.001713, -0.053184, -0.125812, 0.104560, -0.028801, -0.079746, 0.114316, -0.102874, -0.044697, 0.138392, -0.050228, 0.034341, 0.172479, -0.090392, 0.033202, -0.086179, 0.144472, 0.096851, 0.056913, 0.076286, 0.004686, -0.182321, 0.022584, -0.054712, 0.029263, 0.226552, 0.060294, -0.066517, -0.139723, 0.018578, -0.070924, 0.097767, 0.007559, -0.009457, -0.066710, 0.062340, 0.096477, 0.097413, -0.063390, -0.099217, -0.171087, -0.045108, 0.130773, -0.165051, 0.071660, 0.110014, 0.015140, -0.072435, -0.007464, 0.024451, 0.161289, 0.004466, 0.120704, 0.021256, 0.099225, 0.171020, 0.045541, 0.063858, 0.015316, 0.021334, 0.064510, 0.012647, 0.039001, -0.014181, 0.081625, 0.110875, 0.122926, -0.178403, 0.092889, 0.056076, 0.014532, 0.235812, 0.090172, -0.013005, 0.080472, 0.048313, 0.017055, -0.216511, 0.194444, -0.084266, 0.149998, 0.016132, -0.159784, -0.244619, 0.241676, 0.033800, 0.188274, -0.081365, 0.151970, -0.233982, 0.044961, -0.093319, -0.088243, -0.018398, 0.088668, -0.032277, 0.025389, 0.101040, 0.098732, 0.080323, 0.015984, -0.005971, 0.049592, -0.087298, 0.053962, -0.153531, -0.187992, -0.001676, 0.058521, 0.102623, 0.021284, -0.091731, -0.117909, -0.123439, 0.173538, 0.077880, -0.019049, -0.188993, 0.018533, -0.222235, 0.092283, 0.107768, 0.004354, -0.067128, 0.133880, -0.025247, 0.134125, -0.036309, -0.245886, 0.121004, -0.092523, 0.020604, -0.148958, 0.111702, -0.103063, -0.037219, 0.080220, -0.073153, -0.010693, 0.168690, 0.088937, 0.116101, -0.020592, 0.049423, -0.190684, -0.046111, 0.007977, -0.041371, 0.079940, 0.099260, 0.047149, 0.169837, 0.242352, -0.076977, -0.031861, -0.230590, -0.031029, 0.240358, 0.092845, 0.148338, -0.074097, 0.162448, 0.067399, -0.224385, -0.076390, -0.125388, -0.030696, -0.159525, 0.099658, -0.077376, -0.223300, -0.046051, 0.030922, -0.106864, 0.062839, -0.139648, -0.028957, -0.041837, 0.145737, -0.083507, 0.038474, 0.029842, -0.024310, -0.165966, -0.120980, -0.060738, 0.010632, 0.027442, -0.130275, 0.012946, -0.083188, -0.009054, 0.112619, -0.025966, -0.125664, -0.063212, -0.014400, 0.191420, 0.180565, 0.003913, 0.039706, 0.225781, -0.090496, 0.089928, -0.135509, 0.075958, -0.019319, 0.133759, 0.046695, 0.084054, 0.037814, 0.069406, -0.227783, -0.106904, 0.005708, 0.022299, 0.058104, -0.093054, 0.141036, 0.093004, -0.093541, 0.185289, 0.031715, -0.122197, 0.087506, 0.093690, 0.029004, 0.211914, -0.005060, -0.027926, 0.049572, 0.022861, -0.047527, 0.184476, -0.063096, 0.146417, 0.170805, 0.163229, -0.059612, -0.006372, -0.075597, 0.014164, 0.159971, -0.031142, 0.169840, 0.061797, 0.051751, -0.177823, 0.114304, -0.022980, 0.099610, -0.027263, -0.036925, 0.072041, -0.139560, -0.071220, 0.173971, -0.109549, -0.036116, 0.124706, 0.023318, 0.210428, 0.220045, -0.041486, -0.051697, -0.077863, -0.027597, 0.008195, -0.087793, -0.078861, -0.053366, -0.048833, 0.115834, 0.072171, -0.021031, -0.126695, -0.025923, -0.193487, 0.035740, -0.099747, 0.036154, -0.131941, 0.120128, 0.027732, -0.106951, 0.008945, 0.059248, -0.048897, 0.116924, 0.008839, 0.001902, -0.035540, 0.104227, -0.083211, 0.010486, -0.173449, 0.147996, -0.015103, -0.165145, 0.130190, -0.043555, 0.000250, -0.088697, 0.094150, -0.018116, -0.094040, -0.184265, 0.109303, 0.131600, -0.031118, 0.002061, 0.060342, 0.120340, -0.152431, 0.044912, -0.201654, 0.009942, 0.119672, 0.155030, 0.077669, -0.104176, 0.061850, -0.066884, -0.037000, 0.091527, -0.132995, -0.097187, -0.120658, 0.162961, 0.006915, -0.225834, 0.019152, 0.044064, 0.041868, -0.009966, -0.105655, -0.002367, -0.116915, -0.054065, 0.103488, -0.001675, -0.098472, 0.153106, -0.060461, 0.211873, -0.125240, 0.149025, 0.033325, 0.167091, 0.018655, 0.135646, 0.009141, 0.086389, 0.059321, 0.128633, 0.218094, -0.109462, -0.071599, -0.097677, 0.091470, 0.220424, -0.027614, -0.060178, -0.163427, -0.065296, -0.024747, 0.095282, 0.060395, 0.071090, 0.158335, 0.073299, -0.059794, -0.098687, -0.038262, 0.020965, 0.138124, 0.056815, 0.005129, -0.078243, -0.056668, -0.083882, -0.023740, -0.128750, -0.178672, -0.187959, -0.047468, 0.128720, 0.167412, -0.128439, 0.081056, 0.173254, -0.092475, 0.134260, -0.146167, 0.098780, -0.001799, 0.201671, 0.118183, -0.068085, 0.185155, -0.092581, 0.105909, -0.013370, 0.208557, -0.174992, -0.125626, -0.129633, 0.120614, -0.136320, -0.055866, -0.049710, 0.051571, -0.207750, -0.058562, 0.154323, 0.037522, 0.012050, -0.107209, 0.034667, -0.154869, 0.046056, 0.157247, -0.016245, -0.048447, -0.132037, -0.051095, -0.043334, 0.203542, 0.181666, -0.149119, -0.172737, 0.006319, -0.089483, -0.086979, 0.010127, -0.158171, -0.169644, -0.025471, 0.159459, -0.201927, -0.119389, -0.000482, -0.068610, 0.143448, -0.047621, 0.176392, -0.057267, 0.189457, -0.116755, -0.023424, -0.080625, 0.030657, -0.033845, 0.191799, -0.072906, -0.097481, 0.223730, -0.150027, 0.157808, 0.120911, 0.019334, -0.082376, -0.034348, 0.077554, -0.076897, 0.071243, 0.044653, 0.031279, 0.190718, -0.075963, 0.129010, -0.079755, 0.076068, 0.130773, 0.202904, 0.173325, -0.046495, -0.010110, 0.034093, -0.058434, 0.031525, -0.108497, -0.011538, -0.142749, -0.198255, 0.028599, -0.093477, -0.085926, -0.123883, -0.134116, -0.046179, 0.012680, 0.192987, 0.052607, 0.143946, 0.027106, -0.091614, -0.003810, 0.075233, -0.130280, 0.096563, 0.056819, -0.180375, 0.076461, 0.163013, -0.100062, -0.231925, 0.083104, -0.152582, -0.021862, -0.005337, -0.125345, -0.187148, 0.240280, -0.046274, 0.156069, 0.209311, -0.057816, -0.175946, 0.220726, -0.099828, 0.029436, -0.111806, -0.073909, -0.070214, -0.152997, 0.121930, 0.154020, -0.104052, 0.028113, 0.114797, 0.019258, 0.023741, 0.120977, 0.159091, 0.114262, -0.096289, -0.054490, 0.188856, 0.159453, -0.063147, -0.094039, -0.202805, 0.152166, 0.143052, 0.101103, -0.119429, 0.087951, 0.105558, 0.112961, -0.008232, 0.027828, -0.030646, -0.063626, 0.180068, 0.006298, -0.038303, -0.075138, 0.028827, 0.069253, 0.103909, -0.052478, 0.087838, 0.089710, 0.039911, -0.049192, -0.103276, 0.034766, -0.157493, -0.115565, -0.004241, -0.055736, 0.052554, -0.086362, 0.143914, -0.019638, 0.093634, 0.036919, 0.035322, -0.068348, -0.190563, 0.002251, -0.107408, 0.057822, -0.072923, 0.087375, 0.012304, 0.032772, 0.014124, 0.129425, 0.246190, 0.004455, 0.008995, 0.078010, -0.023599, -0.064481, 0.231591, -0.019726, -0.049553, 0.143866, 0.016098, -0.047949, 0.197635, -0.091690, -0.219857, -0.127565, 0.038669, -0.111006, 0.038854, 0.062350, 0.022693, 0.079563, -0.191699, -0.051966, -0.198313, -0.095222, -0.115155, 0.003966, 0.096364, -0.080409, -0.121207, 0.075623, -0.005149, -0.215931, -0.015054, -0.170785, 0.004222, -0.017834, 0.106317, 0.162897, 0.139719, -0.084967, 0.114372, 0.107172, 0.038802, 0.131605, -0.027740, -0.104474, 0.082376, -0.099567, -0.103015, -0.136517, 0.082045, -0.038985, 0.161016, -0.138570, -0.123913, -0.141907, -0.016417, 0.045937, 0.035976, 0.055809, 0.083403, 0.129980, -0.083437, 0.134028, 0.088195, -0.204310, -0.229986, -0.222241, -0.042925, -0.121689, -0.019866, 0.029895, -0.020250, -0.121803, 0.098497, 0.181286, -0.166373, -0.073278, 0.084189, -0.038699, -0.006760, -0.164565, 0.082771, -0.003311, 0.027589, 0.000017, 0.003839, 0.147878, -0.113187, 0.069216, 0.001967, 0.026022, -0.113254, -0.078518, -0.028315, -0.008940, 0.170881, 0.088536, 0.174629, -0.184527, -0.146854, -0.144660, -0.150965, -0.193255, 0.035363, 0.143461, -0.017541, 0.042746, -0.157439, -0.019992, 0.120541, 0.140608, 0.154433, -0.133765, 0.084406, 0.076011, 0.085306, 0.039313, 0.148120, -0.075814, -0.018337, 0.066604, 0.065505, 0.117020, 0.200473, -0.002949, -0.147375, -0.065962, -0.133809, -0.019957, 0.017819, 0.094635, -0.091197, -0.098683, 0.039994, -0.020043, -0.204168, -0.071535, -0.130982, -0.035107, -0.238423, 0.048334, 0.084253, 0.017794, 0.009466, 0.029236, -0.025811, 0.072958, -0.055055, -0.212290, 0.168355, 0.010686, 0.116851, 0.075112, 0.065237, 0.041162, -0.181682, -0.133102, -0.136335, -0.029408, 0.082369, -0.121444, 0.059560, -0.026972, 0.135320, 0.050938, -0.094424, -0.060304, 0.122830, -0.043878, 0.135374, 0.009942, -0.016085, -0.136705, 0.247281, -0.221833, -0.047538, -0.120841, -0.015530, -0.180498, 0.079737, -0.203690, 0.024196, -0.042702, 0.151889, -0.129256, 0.060499, -0.073976, -0.019261, 0.157097, 0.148298, -0.212452, 0.098892, -0.041432, -0.054327, 0.043452, -0.007922, 0.161251, 0.051577, 0.139731, -0.095472, -0.238412, -0.075057, -0.059921, 0.084827, -0.233653, 0.145051, -0.131177, 0.074747, 0.054194, 0.042126, 0.205173, -0.134229, 0.077348, 0.166734, 0.225768, 0.009258, -0.105836, -0.077254, 0.068142, -0.063618, -0.048346, -0.024466, 0.050632, -0.094696, -0.062489, -0.028802, -0.004735, 0.024566, 0.088295, 0.140712, -0.142985, -0.059586, 0.070012, 0.229781, -0.138189, -0.117860, -0.055680, 0.002423, 0.039299, 0.031450, -0.109329, 0.020168, -0.021412, -0.169815, -0.205381, 0.139437, -0.154312, -0.040646, 0.113385, -0.042091, -0.065650, -0.083052, 0.204095, -0.092403, -0.114032, -0.110105, 0.082849, 0.197589, -0.070888, -0.073099, -0.103415, 0.228871, 0.005124, -0.129622, -0.001389, -0.063798, 0.115476, 0.066944, -0.076344, -0.022618, 0.017877, -0.205649, -0.155688, -0.098534, -0.081219, -0.139984, 0.057595, -0.075557, -0.044361, 0.091090, 0.095050, 0.232140, -0.077544, -0.030981, -0.117490, 0.174022, -0.231814, -0.031382, -0.092810, 0.119216, -0.189914, 0.075914, 0.174085, 0.231030, -0.097121, -0.182877, 0.076723, -0.209018, 0.073614, -0.088704, 0.146265, 0.063408, -0.118094, 0.125512, 0.060012, -0.024366, -0.006108, -0.092681, -0.079681, 0.010835, 0.191746, -0.013737, 0.248088, -0.110839, -0.049342, -0.114974, 0.074767, -0.118642, 0.187648, 0.125478, -0.124693, 0.019340, 0.079541, 0.128500, -0.078671, -0.176749, 0.073046, 0.185556, 0.006145, 0.034251, -0.113509, 0.049417, 0.003650, -0.022043, 0.000952, 0.128071, 0.084093, -0.155074, 0.179157, 0.003030, 0.041986, -0.021745, 0.177814, -0.036421, 0.069065, 0.023911, -0.012661, -0.080203, -0.004788, 0.142354, 0.045974, -0.068660, 0.058764, 0.056829, -0.160487, 0.075627, -0.072991, -0.134753, 0.020983, 0.220142, -0.149499, 0.055510, -0.149069, -0.115249, 0.134735, -0.091612, 0.034137, -0.212158, 0.024476, 0.201797, -0.061561, 0.116403, -0.009562, -0.038987, -0.106546, 0.145147, 0.037787, 0.068082, -0.081726, -0.065096, -0.057280, 0.008207, -0.031209, 0.052515, 0.006935, 0.046601, -0.227780, -0.128822, 0.019138, 0.090644, -0.004585, -0.070367, 0.182498, 0.142655, -0.062545, 0.000059, 0.109824, -0.087399, 0.126330, -0.107433, 0.046683, 0.208865, 0.052047, -0.035997, 0.032596, 0.126844, -0.140099, -0.087404, -0.026514, -0.146630, -0.093270, 0.009300, 0.029489, -0.115378, 0.067594, -0.061260, 0.130222, -0.147089, 0.185550, -0.094781, -0.034860, -0.019633, 0.028001, 0.010475, 0.136029, 0.109994, -0.047458, 0.102984, -0.187930, 0.116880, -0.077669, 0.080395, 0.070095, -0.098697, 0.043056, 0.009342, -0.092368, -0.166228, 0.105224, -0.064579, -0.127933, 0.134862, -0.095805, -0.189443, 0.092284, 0.064414, -0.017309, -0.014071, -0.092056, -0.157091, -0.075985, -0.060674, 0.015578, 0.001308, 0.237424, -0.051954, 0.063584, 0.043530, -0.174849, 0.053673, -0.114863, 0.024528, -0.067544, 0.178452, -0.084128, -0.008939, -0.041936, 0.115824, -0.088670, 0.073435, -0.056717, 0.003849, 0.099753, 0.094311, -0.018758, 0.001258, -0.039625, 0.000689, -0.010667, 0.216342, 0.165974, 0.079409, -0.246503, 0.128839, -0.187990, 0.090387, 0.093309, 0.012621, 0.236162, -0.078440, -0.060652, -0.194372, -0.186035, 0.011122, 0.044766, 0.025521, -0.098603, -0.022344, -0.012034, -0.045816, -0.041495, -0.109754, 0.009575, 0.001986, 0.010296, 0.134096, -0.024556, -0.199718, -0.064522, -0.157165, 0.106902, 0.093737, 0.236137, 0.032275, -0.033599, 0.124437, 0.146741, -0.013919, -0.049018, 0.006165, -0.177804, 0.049010, -0.113163, 0.045340, 0.111445, -0.119399, 0.189135, 0.095991, -0.004330, -0.102122, -0.068553, -0.075266, -0.021998, -0.040765, 0.091677, -0.077164, 0.061309, -0.084244, 0.035310, -0.181176, 0.062429, 0.113730, -0.022274, -0.042165, 0.135153, 0.123117, 0.017967, -0.035712, 0.079242, -0.169410, 0.019934, -0.030350, -0.115661, 0.035902, -0.143850, -0.120366, 0.184912, 0.155020, 0.013055, 0.132569, 0.059121, 0.041854, -0.192141, 0.079616, -0.157607, 0.121662, 0.089526, -0.004688, -0.084516, 0.002767, 0.160628, 0.094576, -0.055447, 0.029566, -0.006307, 0.063096, 0.152065, -0.095019, 0.021789, 0.206044, -0.132474, 0.130852, -0.091249, -0.188618, 0.062999, -0.020068, -0.117589, -0.058684, -0.017320, 0.021721, 0.112314, -0.032649, -0.075097, 0.114924, 0.038949, 0.243695, -0.113187, 0.078729, 0.191197, -0.065888, -0.001965, -0.110625, -0.029704, -0.057427, 0.040107, 0.189297, 0.034911, -0.216231, 0.103235, -0.003175, 0.139405, -0.177577, 0.109079, 0.053198, 0.041976, 0.199122, -0.077183, -0.057888, -0.102500, -0.052057, 0.006299, 0.031339, 0.070974, -0.071841, -0.059203, -0.012425, 0.094671, -0.103413, -0.012958, 0.108103, 0.158426, 0.107151, -0.033834, 0.217148, 0.118209, -0.196891, 0.086977, -0.104669, -0.073969, -0.181751, -0.007339, -0.011237, 0.067400, -0.015928, 0.114632, 0.011043, 0.086400, -0.000487, -0.110308, -0.143969, -0.085781, -0.209307, -0.093012, 0.009736, 0.012810, 0.098489, 0.069273, 0.078365, -0.066581, 0.156926, -0.079976, 0.217782, 0.003836, -0.028414, -0.154926, -0.059230, 0.025711, -0.238424, 0.057417, -0.096380, 0.023791, 0.171413, -0.019154, -0.198537, -0.107428, 0.171824, -0.148975, -0.168136, -0.163775, -0.078674, 0.038090, 0.030169, 0.036985, -0.035469, -0.192108, -0.073531, -0.124987, -0.019213, -0.150806, -0.142281, 0.143138, 0.026894, -0.031957, 0.041459, -0.086354, -0.043096, -0.215461, -0.135507, 0.099100, -0.145648, 0.247327, 0.081661, 0.068518, -0.118191, 0.009899, 0.050051, 0.097428, -0.077230, 0.176609, -0.194045, 0.035370, 0.033941, 0.156654, -0.060381, 0.133796, 0.154550, 0.047174, 0.128241, -0.093103, -0.134873, -0.043664, -0.099273, -0.061639, 0.020619, 0.071606, 0.088084, 0.030553, -0.063779, 0.021819, -0.018052, 0.223421, -0.094019, 0.088444, -0.051418, -0.067814, -0.043144, 0.062969, 0.144891, 0.100595, -0.000392, -0.000962, 0.186332, -0.082583, -0.040391, 0.009540, -0.196281, -0.161877, 0.108313, 0.091012, 0.094738, -0.036094, -0.020645, 0.126961, 0.055107, 0.100357, -0.208551, 0.079704, -0.042770, 0.190358, -0.228790, 0.096711, -0.166140, -0.046440, -0.139801, 0.118706, 0.026497, -0.010884, 0.039606, 0.004832, -0.069234, -0.162687, 0.113288, -0.035550, -0.145096, -0.041642, -0.039039, 0.068780, 0.226785, 0.127266, 0.181556, -0.104131, -0.079047, 0.090886, -0.012360, 0.200012, 0.017373, -0.064115, -0.042873};
#endif

#endif
