//Numpy array shape [64, 32]
//Min -0.246876312252
//Max 0.249590644857
//Number of zeros 0

#ifndef CORE_NODE_W0_H_
#define CORE_NODE_W0_H_

#ifndef __SYNTHESIS__
ap_fixed<16,6> core_node_w0[2048];
#else
ap_fixed<16,6> core_node_w0[2048] = {0.185745, -0.084412, -0.240294, -0.098790, -0.120481, -0.085073, 0.115533, 0.148824, 0.022054, -0.042732, 0.006202, -0.046274, -0.041308, 0.083618, 0.011508, -0.020417, 0.161114, -0.116311, 0.042781, 0.081612, -0.034201, -0.038571, 0.166502, 0.023519, 0.101839, -0.033288, 0.193468, -0.079763, -0.047954, 0.195814, 0.085743, 0.150840, 0.053038, -0.075535, 0.105946, 0.216692, -0.066588, -0.199670, 0.153785, -0.009484, -0.085581, 0.071005, -0.014260, 0.039059, -0.191465, 0.071994, -0.098179, 0.048717, 0.043656, -0.004371, -0.210163, 0.138512, 0.003025, 0.233007, -0.023722, 0.032557, 0.031893, 0.055389, -0.069450, -0.136311, -0.013527, 0.006731, -0.044670, 0.032238, -0.054690, -0.027515, 0.048432, -0.030541, 0.002815, -0.077081, -0.047811, 0.069558, -0.158882, 0.240397, -0.006130, 0.020617, 0.044025, 0.004259, -0.067765, 0.000241, -0.060268, 0.000303, -0.125564, -0.012322, -0.010699, -0.010405, 0.131978, -0.129730, 0.007526, -0.235864, 0.067189, 0.052794, 0.019040, 0.181208, 0.111842, 0.147248, -0.167906, 0.236769, 0.047808, -0.070189, -0.084523, 0.081671, 0.136127, 0.006041, -0.173729, 0.108432, -0.059703, 0.123679, -0.093400, 0.049141, -0.019462, -0.156098, -0.109572, 0.058918, -0.114725, -0.044478, -0.084297, -0.002767, 0.013547, -0.172839, -0.008698, -0.021847, -0.133710, 0.003076, -0.156452, 0.057939, -0.020837, 0.060759, -0.079483, 0.054988, 0.019015, 0.128866, 0.117060, 0.002173, 0.054159, 0.080562, -0.109559, -0.093808, 0.062370, -0.234956, -0.241370, 0.117492, 0.128414, 0.054419, -0.116454, -0.094516, -0.146839, -0.148829, 0.218981, 0.038008, -0.058233, 0.023837, 0.061738, -0.095163, 0.082335, 0.080447, -0.017994, 0.209653, -0.166029, -0.027587, -0.017450, 0.101731, -0.009585, -0.119552, -0.012814, 0.139645, -0.186598, 0.073494, -0.072977, -0.025740, 0.007068, -0.076106, -0.119024, -0.076655, 0.151460, 0.242320, -0.149749, 0.100745, -0.021432, -0.067597, -0.065680, -0.071101, -0.122476, 0.032911, -0.096137, -0.002340, 0.075577, -0.122422, 0.129745, -0.022537, 0.093380, 0.008303, 0.114162, -0.146970, -0.113594, -0.094404, 0.109509, 0.097346, -0.012424, 0.034131, -0.051707, -0.089463, 0.201264, -0.077474, 0.004318, -0.174583, -0.024621, 0.152756, 0.060283, 0.084933, -0.061927, 0.186459, -0.029415, -0.224299, 0.063772, -0.127040, 0.090325, -0.094597, 0.062362, -0.096016, 0.001834, -0.186312, 0.141858, -0.051526, -0.067388, -0.035822, -0.035942, -0.157379, -0.146839, 0.077453, -0.034311, 0.178729, 0.060085, -0.184136, 0.106821, 0.146352, 0.185157, 0.033657, -0.070163, 0.188962, -0.020209, -0.051790, -0.118090, 0.112768, 0.061278, -0.004129, 0.142461, -0.067707, -0.011972, -0.192632, 0.244408, -0.141385, 0.065555, -0.120575, 0.119201, -0.019004, 0.213342, 0.056218, -0.044068, -0.030160, -0.055773, 0.067869, -0.123131, 0.159825, -0.133995, 0.033132, 0.062972, -0.084427, 0.033683, 0.107213, 0.037241, -0.083483, -0.148218, -0.100193, 0.145099, -0.192958, -0.031295, -0.217193, -0.057295, 0.034594, -0.017151, -0.001803, 0.054622, -0.022068, -0.158353, 0.054083, 0.117468, 0.136093, 0.027957, 0.036041, -0.078068, -0.089981, 0.206808, -0.051835, 0.116071, -0.056020, 0.105760, -0.158087, 0.087057, 0.101717, -0.150983, -0.012582, -0.002214, -0.011066, 0.042557, -0.081327, -0.057697, 0.045378, 0.062428, 0.151333, 0.041115, -0.039368, 0.029269, 0.216673, -0.006752, -0.080041, 0.095703, -0.019577, -0.196894, -0.080976, 0.182069, -0.065025, -0.119381, -0.208247, 0.130700, -0.114849, -0.226646, -0.022884, -0.056953, -0.065400, 0.109454, -0.120862, -0.241582, -0.087373, 0.108817, 0.007503, -0.108640, -0.131094, -0.082812, -0.005726, -0.000657, 0.180736, 0.049476, -0.022781, -0.066502, -0.022640, -0.020705, 0.127376, -0.010057, 0.081198, -0.008313, -0.128853, -0.045509, -0.137774, -0.092085, 0.076953, 0.033827, 0.050152, -0.121993, 0.023655, 0.154907, 0.164226, -0.039370, 0.169208, 0.225642, -0.065236, 0.010609, 0.054648, 0.009355, -0.149748, 0.015818, 0.069468, 0.108681, 0.044365, -0.195055, -0.027270, 0.059365, -0.132613, 0.043449, -0.012015, 0.240181, -0.231321, 0.072966, -0.037434, -0.137091, 0.187622, 0.046426, 0.201967, -0.105590, 0.033127, 0.007518, -0.209260, -0.225525, -0.000737, 0.082822, 0.052622, 0.135041, 0.133376, -0.008245, 0.061737, 0.106762, 0.150569, 0.093061, 0.106447, -0.000901, -0.092255, -0.166842, 0.088967, 0.171507, -0.136125, -0.098812, 0.077361, 0.197088, -0.055349, -0.040963, -0.038224, 0.201585, -0.074877, 0.024307, 0.024357, -0.137734, 0.040569, -0.041666, -0.046326, 0.065454, -0.075883, 0.049609, 0.061476, -0.190779, -0.116429, 0.072007, -0.011004, -0.114753, -0.150136, -0.137119, 0.004204, 0.098526, 0.144445, -0.009218, -0.167243, 0.013675, 0.069887, -0.120735, -0.086378, -0.122975, -0.029689, -0.150747, 0.143614, -0.162529, 0.026850, -0.055544, -0.199907, 0.025650, -0.099810, 0.129552, -0.079596, 0.102149, 0.018886, -0.159393, 0.091885, 0.106951, -0.101746, 0.176014, 0.031617, -0.181434, -0.004188, 0.204919, -0.190535, -0.103318, -0.075616, -0.168260, 0.052867, -0.031266, 0.235945, -0.056328, -0.090595, 0.022060, 0.117802, 0.095743, -0.045781, -0.129652, 0.033653, 0.119530, 0.007919, -0.127047, 0.051492, -0.035657, -0.031907, -0.014205, -0.011513, 0.015397, -0.085648, 0.042697, 0.228436, -0.069928, 0.138987, -0.129039, -0.145555, 0.135204, -0.079946, -0.048174, -0.244667, 0.081388, -0.216646, 0.020303, 0.108315, -0.070044, -0.048639, 0.045303, 0.000103, -0.001111, 0.217070, 0.096691, -0.048365, -0.067047, 0.189180, 0.137222, -0.013686, -0.128610, -0.108138, -0.101447, 0.122080, -0.167706, -0.170061, 0.051236, -0.146697, -0.146054, -0.150017, 0.126219, 0.061557, -0.008665, -0.133311, -0.065998, 0.141531, 0.024954, -0.138367, -0.103519, 0.102615, -0.158425, 0.053874, 0.037058, -0.129796, -0.076757, -0.094299, 0.224541, 0.097711, -0.124028, 0.111799, -0.051601, -0.212805, -0.096543, -0.043113, 0.097877, -0.166852, -0.038692, -0.051016, -0.021414, 0.057833, -0.124050, -0.049334, -0.002091, 0.010083, -0.067359, 0.228651, -0.007854, 0.010430, -0.076903, 0.096821, -0.017736, -0.111314, 0.033449, -0.050721, 0.046466, -0.156487, 0.065799, 0.137830, -0.063755, 0.180932, 0.108482, 0.028196, 0.037435, 0.139688, -0.144588, -0.128638, -0.164088, 0.104909, 0.014351, 0.061206, 0.064342, -0.218024, 0.030261, 0.061387, -0.075237, -0.108373, -0.070184, 0.086312, -0.060993, -0.157053, 0.060133, -0.117940, -0.019850, 0.034129, -0.191817, -0.091181, -0.006377, 0.173909, -0.147130, -0.051522, 0.059424, 0.048128, 0.125672, 0.022058, -0.127906, 0.092973, 0.095108, -0.211484, 0.166625, -0.023905, -0.036320, 0.120048, -0.080375, 0.054216, -0.151567, 0.179527, 0.186379, 0.159381, -0.189539, -0.046835, 0.009114, 0.114382, 0.232854, 0.011988, 0.139246, -0.042696, -0.005611, 0.203987, -0.127594, -0.071855, -0.092086, 0.076567, -0.000825, -0.050069, -0.070827, 0.098355, 0.120962, 0.107609, -0.073849, -0.006127, -0.074848, 0.075680, 0.217947, -0.169290, 0.238090, 0.011997, 0.077953, 0.093445, -0.031537, 0.095720, 0.000541, -0.043731, 0.059329, 0.107430, -0.106004, -0.019725, 0.139216, 0.005711, -0.115856, -0.166000, -0.124548, -0.056469, -0.042840, -0.020504, 0.023036, 0.160544, -0.081236, 0.004003, -0.011049, 0.014629, 0.008304, -0.128211, 0.037568, 0.056290, 0.100373, 0.037266, 0.067335, 0.002216, -0.150391, -0.012708, 0.027566, 0.165961, -0.064318, 0.086109, -0.128624, 0.092566, -0.093730, 0.155938, -0.115518, 0.018280, -0.133713, 0.038981, 0.130246, 0.115288, 0.065165, 0.054743, 0.197845, -0.191676, -0.031943, -0.223320, 0.062641, -0.047072, -0.186648, -0.068474, 0.097907, -0.138859, 0.159534, 0.010258, 0.081963, -0.046452, 0.123935, -0.072321, -0.231364, -0.080026, 0.055545, 0.123141, -0.078641, 0.141212, -0.046273, -0.035991, -0.086449, -0.117034, -0.138227, 0.059894, -0.001733, -0.070065, 0.028274, 0.112543, 0.099371, 0.030934, -0.049506, -0.154145, -0.047936, -0.166138, -0.088610, 0.068808, -0.076665, 0.081799, -0.036780, 0.126581, -0.219090, 0.043127, 0.127024, -0.002625, 0.119452, 0.120715, 0.056077, -0.075192, -0.027828, 0.136033, 0.051320, -0.093342, 0.181826, 0.048450, -0.094745, 0.219851, 0.051988, -0.114336, -0.000544, -0.012266, -0.017122, -0.043407, 0.022640, -0.039564, 0.023455, -0.065136, 0.048868, -0.067379, 0.103774, 0.125412, 0.159141, -0.033584, -0.017804, 0.032585, 0.001948, -0.046300, 0.014864, -0.112246, 0.120478, 0.190881, -0.168903, 0.085010, -0.083115, 0.127977, -0.126572, -0.155262, -0.106368, 0.073261, -0.062449, 0.046492, -0.138095, -0.168142, 0.012561, -0.032561, -0.138804, -0.027556, -0.170221, 0.023146, -0.205828, -0.051991, -0.053136, 0.099511, -0.065805, 0.041344, -0.017753, -0.083687, 0.052507, -0.097950, 0.079537, -0.056685, 0.078101, 0.070134, 0.006387, -0.042620, -0.031784, 0.090560, 0.030817, -0.099887, -0.062335, 0.180463, -0.193888, 0.030372, 0.016319, -0.183476, 0.095636, -0.103061, -0.142156, 0.008233, -0.202109, -0.051738, 0.077434, 0.249375, 0.087869, 0.046396, -0.015572, -0.002374, -0.091509, 0.165898, 0.063064, -0.175505, 0.192965, -0.149030, 0.032849, -0.080483, 0.023416, -0.147200, 0.001539, -0.081969, -0.236109, -0.181723, 0.126621, 0.076134, 0.117278, 0.249591, 0.142611, -0.035479, 0.066683, 0.075629, -0.084856, -0.063301, 0.042577, 0.006614, 0.003636, 0.127417, 0.142398, 0.039288, -0.031709, 0.192923, 0.074608, 0.204378, 0.061007, -0.109816, -0.028610, -0.215935, -0.021927, 0.099519, -0.201206, -0.059445, 0.047484, -0.167358, 0.154285, -0.144742, 0.158172, 0.151774, 0.168637, 0.198575, -0.140534, 0.090943, -0.102380, -0.001055, -0.089139, -0.194976, 0.106644, 0.034151, 0.073113, 0.093115, -0.117922, 0.135124, -0.184724, -0.142625, -0.001121, -0.042567, -0.041782, -0.059893, -0.011340, 0.003509, -0.028706, 0.025659, -0.158291, -0.018557, 0.075088, 0.105261, -0.084710, 0.052723, -0.037192, 0.128028, -0.039954, 0.019147, 0.040771, 0.072992, -0.165612, -0.132724, 0.006574, -0.033534, -0.189238, -0.086608, -0.014894, -0.065776, 0.081549, 0.146503, -0.048047, 0.042960, 0.082999, -0.198528, -0.174578, -0.202279, 0.057611, -0.016879, -0.024809, -0.103223, 0.004945, -0.001753, 0.077808, 0.076017, 0.092753, -0.031318, -0.159201, -0.116707, 0.022170, -0.216825, 0.036793, 0.140685, -0.084374, -0.162390, -0.220530, -0.089376, 0.185728, 0.127469, 0.157557, 0.151231, -0.131672, -0.077424, 0.203145, -0.092568, -0.160667, 0.179574, 0.019677, 0.148512, -0.166435, -0.113255, 0.047012, -0.032244, 0.013084, -0.067923, -0.033447, -0.067070, 0.081477, 0.182705, 0.099419, 0.037892, 0.175916, 0.073590, 0.027027, 0.006965, -0.197911, -0.043697, -0.116978, 0.036215, -0.010624, 0.214346, 0.045642, -0.057417, 0.120999, 0.138125, -0.043133, 0.034005, 0.015077, -0.213069, 0.032190, 0.103310, 0.188207, 0.119214, -0.102266, 0.211817, -0.080534, 0.220112, 0.227218, -0.103622, -0.095360, -0.090430, -0.024006, -0.062597, 0.034811, -0.040354, -0.237893, 0.001478, 0.146727, 0.145378, 0.067917, -0.020198, 0.192032, -0.001801, 0.038261, -0.090440, -0.018771, 0.170936, -0.141501, -0.060766, -0.023700, -0.043287, 0.048975, -0.084784, -0.061312, -0.074087, -0.021019, -0.003849, 0.147643, -0.079284, 0.067971, 0.119609, 0.038583, 0.149026, 0.153755, -0.050843, 0.085116, 0.065499, -0.185278, 0.044966, 0.018565, -0.022857, -0.035325, -0.081333, 0.134933, 0.040159, -0.052637, -0.150102, 0.188685, 0.111600, -0.048337, 0.203970, 0.114720, -0.162940, -0.147814, -0.181289, -0.216538, 0.042671, -0.031238, 0.062208, -0.068866, -0.033717, -0.147425, -0.040372, 0.057935, 0.025145, 0.112448, -0.030245, -0.100727, -0.120528, -0.028960, 0.104781, -0.059268, -0.181307, 0.125445, -0.115804, -0.101258, -0.011040, 0.014766, 0.162371, 0.119466, 0.037387, 0.005400, 0.062026, -0.154979, -0.056334, 0.033561, -0.073615, -0.016751, -0.044829, 0.143215, -0.070602, -0.100786, 0.130852, 0.019622, 0.032664, -0.017570, -0.134400, -0.133681, -0.031812, 0.037898, 0.018988, -0.160119, 0.172506, -0.093261, 0.084422, 0.080800, -0.062839, -0.032774, -0.202237, 0.117136, 0.168566, -0.036403, 0.044704, 0.140923, -0.005567, 0.021471, -0.049501, -0.108186, 0.149835, 0.124011, -0.132817, 0.015236, -0.032745, -0.144462, -0.018866, -0.142629, -0.021558, 0.192603, 0.110543, 0.079290, 0.124032, -0.052951, 0.083423, 0.124159, 0.097001, 0.063807, 0.018413, -0.142715, -0.005918, -0.038329, 0.097122, -0.020508, -0.007156, 0.015853, 0.029395, 0.122055, 0.160115, -0.194471, -0.076352, 0.014789, 0.066948, 0.012955, 0.245457, -0.027588, 0.176342, -0.211518, -0.007105, 0.045952, 0.073083, 0.014985, 0.044144, -0.081724, 0.068191, -0.071236, 0.112834, -0.175340, -0.064363, -0.060261, 0.102886, -0.086946, 0.096321, -0.084280, -0.146167, 0.092352, -0.221869, -0.046231, 0.095617, 0.085560, 0.077388, 0.147308, -0.067109, 0.167659, -0.071321, 0.056545, -0.009756, -0.119023, -0.169644, -0.099720, 0.060838, -0.043894, -0.183282, -0.100808, 0.096198, -0.048737, -0.168808, 0.004856, 0.146556, -0.025289, -0.172820, -0.081914, -0.058274, -0.087764, -0.180640, -0.035954, -0.049004, 0.244184, 0.007261, -0.089890, -0.046075, -0.097463, -0.024751, -0.098944, -0.042716, -0.045484, -0.004286, -0.064967, -0.059434, 0.192701, -0.171826, -0.036556, 0.243039, -0.001411, -0.220494, -0.045020, -0.021306, 0.065736, -0.090871, -0.052572, 0.174080, -0.006911, -0.159252, 0.101061, 0.131843, -0.222362, -0.011230, 0.023260, -0.113505, 0.221572, -0.117817, 0.246179, 0.100598, -0.163449, -0.062416, -0.091250, -0.174409, 0.213427, 0.178559, -0.020934, 0.100420, 0.145233, 0.007197, -0.067656, -0.008346, -0.195854, -0.019043, 0.050270, -0.082060, -0.061104, -0.119175, -0.087821, 0.178647, 0.084945, -0.094140, -0.009033, 0.159396, -0.064533, 0.006295, 0.160412, -0.028172, 0.080755, -0.093972, -0.053571, -0.026485, 0.074563, -0.022635, 0.143709, -0.183299, 0.057454, 0.047441, -0.218204, -0.029687, 0.024824, -0.178193, 0.037355, -0.041110, -0.085775, 0.119717, -0.027380, -0.108085, -0.064250, 0.010065, 0.109754, 0.071255, 0.062964, 0.042994, -0.070534, -0.122038, -0.065109, -0.062540, -0.138242, 0.102974, -0.121451, 0.183374, 0.140898, 0.014791, 0.015915, 0.012196, -0.020105, 0.115642, -0.021473, 0.096770, -0.126107, 0.033815, -0.081779, 0.000889, -0.133401, -0.224843, 0.076606, -0.080305, -0.169006, -0.073460, 0.035226, -0.005813, -0.047098, -0.004411, 0.046200, -0.109073, 0.096699, 0.162424, 0.206883, -0.108308, 0.084155, 0.073758, 0.015710, 0.090852, -0.172117, -0.064536, -0.046794, -0.125807, -0.069906, 0.004953, -0.102377, 0.216541, 0.097971, 0.020122, 0.056154, -0.107564, -0.066409, 0.172002, -0.013174, -0.101454, 0.007038, -0.225927, -0.148248, -0.060591, -0.063191, -0.088957, -0.026925, -0.161855, -0.120900, -0.054822, -0.045025, -0.136517, 0.138111, 0.219502, 0.112343, 0.022748, 0.213007, -0.118893, 0.042930, -0.071707, -0.055501, -0.001251, 0.000785, 0.124051, -0.069452, 0.096284, -0.017509, 0.108317, -0.072107, -0.202491, 0.102239, -0.041199, 0.019150, -0.029250, -0.101544, 0.018157, -0.117325, -0.142782, -0.070895, 0.035896, 0.059799, -0.081218, -0.071026, -0.156747, -0.095784, 0.044477, 0.059621, 0.097925, -0.114447, -0.038343, -0.083028, 0.142316, -0.039885, 0.113291, -0.025393, 0.237183, -0.113304, 0.025699, -0.127543, 0.096290, 0.116716, -0.021199, 0.130964, -0.031176, 0.173245, -0.024928, -0.021993, 0.132838, 0.063705, 0.182875, -0.109075, 0.083288, -0.146668, -0.054362, -0.223432, 0.027738, 0.015239, -0.080106, -0.067343, -0.080200, 0.129903, -0.100822, -0.024789, -0.042943, -0.073644, -0.059791, 0.029755, -0.021641, -0.059470, -0.161321, -0.113472, 0.006222, 0.008903, -0.132933, -0.117526, -0.116935, -0.102158, -0.133240, -0.040238, -0.166607, -0.086338, -0.108011, -0.165432, -0.036746, 0.075353, 0.239312, 0.074444, 0.143836, -0.158079, 0.038360, 0.009913, -0.022062, 0.027021, 0.184092, -0.047217, -0.121810, -0.080188, -0.077381, -0.207731, -0.016308, 0.122127, -0.137148, 0.209397, 0.031475, 0.181394, -0.056676, 0.028127, -0.007900, -0.098029, -0.179574, 0.039104, -0.056809, -0.126106, -0.091871, -0.009332, 0.054671, 0.119896, -0.053362, 0.180846, 0.118139, 0.064856, 0.089160, -0.170064, 0.190662, 0.032716, 0.161290, -0.035182, -0.155128, 0.007771, -0.037528, 0.111585, 0.084550, -0.042268, -0.044126, 0.116328, 0.104930, 0.136240, 0.027703, 0.054133, 0.210154, 0.107850, -0.048597, -0.151636, -0.082145, -0.026642, -0.118014, 0.006255, 0.153677, 0.002108, 0.101415, -0.146827, -0.041270, -0.212123, -0.021880, 0.144223, -0.013275, -0.046891, -0.035224, -0.050489, -0.005487, -0.094534, 0.044332, -0.138569, -0.054627, -0.045851, -0.246876, 0.175664, 0.010607, 0.036098, 0.101383, 0.055642, 0.030423, 0.092716, -0.227739, -0.223494, 0.087129, 0.049947, 0.005956, 0.176330, 0.165466, 0.027615, 0.191231, -0.145487, -0.174111, -0.045053, -0.243957, -0.177908, -0.074435, -0.157929, -0.009716, -0.108833, 0.041744, 0.108824, 0.246446, -0.171732, -0.055223, 0.020736, -0.041500, -0.014365, -0.092427, -0.147092, -0.137850, 0.093157, -0.046252, -0.007110, -0.053242, -0.004696, -0.127753, 0.021538, -0.108336, 0.069645, 0.033105, 0.017790, -0.018241, -0.201985, 0.009677, 0.010660, 0.082364, 0.249238, -0.015196, -0.056072, -0.069903, -0.193205, 0.023586, 0.142194, 0.195353, 0.129454, -0.005754, -0.031347, 0.208623, 0.025448, 0.146987, -0.212106, 0.157346, -0.011429, -0.170123, 0.045532, 0.021461, -0.113718, 0.035088, 0.015164, -0.030275, -0.065643, 0.098549, 0.009262, 0.095474, -0.073423, -0.073946, 0.135904, -0.041692, -0.038299, -0.194387, -0.042923, 0.056862, 0.120184, 0.163898, 0.033472, 0.119495, 0.148359, 0.038876, -0.107183, -0.020720, 0.039981, 0.001557, 0.035534, -0.153972, 0.106964, 0.170942, 0.229764, -0.105138, -0.239847, -0.014907, 0.005305, -0.038943, 0.058231, -0.030513, 0.017645, -0.117856, 0.104325, 0.119561, 0.084037, -0.102434, 0.139782, 0.058976, -0.244011, 0.205964, 0.010358, 0.024308, 0.141951, 0.044973, -0.220677, -0.118725, -0.167102, 0.083658, -0.052775, 0.037749, -0.018346, -0.081766, -0.105836, 0.062031, -0.029983, -0.096951, -0.028537, 0.090117, 0.073149, 0.069449, -0.077661, -0.059882, 0.033875, 0.060643, -0.087319, 0.028988, 0.114241, -0.059289, 0.110757, 0.021130, 0.018192, -0.012135, -0.122536, 0.050487, 0.033861, 0.057899, 0.117418, -0.020270, -0.119595, 0.083851, 0.056554, -0.034359, 0.012663, 0.081052, -0.160198, -0.018321, 0.043786, 0.028063, 0.176137, 0.008963, -0.162801, -0.134222, 0.044952, 0.084965, -0.054935, 0.117457, 0.035438, -0.174738, 0.005248, -0.073186, 0.006344, 0.131211, -0.007654, 0.157847, 0.064791, -0.022126, 0.004246, 0.105433, -0.087596, 0.050168, -0.040683, 0.177267, -0.197646, 0.121074, -0.004068, -0.123107, 0.174493, -0.244281, -0.117942, 0.169242, 0.091114, 0.078276, 0.046273, 0.054661, 0.080434, 0.113435, -0.030513, 0.187257, -0.003584, 0.170457, -0.084173, 0.219860, -0.133381, 0.119963, -0.058136, -0.009669, -0.243419, -0.085342, -0.095200, -0.040062, 0.049209, 0.117973, -0.000299, -0.119299, 0.103038, 0.240564, 0.157502, -0.164914, -0.214246, -0.037423, 0.062480, -0.104788, 0.069350, -0.115520, -0.076210, -0.111182, 0.163841, -0.162329, -0.196458, 0.038034, 0.229822, 0.029206, 0.127239, -0.012534, 0.037870, -0.156662, -0.122837, -0.124786, -0.063659, -0.145009, -0.048166, 0.079345, 0.031602, -0.188549, -0.041364, 0.047154, 0.168221, 0.102937, 0.015989, -0.073702, -0.143013, 0.073944, 0.011025, -0.246170, 0.076768, -0.047995, -0.023966, -0.117594, -0.083543, 0.090362, 0.221574, 0.041013, 0.034144, 0.003678, -0.036584, 0.037253, 0.001957, -0.033406, -0.099270, -0.142685, 0.083933, -0.009804, 0.146674, 0.061372, -0.052770, -0.018539, -0.111759, 0.106250, 0.039717, -0.122899, 0.043524, 0.158907, 0.083075, -0.169330, -0.027140, 0.014524, -0.077288, 0.043555, 0.212007, -0.016340, -0.085068, 0.154890, 0.116509, 0.054084, -0.034633, 0.029427, -0.142602, 0.048226, 0.175839, 0.139528, -0.180084, 0.187650, -0.008461, 0.013180, 0.002191, 0.038723, -0.223387, -0.049111, 0.002115, 0.046405, -0.059335, -0.023492, 0.120977, 0.069532, -0.045294, 0.230156, -0.072953, -0.090903, 0.087181, -0.150172, -0.027055, 0.169714, 0.239207, 0.023629, 0.149115, 0.043415, 0.230080, -0.068224, 0.203381, 0.062822, 0.000641, 0.109846, 0.038663, -0.188661, 0.020604, 0.053746, -0.039475, -0.109355, 0.161369, 0.011965, 0.116082, -0.022800, 0.141728, 0.059955, -0.106563, 0.066461, 0.050825, 0.129061, 0.024262, -0.073731, 0.155749, 0.008648, -0.198539, 0.033105, 0.121204, 0.201308, 0.078796, -0.027369, 0.063152, -0.169338, 0.024942, -0.068661, -0.056080, 0.109999, -0.035880, 0.065978, 0.095847, 0.067179, 0.127475, -0.008131, -0.160906, 0.005049, -0.040115, -0.064974, -0.054914, -0.120426, -0.164043, -0.047888, -0.092302, 0.023389, 0.104871, -0.034745, -0.016524, 0.029813, -0.022611, 0.061165, -0.072190, 0.109188, 0.092635, 0.109349, 0.037301, -0.101084, 0.093103, -0.138038, -0.016227, 0.029732, -0.060509, 0.071239, -0.110559, 0.095119, 0.143694, 0.005001, 0.028539, 0.018411, 0.063434, 0.108115, -0.161323, 0.015362, 0.089063, -0.204696, 0.074415, 0.206928, 0.027074, 0.061487, -0.088340, -0.051560, 0.022958, 0.138563, -0.100027, 0.021348, -0.001533, 0.144382, 0.081447, 0.081027, -0.033245, -0.053695, -0.200134, 0.042408, 0.013946, 0.019369, 0.026828, -0.216780, -0.046898, 0.086197, -0.069719, -0.121878, -0.059877, 0.160692, -0.093567, -0.110034, 0.165425, 0.125283, 0.047648, -0.206695, -0.074343, 0.062288, -0.062493, -0.043710, -0.239266, -0.079107, 0.069106, -0.041343, -0.227321, -0.106523, -0.033730, -0.072247, 0.089732, 0.006533, -0.074352, 0.047245, -0.160109, -0.038896, -0.066226, -0.235757, 0.125551, 0.236543, 0.075494, -0.012358, -0.025836, 0.041352, -0.030633, 0.105915, -0.078654, -0.141257, 0.042809, -0.093852, -0.021890, 0.038898, -0.204823, -0.186230, -0.179234, -0.071093, -0.045349, 0.062146};
#endif

#endif
