//Numpy array shape [32, 64]
//Min -0.247593176101
//Max 0.247788269427
//Number of zeros 0

#ifndef CORE_NODE_W0_H_
#define CORE_NODE_W0_H_

#ifndef __SYNTHESIS__
ap_fixed<16,6> core_node_w0[2048];
#else
ap_fixed<16,6> core_node_w0[2048] = {-0.134506, 0.094046, 0.074984, -0.083291, 0.095604, -0.042904, 0.089479, -0.205166, 0.174870, -0.079161, 0.012659, -0.138821, 0.113670, -0.050101, -0.032981, 0.053408, -0.040284, 0.044025, 0.194674, -0.120655, -0.164926, 0.149742, -0.172966, 0.071228, 0.139167, -0.080854, -0.060074, 0.050061, -0.121797, 0.014561, 0.206000, -0.031846, 0.096951, -0.015687, -0.179636, 0.077745, 0.081557, -0.055917, -0.005636, 0.108468, 0.149252, -0.035045, -0.087404, 0.116795, 0.030381, 0.243158, 0.173874, 0.126258, 0.106484, 0.057332, -0.098224, 0.014566, 0.096111, 0.003564, 0.096110, 0.151613, 0.191309, -0.098458, -0.087600, -0.080050, -0.019419, 0.220859, -0.031767, -0.024071, -0.108295, -0.105234, 0.065677, 0.046382, 0.025549, -0.084394, 0.078419, 0.107901, -0.083516, 0.041630, -0.081551, 0.237014, -0.199633, -0.066682, 0.129524, -0.129601, -0.127119, 0.080162, -0.051470, -0.052447, 0.217755, -0.052669, -0.016448, -0.040233, 0.080129, 0.115088, 0.206960, -0.107106, -0.057244, 0.210921, -0.073924, 0.061927, -0.007900, 0.137228, -0.035131, -0.015173, 0.238902, 0.058714, -0.099417, -0.005975, -0.055383, -0.090325, -0.044852, -0.196049, 0.069773, 0.059334, -0.025685, 0.111691, -0.033912, -0.211756, -0.222708, -0.035384, 0.054314, 0.175984, 0.056326, -0.052138, 0.144425, 0.064732, 0.039123, -0.000819, -0.084334, -0.004885, 0.136499, -0.071005, 0.031381, -0.030424, -0.029272, -0.030960, 0.245865, 0.121066, -0.095787, 0.056548, 0.121652, -0.097947, 0.104988, 0.096371, 0.220625, -0.007043, -0.108543, 0.033902, 0.109814, -0.224083, -0.025088, 0.108725, 0.186343, -0.114099, -0.069113, 0.120466, 0.025676, 0.175569, -0.022733, 0.031046, 0.195075, -0.051281, 0.142531, -0.111548, 0.230414, 0.012969, 0.224748, -0.050007, 0.094366, -0.115638, 0.110742, -0.173815, 0.051907, 0.031542, 0.110940, 0.118720, -0.117976, -0.033961, -0.159368, -0.181862, -0.203947, -0.035662, -0.028573, 0.082216, -0.100875, -0.046586, 0.047870, 0.065753, -0.055384, -0.068988, -0.116221, -0.025371, -0.202944, -0.114346, -0.137953, -0.052154, -0.123494, -0.173816, -0.000383, 0.044856, 0.108177, 0.117582, 0.038437, 0.066146, -0.038914, 0.062481, -0.145398, -0.166794, -0.095561, -0.137198, 0.167350, -0.177761, -0.003962, 0.024390, -0.056441, 0.228659, -0.069325, 0.042561, 0.069498, -0.035185, -0.024870, 0.064872, 0.043973, -0.025169, 0.200810, 0.068425, -0.051619, 0.122880, -0.032289, 0.102588, 0.099509, 0.003115, 0.020244, -0.233437, -0.078208, -0.106676, 0.082820, 0.087733, 0.187298, -0.045821, -0.191070, -0.012190, -0.094186, -0.121505, -0.035011, -0.063489, -0.032325, -0.006795, -0.090609, 0.095635, -0.078035, 0.161546, 0.178078, 0.165786, -0.032720, -0.164752, -0.117609, 0.011866, -0.009286, -0.020019, -0.132025, -0.021854, -0.145489, -0.076379, -0.003782, -0.060853, -0.232245, -0.182840, 0.099053, -0.092657, 0.084696, 0.001347, 0.006413, -0.095936, -0.057348, -0.105241, -0.042954, -0.018387, -0.002488, -0.114655, -0.014630, 0.111482, 0.113281, -0.136836, -0.062666, 0.017254, -0.060976, -0.126049, 0.002949, 0.078837, 0.001773, -0.030202, -0.042420, 0.037912, 0.200156, -0.042206, 0.024766, -0.160861, -0.156525, -0.031524, -0.028500, 0.189731, -0.109248, 0.169486, 0.050344, 0.108647, 0.028620, 0.100636, -0.052155, -0.079391, -0.060487, 0.166507, 0.148603, -0.032011, 0.113157, -0.150969, -0.027378, -0.056983, 0.015666, -0.026801, 0.117177, -0.067363, -0.023110, 0.022774, -0.176707, 0.128250, 0.156655, -0.150220, -0.048369, 0.062987, -0.107266, 0.101938, -0.018665, -0.056711, -0.101610, 0.247028, 0.043544, 0.071814, 0.068556, -0.075761, -0.148240, -0.101628, -0.028418, -0.037624, -0.090246, -0.053992, -0.019243, -0.041300, 0.074538, -0.007716, -0.015314, 0.054031, -0.035412, 0.054979, 0.071951, 0.151323, 0.195867, 0.071668, -0.007334, 0.016810, 0.133041, -0.063482, 0.034840, -0.104119, 0.025032, 0.176799, 0.131936, -0.176937, 0.060999, -0.120751, 0.001631, 0.083748, 0.102843, 0.036338, 0.075302, 0.080788, -0.240847, -0.093661, 0.069680, 0.069387, -0.084375, -0.024032, -0.014070, -0.036067, 0.094891, -0.007574, 0.022761, 0.028911, -0.122621, -0.074741, -0.078211, -0.045411, 0.047072, 0.075952, -0.024459, -0.112241, 0.028992, 0.083973, -0.160155, -0.151399, 0.230008, 0.023760, -0.000794, -0.013144, 0.050961, 0.010810, -0.072604, -0.097425, -0.159752, -0.158542, -0.034339, 0.115216, -0.112719, -0.225382, -0.107346, 0.115020, 0.064150, 0.142791, -0.015850, 0.067156, 0.073996, 0.042471, -0.035042, 0.145397, -0.063804, -0.022111, -0.111904, -0.130543, 0.098447, -0.179696, -0.129799, -0.054014, -0.099922, -0.162487, 0.034247, -0.127053, 0.152641, -0.002196, -0.104498, 0.129803, -0.213112, 0.076795, 0.049427, -0.010735, -0.001401, -0.226694, -0.044842, 0.189287, 0.247788, 0.043338, -0.013464, 0.182174, 0.201552, -0.038245, 0.062734, 0.127848, 0.062362, -0.078282, -0.060540, -0.226660, -0.036548, 0.099136, -0.009976, -0.088998, -0.100620, -0.052088, -0.144243, 0.142758, -0.019941, -0.060156, -0.070221, 0.143939, 0.118028, -0.013641, -0.054482, -0.122244, -0.193159, -0.227192, -0.016422, -0.108520, -0.180263, 0.028539, 0.010036, 0.044783, -0.052111, -0.068645, -0.007279, 0.207231, 0.012936, -0.232712, 0.117556, 0.057984, -0.153820, -0.061318, 0.076610, -0.116300, -0.162526, 0.168773, -0.027482, -0.042567, -0.215352, -0.080159, -0.072745, -0.159197, -0.007199, 0.078184, 0.179472, 0.052531, -0.009001, 0.020215, 0.151160, 0.071448, -0.084747, -0.205524, 0.109150, 0.176975, 0.083444, -0.123699, -0.113106, -0.029122, 0.153160, 0.030974, 0.045691, 0.103630, 0.050789, -0.097588, 0.088760, 0.074959, -0.023850, -0.019803, 0.106826, -0.025052, 0.101834, -0.007708, 0.014231, 0.028684, -0.045958, 0.021688, 0.143526, 0.150082, -0.183297, 0.076798, 0.189995, -0.015161, -0.135583, 0.042677, 0.018507, 0.100694, -0.168216, 0.078145, -0.087998, -0.042176, -0.008185, -0.135640, 0.073114, 0.088415, 0.008327, 0.055396, 0.046880, 0.039739, -0.066443, 0.005749, -0.169335, 0.198906, 0.131137, -0.029136, 0.005876, -0.141906, -0.007742, 0.084843, -0.033233, -0.106147, 0.079771, -0.038884, -0.141385, -0.044099, 0.008469, 0.090665, 0.085852, 0.070175, -0.061590, -0.185854, 0.171205, -0.081740, -0.223439, 0.148645, -0.133428, -0.064647, -0.082860, -0.137053, -0.111772, -0.176887, 0.135236, 0.174253, 0.056241, -0.107988, 0.185837, -0.038061, -0.107904, 0.078869, -0.036418, -0.041677, 0.068484, 0.046960, -0.090106, 0.014366, 0.014661, 0.198531, -0.123049, 0.000582, 0.018507, -0.121006, 0.026286, 0.073437, -0.039486, -0.009369, 0.091525, -0.054933, -0.127536, 0.090636, -0.078440, 0.128252, 0.178182, -0.149571, 0.110985, 0.052644, -0.168302, -0.170860, -0.002753, -0.085702, 0.090672, 0.000348, -0.177123, 0.058509, 0.157090, 0.068074, -0.124580, -0.158148, -0.038516, -0.031310, 0.159988, 0.047922, 0.044861, 0.024927, -0.046073, 0.141588, 0.017355, 0.153300, 0.162932, -0.084228, -0.079140, 0.003678, 0.047923, 0.103072, -0.143319, 0.030866, -0.026543, 0.019476, -0.103343, -0.048603, 0.031822, -0.188271, -0.074884, -0.042744, 0.197119, 0.106448, 0.077241, -0.041673, 0.007115, 0.098207, 0.020891, 0.067705, 0.081281, 0.060199, -0.062153, 0.064370, 0.039973, -0.120878, -0.013286, 0.197378, 0.136283, 0.032783, 0.110373, -0.000245, 0.162168, -0.074594, -0.054215, 0.136224, 0.021676, 0.123630, -0.192631, 0.131834, -0.004316, 0.083096, -0.096299, 0.030442, -0.007125, -0.172293, -0.095592, -0.083946, 0.161042, -0.116692, 0.083454, 0.139933, 0.100575, -0.095763, -0.072719, -0.176314, -0.039737, -0.073510, -0.100535, 0.109043, -0.009033, 0.133088, -0.013353, 0.132681, 0.230717, 0.081782, 0.145479, 0.160211, -0.153647, 0.107782, 0.159368, -0.226759, -0.222440, 0.028032, 0.152794, -0.027302, 0.082837, 0.150751, -0.064424, -0.186292, -0.043194, 0.125013, -0.157118, 0.038436, -0.155653, -0.121708, 0.067177, -0.075216, -0.075228, -0.200119, -0.033213, -0.159143, -0.131977, -0.218911, -0.050050, -0.054714, -0.002693, 0.158127, 0.003599, 0.058430, -0.056152, -0.018449, 0.038914, 0.051711, -0.017085, -0.118457, 0.147628, 0.166137, -0.136549, -0.156099, 0.210879, -0.004506, 0.139027, 0.180257, -0.017366, -0.235660, -0.093855, -0.053503, -0.108120, 0.039876, 0.001276, -0.056583, -0.063374, 0.041972, -0.089129, -0.162576, -0.025526, 0.238221, -0.166814, 0.034115, -0.150230, 0.123975, 0.115051, 0.119219, 0.049317, 0.136203, -0.078983, -0.025456, -0.127683, 0.220489, 0.142027, -0.007122, 0.073473, -0.003576, 0.098912, -0.044202, 0.064208, 0.219289, -0.066547, -0.089852, 0.073888, 0.103159, 0.045626, -0.033888, -0.125925, 0.026558, -0.203973, -0.078417, -0.158653, -0.018499, 0.238590, 0.110310, -0.033906, -0.025787, -0.010518, 0.191714, -0.016835, -0.090744, 0.057632, 0.065292, 0.025374, -0.001902, 0.118337, -0.008644, 0.058486, -0.060647, -0.017195, -0.059636, -0.080949, 0.003740, -0.085032, 0.126193, 0.017664, 0.039575, 0.212595, -0.234914, -0.060849, -0.114279, 0.043065, -0.088230, 0.023805, -0.046087, -0.049479, 0.039105, 0.057448, 0.039597, 0.144463, 0.001252, -0.007756, -0.122913, 0.101363, -0.102086, 0.154093, 0.170357, 0.048305, -0.043587, 0.006056, -0.085570, -0.067887, -0.093644, 0.196906, 0.033814, 0.039954, -0.154409, 0.164165, -0.214659, -0.131758, 0.068840, -0.160138, 0.194901, 0.056987, 0.014281, 0.065566, -0.058559, 0.150685, 0.026759, 0.032761, -0.040579, -0.022494, -0.118835, 0.019860, -0.106804, -0.016677, -0.106939, -0.100734, 0.240978, 0.136893, -0.027369, -0.024980, -0.029712, 0.039515, -0.185354, 0.016121, 0.077124, -0.012083, -0.072529, -0.083119, 0.056138, -0.095905, 0.007319, 0.077788, -0.032537, -0.025161, 0.107317, -0.143542, 0.004798, -0.097353, 0.066729, -0.015543, -0.046473, 0.067409, 0.095196, 0.047075, -0.118911, 0.094176, 0.106137, 0.059960, 0.203036, -0.127108, 0.035253, 0.096474, 0.006887, -0.153352, 0.015652, 0.129866, -0.046686, 0.194161, -0.008891, -0.131203, -0.039290, -0.208053, 0.162676, -0.027364, -0.172270, -0.099643, -0.124925, 0.051357, -0.069942, 0.075468, 0.025571, 0.189819, 0.074812, 0.138173, 0.101102, -0.038513, 0.228151, -0.076461, 0.052170, 0.050318, 0.143585, -0.091808, -0.094761, -0.237566, -0.125201, -0.057952, 0.159017, -0.146714, -0.145009, -0.031894, -0.083310, 0.024004, 0.132084, 0.025068, -0.062425, 0.033049, 0.087251, 0.192005, 0.002654, 0.055458, -0.113484, -0.105650, 0.244180, -0.004573, 0.148153, 0.038083, -0.039619, 0.143383, -0.182946, -0.011619, 0.004381, 0.091873, -0.044151, 0.100102, -0.004260, 0.102348, -0.036404, 0.126382, -0.208896, 0.045822, -0.247593, -0.080734, -0.176165, -0.167745, 0.055697, 0.028208, 0.024090, -0.138151, -0.122262, -0.047037, 0.053408, -0.032324, 0.048198, 0.160801, 0.161326, 0.047433, -0.137377, 0.084446, -0.125360, -0.080839, 0.082005, 0.011745, 0.157212, 0.034836, -0.007085, -0.127562, 0.029303, 0.220936, -0.028337, 0.074381, 0.054379, -0.146579, 0.051670, -0.035494, 0.056275, 0.042629, -0.019642, -0.109130, 0.116516, 0.117015, 0.082505, 0.065054, 0.033975, 0.220994, 0.158306, -0.164787, 0.036610, -0.139297, 0.063837, -0.107637, 0.025025, -0.114024, 0.028669, -0.106689, -0.025860, -0.003315, -0.071615, -0.143862, -0.075747, -0.016827, 0.030908, 0.111833, 0.231135, -0.065952, -0.084609, 0.068861, -0.023357, -0.061623, 0.049124, -0.120127, 0.006868, 0.019520, 0.053852, -0.128506, 0.080208, 0.065618, 0.017159, 0.035936, 0.103186, 0.229196, -0.045724, 0.121169, -0.127197, 0.024331, 0.041210, 0.150031, -0.011834, -0.119449, 0.052817, -0.076192, -0.240727, -0.027774, 0.099411, 0.187986, 0.105998, 0.128613, 0.017691, 0.028690, -0.082310, 0.041316, 0.205137, 0.005658, 0.146567, 0.005230, 0.013509, 0.087915, 0.167100, 0.126721, 0.021768, 0.084634, -0.173283, 0.121355, -0.041960, -0.079507, -0.053486, -0.172623, 0.147941, -0.203225, 0.212416, 0.066007, 0.087446, -0.028097, -0.042426, 0.173593, 0.082934, 0.064634, 0.123057, -0.109428, -0.016120, -0.016442, 0.047866, 0.099730, -0.016385, -0.154047, 0.101358, -0.071146, -0.065639, 0.024498, -0.075928, -0.078685, 0.093589, -0.085100, 0.087957, 0.052438, -0.037376, -0.032236, -0.015604, 0.076830, 0.019806, -0.083811, -0.168646, -0.114703, 0.043509, 0.004687, -0.062410, 0.044064, -0.056057, -0.046630, -0.016725, -0.166983, -0.165956, -0.196660, 0.125241, 0.101496, 0.055347, -0.053133, 0.020033, 0.175157, 0.028434, -0.003418, 0.095634, 0.014157, 0.011532, -0.038947, -0.026008, 0.026960, 0.063731, 0.019110, 0.024551, -0.219032, 0.061442, -0.060720, -0.073744, 0.137471, -0.080974, -0.147507, 0.079346, -0.046621, 0.089739, 0.170908, -0.034629, 0.043400, -0.221793, 0.023913, 0.091286, 0.189545, -0.119448, 0.134746, 0.023045, 0.031544, 0.047133, -0.170490, -0.063747, 0.086526, -0.197067, 0.056302, -0.020520, -0.188549, -0.025354, -0.064111, -0.235151, -0.011490, -0.040221, 0.006091, 0.014781, -0.140663, -0.035987, 0.215653, -0.143688, 0.078202, 0.119004, -0.009448, 0.042026, -0.104695, 0.173186, -0.032481, 0.002602, -0.134906, 0.134064, 0.066918, -0.191241, -0.029966, -0.052747, 0.231487, 0.215871, 0.227321, 0.131729, 0.130810, 0.165185, 0.002986, -0.056031, 0.116777, 0.044210, -0.038417, -0.135310, 0.047412, -0.205279, 0.041227, -0.051556, -0.075551, -0.105883, -0.007686, -0.164582, -0.026807, -0.115107, -0.094517, 0.234239, -0.142085, -0.038417, -0.104478, 0.032923, 0.143592, 0.188388, -0.064748, 0.048603, -0.054289, -0.164416, 0.033193, -0.073170, 0.182209, 0.133677, -0.044094, 0.235723, 0.211461, -0.025643, -0.035817, 0.055557, 0.051848, 0.097594, -0.217914, 0.092686, -0.214362, 0.124988, 0.038605, -0.105652, 0.049509, 0.026267, 0.205870, -0.044819, 0.077715, -0.121906, -0.067486, -0.117852, -0.023905, -0.030992, -0.095075, -0.163355, 0.132710, 0.130696, 0.158223, -0.134339, -0.129787, -0.014821, 0.013391, -0.064215, -0.004487, 0.134703, 0.046615, -0.207572, -0.125781, 0.042539, -0.208334, 0.082932, 0.133321, -0.031655, 0.179928, -0.225359, -0.093008, 0.015669, -0.017518, -0.166056, -0.083746, -0.032566, -0.152649, 0.055131, 0.100729, 0.021492, 0.145851, -0.062638, 0.009174, -0.152956, 0.053588, -0.035742, -0.152112, -0.000395, 0.154556, 0.205682, 0.033252, -0.023966, 0.203601, -0.133312, 0.104896, 0.124593, 0.105834, 0.024967, 0.112842, -0.000141, -0.122811, -0.091766, -0.122122, -0.031959, -0.045779, -0.122007, 0.151026, -0.094657, 0.127621, 0.131724, -0.119057, 0.173407, -0.064507, -0.198885, 0.247025, 0.081585, -0.165274, -0.055368, 0.142060, 0.073174, 0.118689, 0.091873, -0.015561, -0.095116, 0.014225, -0.148545, -0.157694, 0.096095, -0.116907, -0.013772, -0.008570, -0.190990, -0.019769, -0.035756, -0.003170, -0.036248, -0.098578, 0.062566, -0.051641, -0.000700, -0.089553, -0.016177, -0.050581, -0.186938, -0.130250, 0.178781, -0.022757, -0.004766, -0.077816, 0.099426, -0.185739, -0.023883, -0.075783, -0.182208, 0.055858, 0.071702, 0.144643, 0.033499, -0.103076, -0.002326, 0.094106, 0.057778, -0.046805, -0.051779, 0.009229, -0.149277, 0.135187, 0.019353, 0.109983, 0.074134, 0.004962, 0.105080, -0.076642, -0.011993, -0.170358, -0.070119, -0.157396, 0.117694, 0.053914, -0.139201, 0.052092, 0.059482, 0.158885, -0.001669, 0.174428, -0.019191, -0.031083, -0.008956, 0.149575, 0.009491, 0.053558, 0.077671, 0.160018, 0.145796, 0.145742, -0.118069, 0.086775, -0.086645, 0.107771, -0.034104, -0.112953, -0.120962, 0.027772, 0.158009, -0.068864, 0.078916, 0.060711, 0.056005, 0.029034, -0.052749, -0.059978, -0.071007, -0.089051, 0.015769, -0.038747, -0.056911, -0.158296, -0.073576, 0.193072, -0.119587, -0.071261, -0.013955, 0.063140, 0.180834, 0.137127, 0.009249, 0.172028, -0.218282, 0.071381, 0.163303, -0.239856, -0.050404, -0.065434, 0.054218, -0.109937, -0.045659, 0.066524, -0.016845, 0.012671, -0.199652, 0.057050, 0.201005, 0.086378, 0.190675, 0.035010, 0.150059, 0.091357, 0.061867, -0.034253, 0.160415, 0.048678, -0.016260, 0.130944, 0.086500, 0.005348, 0.038890, 0.148509, -0.142836, -0.016096, 0.152004, -0.063026, 0.226927, 0.138369, -0.233320, 0.142104, -0.073740, 0.009873, 0.119276, 0.036762, 0.090817, -0.157459, -0.013211, 0.078382, 0.153600, 0.033720, -0.097671, 0.088738, -0.055857, -0.013217, -0.168066, 0.104319, 0.106864, -0.095926, -0.184098, -0.032427, -0.094074, -0.056941, 0.024641, 0.020711, -0.072586, -0.124667, -0.079372, 0.032435, 0.028850, 0.109276, -0.092881, -0.099483, -0.066678, 0.108893, 0.007387, 0.041277, 0.146908, -0.143985, 0.142652, -0.085761, -0.015788, -0.132945, 0.038274, -0.216048, 0.002108, -0.064163, 0.246490, -0.021828, 0.059215, -0.000850, -0.017090, 0.016983, -0.223988, 0.023283, 0.234464, -0.018187, 0.050383, -0.035911, -0.177379, -0.129137, 0.063194, -0.026612, 0.072616, 0.153288, -0.140175, 0.133921, 0.158729, 0.050412, -0.149476, -0.148682, -0.137177, -0.187545, -0.035780, 0.194980, -0.120261, 0.014410, 0.053082, -0.026528, 0.016477, -0.043765, -0.130484, 0.194020, -0.006156, 0.004592, -0.017918, 0.153501, -0.185492, 0.153356, -0.103932, -0.124046, -0.087809, -0.142700, -0.101199, 0.111720, 0.007102, -0.131507, 0.191232, 0.020570, -0.069591, 0.017983, 0.069012, 0.115654, 0.165685, 0.131736, 0.208204, -0.050565, 0.037762, -0.189985, 0.100293, 0.083156, -0.099578, 0.011475, -0.075235, -0.140028, -0.003988, -0.039788, 0.162369, -0.013210, -0.176013, -0.025162, -0.245458, 0.218742, 0.070664, 0.106326, -0.038781, -0.125587, -0.010748, -0.108110, -0.051723, 0.189793, 0.222523, -0.126548, 0.081424, 0.150793, -0.078535, 0.031950, 0.117749, 0.048487, 0.052848, 0.008509, 0.130036, -0.131449, -0.177176, 0.078543, -0.129080, 0.017047, -0.034715, 0.080045, 0.062064, -0.092230, 0.043854, -0.038907, 0.062443, -0.097047, 0.010469, 0.120930, 0.029276, 0.020962, -0.055409, -0.093968, -0.234099, -0.185322, -0.043116, -0.083885, 0.054440, 0.129472, 0.079711, -0.194778, 0.020416, -0.080047, -0.022259, -0.216143, -0.058185, 0.034133, 0.082405, 0.220545, -0.007909, -0.089063, 0.018302, -0.168064, 0.166099, -0.038520, -0.035681, -0.030308, -0.154770, 0.045141, 0.195298, -0.053470, -0.198889, -0.102782, -0.117033, 0.041101, 0.234726, 0.020458, -0.104470, -0.176251, 0.007846, -0.081797, 0.127901, -0.059717, 0.118691, -0.036248, -0.010780, 0.086656, 0.113236, -0.125810, -0.051241, 0.133060, 0.133719, -0.067667, 0.045408, -0.095844, 0.109082, 0.245194, -0.061810, 0.123423, 0.097829, 0.119345, 0.046767, -0.194067, -0.095115, 0.046955, -0.146505, -0.019023, 0.114637, 0.007156, 0.026720, 0.124521, 0.029203, 0.012098, -0.031383, 0.193090, -0.237036, 0.041185, 0.019546, 0.068750, -0.131270, -0.152834, 0.084687, 0.140820, 0.023365, 0.077569, -0.151406, 0.171611, 0.067765, 0.018151, 0.130139, 0.060463, -0.052396, 0.031097, 0.090559, -0.135786, -0.028093, -0.099934, -0.136929, 0.192833, 0.211190, 0.033016, -0.196131, -0.082072, 0.050718, 0.113494, -0.180857, 0.105075, 0.042398, 0.089349, 0.104651, -0.162617, -0.065524, -0.036098, -0.191359, -0.018034, 0.061896, -0.215690, 0.118368, 0.120583, 0.153516, -0.176378, -0.041663, 0.215116, 0.036317, 0.046540, 0.233784, 0.068531, 0.035387, 0.079472, -0.207513, 0.043263, -0.089378, 0.156317, -0.009658, -0.154618, -0.074953, 0.042385, 0.010663, 0.121493, -0.035262, 0.056788, -0.188008, 0.093169, 0.185720, -0.032224, 0.030992, -0.054380, 0.184560, 0.130582, 0.241889, 0.045861, 0.085099, 0.221588, 0.050754, -0.085910, 0.001345, 0.112392, -0.223069, 0.094533, -0.170783, 0.119131, 0.187467, -0.180242, 0.073201, 0.055403, 0.226149, 0.056796, -0.054552, -0.038909, 0.010125, -0.004042, -0.075658, -0.117197, 0.118272, -0.096389, 0.173428, 0.039516, -0.139685, 0.042545, -0.214037, 0.031766, -0.136713, -0.220680, 0.009384, -0.013659, 0.104557, -0.050881, -0.168133, -0.051478, -0.247452, 0.006053, -0.027919, -0.156691, -0.062674, -0.069398, -0.011939, 0.010357, -0.212638, -0.063319, -0.106937, 0.176675, -0.087905, 0.157958, -0.155123, -0.022341, 0.090368, 0.195947, 0.160868, -0.088450, 0.004682, 0.169439, 0.183899, -0.069197, 0.115958, 0.031243, -0.135934, -0.017014, 0.003155, 0.038164, 0.126903, 0.001000, 0.169702, -0.050167, 0.018053, 0.033026, -0.037256, 0.165743, -0.012995, 0.014422, -0.008162, 0.002985, -0.012837, 0.031360, -0.158666, -0.061539, 0.186768, -0.078450, 0.171141, 0.242559, 0.138160, 0.038301, 0.023625, -0.073225, -0.091993, 0.074576, 0.072927, -0.056945, -0.227430, 0.116554, 0.107804, 0.017289, -0.041725, -0.039163, -0.002807, -0.203037, -0.120161, 0.074507, 0.054918, 0.139244, -0.137790, 0.035232, -0.245716, 0.113669, -0.106325, 0.065412, -0.013121, 0.045194, 0.024367, -0.020838, 0.036421, -0.176738, 0.094604, 0.085595, 0.041893, 0.099431, 0.244219, -0.059339, -0.055554, 0.048122, 0.225561, -0.037792, 0.156580, -0.051678, -0.177028, 0.046285, 0.013218, 0.076151, -0.078593, 0.106132, 0.112133, -0.157257, 0.085916, 0.132009, 0.081263, -0.015239, -0.216330, 0.021755, 0.037752, -0.003650, 0.151116, 0.072956, 0.011419, -0.111007, 0.002198, -0.035102, 0.183307, 0.202394, -0.166897, 0.145418, 0.162520, 0.011899, 0.090152, -0.003969, -0.011376, 0.092220, -0.179446, -0.058393, 0.082125, 0.078694, -0.067065, 0.070457, -0.076893, 0.095856, 0.110077, -0.046287, -0.003597, -0.037627, -0.061780, -0.148299, 0.000496, -0.107020, 0.023514, 0.062900, -0.010737, 0.065191, -0.006398, -0.068664, -0.140180, -0.087636, -0.020753, 0.148157, 0.167807, -0.154399, 0.114595, 0.063619, 0.191075, -0.105247, -0.152660, -0.148857, 0.107798, -0.221207, -0.095708, 0.043140, 0.042496, 0.095993, 0.065449, 0.073610, 0.071051, -0.144383, -0.025351, -0.090169, -0.038314, -0.157042, 0.105278, -0.106617, -0.018052, -0.193785, -0.022191, -0.017636, -0.092967, 0.148976, 0.159123, -0.043786, -0.124754, 0.029582, -0.138803, -0.047177, 0.194215, -0.105596, -0.140805, -0.006685, 0.080252, -0.170748, 0.075047, -0.122859, 0.005700, -0.006935, -0.138010, -0.081108, 0.012568, 0.072394, 0.227694};
#endif

#endif
