//Numpy array shape [32, 32]
//Min -0.342883157420
//Max 0.353088314897
//Number of zeros 0

#ifndef CORE_EDGE_W1_H_
#define CORE_EDGE_W1_H_

#ifndef __SYNTHESIS__
ap_fixed<16,6> core_edge_w1[1024];
#else
ap_fixed<16,6> core_edge_w1[1024] = {-0.151869, 0.203607, 0.035534, -0.158698, -0.100900, 0.165227, -0.044497, 0.149293, 0.113070, 0.047618, 0.163108, -0.153613, 0.143654, -0.032204, -0.075284, -0.250650, 0.060982, -0.014071, -0.071026, 0.305400, 0.034117, -0.065767, -0.059912, -0.107067, 0.026261, 0.083583, 0.103312, -0.073084, -0.262584, 0.149324, 0.122570, -0.239210, 0.090009, 0.077835, 0.105244, 0.089239, 0.005126, 0.076992, -0.095491, 0.002024, -0.108108, 0.034850, 0.313611, -0.192505, 0.086298, -0.104324, -0.005363, -0.026274, 0.036210, -0.045398, -0.031209, 0.075988, 0.161985, 0.175307, -0.202626, 0.065102, 0.333095, -0.157903, 0.029049, 0.112636, 0.014176, -0.108040, 0.142012, 0.261786, 0.140560, 0.001245, 0.120239, 0.023920, -0.025558, -0.080990, -0.204622, -0.073028, 0.122740, 0.142771, 0.048774, -0.339608, 0.222837, 0.237630, 0.158944, -0.041902, -0.194667, 0.081464, 0.203585, -0.119151, 0.022591, 0.004311, 0.219704, 0.099656, 0.163040, -0.180558, -0.013944, -0.179218, -0.134743, -0.068990, 0.185717, 0.018433, 0.101924, -0.249487, -0.022034, 0.027653, -0.278721, -0.133981, -0.202632, 0.032405, -0.219731, -0.091872, -0.043739, -0.097942, -0.112086, 0.021489, -0.017655, 0.232253, 0.112187, -0.021029, 0.084877, 0.119763, -0.291865, -0.275696, 0.033422, -0.031929, -0.279591, -0.049331, 0.227926, -0.056891, 0.063318, 0.114319, -0.106443, -0.011169, -0.020472, -0.071168, 0.068392, -0.015802, 0.007374, 0.033219, 0.021985, -0.006084, 0.031145, 0.036196, 0.091774, 0.037818, -0.022550, -0.093581, 0.052884, 0.036481, -0.100458, 0.226174, -0.158091, -0.342883, -0.089308, 0.170097, 0.050797, -0.000564, -0.312065, 0.120047, 0.010051, -0.039713, 0.126552, 0.122989, -0.130803, -0.170193, -0.141457, 0.135284, -0.270771, 0.237534, 0.148722, -0.010658, 0.244587, -0.193494, 0.104568, -0.168146, 0.024391, 0.087969, -0.206317, -0.083390, -0.160751, -0.234696, -0.185159, -0.082093, 0.010609, 0.018064, 0.040223, -0.137821, 0.086274, -0.026814, 0.211539, -0.059084, -0.045786, -0.025331, -0.296276, 0.238119, 0.211411, -0.281703, -0.065803, 0.104514, -0.047003, -0.176771, -0.231126, -0.264681, -0.225315, 0.043808, 0.016650, 0.121153, -0.196553, -0.200283, -0.041813, -0.173984, 0.042408, 0.016950, 0.085558, -0.217754, 0.126315, -0.340518, -0.088897, 0.263198, 0.019090, 0.145148, -0.189386, -0.309248, 0.024867, -0.067197, -0.208140, 0.015832, 0.214467, -0.020590, 0.254701, -0.218932, 0.244004, -0.015818, -0.130897, -0.031332, -0.223550, -0.267935, -0.109564, -0.086422, -0.186009, 0.050503, -0.005141, -0.053631, -0.056014, -0.197203, 0.060242, 0.117058, 0.175458, 0.047396, 0.316475, -0.175069, -0.020028, 0.279015, 0.318467, -0.156857, 0.032439, 0.053361, -0.190979, -0.013083, -0.042228, -0.161566, 0.035895, -0.027740, -0.074496, 0.060318, 0.026886, 0.158056, 0.199986, -0.022836, 0.119482, 0.181140, 0.010692, 0.043833, -0.104977, 0.003083, 0.021331, -0.274467, 0.004372, 0.172422, 0.163135, -0.021523, 0.021379, 0.039987, -0.184482, -0.019217, 0.141519, -0.038422, -0.103196, 0.025201, -0.123866, 0.079230, 0.138711, 0.072208, -0.004295, 0.238773, -0.136678, 0.241626, 0.256072, -0.229689, -0.055880, 0.144617, 0.205843, 0.034542, 0.221531, -0.042405, 0.195717, -0.142724, -0.039732, 0.009396, 0.267256, 0.028625, 0.178165, -0.040856, -0.064846, -0.009986, 0.137512, -0.196951, 0.240173, -0.252954, 0.334815, 0.046147, -0.202625, 0.128552, -0.119061, 0.010501, -0.124766, 0.118311, -0.041588, -0.081089, -0.038185, -0.194963, -0.152419, -0.144700, 0.030413, 0.094493, 0.178356, -0.089494, 0.209651, -0.338908, 0.110708, 0.070903, 0.045237, -0.177528, -0.050529, -0.094045, -0.137172, -0.272699, -0.062042, 0.147449, -0.100442, -0.122149, -0.139014, -0.092163, -0.047259, 0.097484, -0.025157, 0.274992, -0.040258, -0.045448, -0.198271, 0.093329, 0.156733, -0.260758, 0.163470, -0.115475, 0.295711, 0.347037, 0.037622, 0.186190, -0.063350, 0.053681, -0.035927, 0.181529, -0.096092, -0.135844, 0.186472, -0.241969, 0.104199, -0.172435, -0.239594, 0.199710, -0.013193, 0.129328, 0.179882, 0.238727, -0.272068, 0.093127, -0.016625, 0.093997, 0.120709, 0.073572, -0.012119, 0.201554, 0.132661, -0.091177, 0.008117, -0.154621, -0.252716, 0.059819, 0.109869, 0.003375, -0.147175, -0.115743, 0.006400, -0.115721, 0.046882, 0.057914, 0.144018, -0.057707, 0.048941, -0.172882, 0.022514, 0.098589, -0.191801, 0.113665, -0.133513, -0.028127, -0.213142, 0.191161, -0.102491, -0.158216, 0.124559, 0.114068, 0.107852, -0.090315, -0.030302, 0.219858, 0.124223, -0.282850, 0.002790, 0.101650, 0.022707, -0.033792, -0.028837, 0.230324, -0.086115, 0.174753, -0.088510, -0.147894, 0.060422, 0.169843, -0.308162, -0.307227, -0.077808, -0.088384, 0.161943, 0.050377, -0.135254, -0.152619, 0.264094, -0.066252, 0.256483, 0.017324, -0.040740, 0.109999, 0.141855, 0.082680, 0.142615, 0.205218, 0.025090, 0.081647, 0.072938, 0.307106, 0.083735, 0.139580, 0.205304, -0.058189, 0.000575, -0.155279, -0.300992, 0.206425, 0.225985, -0.123797, -0.213352, 0.052809, 0.163219, 0.064453, -0.305711, -0.006468, 0.062449, 0.080941, -0.277510, -0.207039, 0.135589, -0.077933, 0.293591, 0.197797, 0.095576, 0.141051, -0.215363, 0.162078, -0.110867, -0.294288, -0.207649, -0.162269, 0.102507, -0.050407, 0.016693, 0.228130, -0.017015, 0.116949, -0.095304, 0.049736, 0.270679, 0.104462, -0.077881, -0.170332, -0.146605, 0.073006, 0.094810, -0.019710, -0.055312, -0.300151, -0.037538, -0.095620, -0.020746, 0.239202, 0.068785, 0.026666, 0.100201, 0.206264, -0.167090, -0.091177, -0.334317, 0.018155, 0.089979, -0.002701, 0.237474, -0.142901, 0.054610, -0.050887, -0.214844, 0.105557, 0.039096, -0.165453, 0.028286, -0.091553, -0.032218, -0.007639, 0.020261, 0.120324, -0.073757, 0.016199, 0.146164, -0.029983, -0.018883, 0.000244, 0.154283, -0.036450, 0.224815, 0.154509, 0.007149, 0.073457, 0.150147, -0.169976, 0.023190, -0.120135, -0.009522, 0.081337, -0.258696, -0.068178, -0.178753, -0.204532, 0.069825, 0.038531, 0.193482, 0.075917, -0.244235, 0.097689, 0.043855, 0.228558, 0.205784, -0.030838, 0.269303, 0.102677, -0.076426, -0.178153, 0.116303, -0.067608, 0.024295, -0.205487, 0.058402, 0.162789, 0.190246, 0.150105, -0.124123, 0.161742, 0.060694, 0.134888, -0.135810, -0.178180, 0.066283, -0.030904, -0.222443, 0.096169, -0.057053, 0.146555, 0.128650, -0.120897, 0.128572, 0.200712, 0.068041, 0.138475, 0.111461, 0.217054, 0.007449, 0.043927, -0.024918, 0.109293, -0.281231, 0.241021, 0.028154, 0.004216, -0.023430, 0.306566, 0.137952, -0.090300, -0.249332, 0.007220, 0.054363, 0.027864, -0.110573, 0.300245, 0.075371, -0.093764, -0.118266, 0.295208, -0.016121, -0.064850, -0.298631, -0.029129, 0.265528, 0.215662, -0.105611, 0.330467, 0.048314, -0.257556, -0.036330, -0.096414, -0.300187, -0.167773, 0.029797, 0.318946, 0.067385, -0.014887, 0.207051, -0.126880, 0.223636, 0.091562, -0.074753, -0.235314, -0.167976, 0.142372, 0.076288, 0.186686, -0.039456, 0.024985, 0.141577, -0.064276, -0.219259, -0.147625, 0.040276, 0.300789, 0.062028, -0.159372, 0.005923, 0.064716, 0.047843, 0.110411, 0.091691, 0.210525, -0.036519, 0.018891, -0.057567, 0.144807, -0.022770, 0.287725, 0.074055, -0.076497, 0.007492, 0.028798, -0.009731, -0.134036, 0.057929, 0.102834, 0.114854, -0.043128, 0.046944, 0.124495, 0.046935, 0.081990, 0.294949, 0.143020, 0.263272, 0.061659, -0.130494, -0.228177, 0.035984, 0.017831, 0.259365, -0.020517, -0.069559, -0.248960, 0.081844, 0.204405, -0.223395, 0.065000, 0.154964, 0.069973, -0.038803, 0.286160, -0.232715, 0.342849, -0.024220, -0.035367, 0.077763, -0.167766, -0.062161, 0.039346, 0.017265, -0.107046, 0.183721, 0.065208, 0.149572, 0.070984, 0.263120, 0.061348, -0.069217, 0.162314, 0.023782, 0.099922, -0.225843, -0.225207, 0.008960, -0.092276, -0.279554, 0.212723, 0.171767, 0.031123, -0.316713, 0.153212, -0.014715, -0.010892, 0.263286, -0.266393, 0.005478, 0.039020, -0.314117, 0.300852, 0.163407, 0.068840, -0.204153, 0.182921, -0.083563, -0.291703, -0.241492, -0.105516, -0.045457, 0.028366, 0.174019, 0.048196, 0.072820, 0.041396, -0.049170, -0.220489, -0.178971, -0.094565, 0.072536, -0.062132, 0.207784, -0.104879, -0.002236, -0.013237, 0.015064, -0.282842, -0.104690, -0.090154, -0.190959, -0.325249, 0.032107, 0.073165, -0.284022, 0.111902, -0.116519, 0.122933, 0.086398, 0.140889, 0.256979, 0.140702, -0.118702, -0.047450, -0.083354, 0.084998, -0.096729, -0.231755, 0.014441, 0.271380, 0.136699, 0.213841, 0.018387, -0.226258, 0.007188, -0.071095, 0.004534, -0.288827, 0.199072, -0.130606, 0.100481, -0.052025, -0.104353, -0.284552, -0.113511, -0.027377, 0.031285, -0.094124, 0.175195, -0.006260, 0.011666, -0.193988, -0.101510, -0.125373, -0.199053, -0.194440, -0.097577, -0.268406, -0.044304, 0.083059, -0.002874, 0.264628, -0.288722, 0.035770, 0.167630, -0.040946, 0.102215, -0.069236, 0.006635, -0.001174, -0.322627, -0.203187, -0.219870, -0.105185, -0.150885, 0.236497, -0.185428, 0.104003, -0.183583, 0.238957, 0.188744, 0.122296, 0.086440, 0.010502, 0.008125, -0.123056, -0.120848, -0.086688, -0.024244, -0.201978, -0.082487, 0.088786, 0.068174, -0.143259, -0.134934, -0.162532, 0.032655, -0.036472, 0.088684, -0.002613, -0.072758, -0.080326, -0.076919, -0.317494, -0.035208, 0.036617, 0.108750, 0.026619, -0.077320, -0.038131, -0.114044, -0.018608, 0.073090, 0.028431, 0.033201, -0.089060, 0.337760, 0.127315, 0.090347, -0.328179, -0.313253, -0.226596, 0.199992, 0.171838, 0.017447, 0.024260, 0.280037, -0.057465, -0.067893, -0.025033, -0.147632, -0.128745, -0.304847, -0.190185, 0.014520, 0.240885, -0.023464, -0.157587, 0.161392, 0.279904, -0.161634, 0.043517, -0.158756, -0.081409, 0.007766, -0.059078, 0.011559, -0.043452, -0.174835, -0.008940, -0.172316, 0.092793, 0.220393, -0.174267, 0.098363, 0.186649, -0.244968, 0.065020, 0.058242, 0.199417, 0.353088, 0.184976, -0.040041, -0.068704, 0.258010, 0.279381, -0.039586, 0.078729, 0.234328, 0.208330, -0.056525, 0.110305, 0.105404, -0.254403, 0.173153, -0.103551, 0.225993, 0.172145, -0.071666, 0.020799, 0.146122, 0.048027, -0.105578, -0.058314, -0.056065, -0.223799, 0.069341, -0.155683, 0.060293, -0.200614, 0.032772, 0.141334, -0.302532, 0.135712, 0.043154, -0.133083, 0.210690, -0.138066, -0.116700, -0.017199, 0.201702, -0.086060, 0.014164, 0.202812, 0.045638, -0.039755, 0.323846, -0.238329, 0.099855, -0.085168, -0.244561, -0.018863, 0.107952, -0.088526, 0.036322, -0.034792, 0.103444, -0.143604, -0.289519, -0.105423, 0.134561, 0.132453, -0.174396, 0.057678, -0.154412, 0.138678, 0.101581, -0.098875, 0.205660, 0.131642, -0.145679, -0.238842, 0.180639, -0.319041, -0.258125, 0.090024, 0.137467, 0.051554, -0.281031, 0.020767, 0.070267, -0.200797, -0.161484, 0.011672, 0.025255, -0.229378, 0.124491, 0.094456, 0.331689, -0.232743, -0.039404, -0.035964, -0.155198, -0.090646, 0.293581, -0.069088, -0.065374, 0.055076, -0.065707, 0.077116, -0.059681, 0.049864};
#endif

#endif
