//Numpy array shape [32, 32]
//Min -0.347464722046
//Max 0.352201882602
//Number of zeros 0

#ifndef CORE_EDGE_W1_H_
#define CORE_EDGE_W1_H_

#ifndef __SYNTHESIS__
ap_fixed<16,6> core_edge_w1[1024];
#else
ap_fixed<16,6> core_edge_w1[1024] = {-0.028921, -0.172015, 0.200667, -0.293958, 0.290095, 0.203657, 0.091358, -0.189419, -0.323470, 0.046498, -0.168340, -0.163803, 0.269085, 0.234042, -0.198190, 0.199484, 0.010579, -0.048981, -0.235619, 0.152983, 0.065739, 0.147496, 0.010878, -0.022988, -0.244011, -0.111865, 0.121773, -0.342347, 0.123333, -0.051738, 0.216656, 0.203718, 0.159217, 0.199716, -0.094131, -0.111568, 0.227285, -0.112183, 0.031545, 0.011550, -0.200314, -0.140633, -0.046864, 0.021772, 0.184999, -0.298659, -0.108155, 0.122674, -0.223132, 0.045552, 0.184927, 0.180505, -0.109713, 0.193777, 0.246913, 0.301418, -0.007169, 0.073368, 0.232631, -0.016719, 0.113290, -0.280361, 0.119087, 0.066206, 0.189641, -0.095390, -0.062622, -0.314248, 0.161911, 0.278840, 0.190444, -0.145562, 0.138316, -0.076097, -0.103442, -0.170063, -0.028974, 0.239172, -0.123742, 0.258096, 0.050797, 0.123257, 0.004876, -0.247395, 0.190206, -0.244055, 0.135165, -0.034686, -0.023775, -0.087006, 0.015090, 0.071087, -0.073132, 0.087805, -0.064649, 0.175194, 0.116732, 0.002752, 0.086970, 0.007220, 0.257414, -0.259373, 0.093229, 0.028308, 0.056840, -0.190838, 0.251254, -0.090648, -0.196446, -0.023187, -0.125215, -0.252277, -0.101116, -0.191322, -0.028063, -0.071805, -0.013374, 0.204695, 0.055258, -0.090578, -0.083846, -0.155293, 0.052834, 0.052915, -0.218135, 0.108969, 0.065935, 0.135438, -0.120985, -0.144096, 0.006048, 0.179781, 0.212050, 0.157194, -0.051594, 0.276190, -0.034282, 0.310730, 0.337000, -0.046963, -0.218128, 0.133005, -0.171906, 0.134724, 0.015543, -0.018693, 0.309984, -0.006801, -0.304371, -0.005377, -0.000764, 0.163099, -0.122127, 0.066352, -0.107003, -0.028067, 0.152636, 0.012981, -0.095886, -0.063489, 0.079617, -0.227579, 0.165350, 0.022310, -0.076596, -0.087902, 0.091649, -0.176590, -0.104089, -0.010647, 0.051954, 0.047149, -0.018387, 0.241187, -0.012004, 0.151507, 0.109749, 0.121298, -0.123470, 0.145783, 0.132549, -0.078380, -0.064914, 0.335383, 0.222068, 0.031560, -0.018824, 0.088509, 0.098817, 0.094892, 0.212806, 0.113954, -0.080117, 0.019038, -0.329293, -0.188314, -0.266883, 0.032195, 0.109313, 0.176220, 0.161670, -0.200029, 0.263692, -0.070397, -0.161036, -0.286996, 0.009727, 0.310191, 0.001331, -0.326946, 0.092387, 0.085150, 0.130563, -0.257755, 0.062101, -0.182303, -0.295394, 0.243367, -0.319196, -0.211543, 0.080093, 0.341032, -0.175188, -0.133501, 0.304922, -0.154248, -0.278298, 0.043135, -0.198407, 0.032325, -0.003019, -0.056587, 0.089319, 0.109164, 0.098205, 0.029506, -0.108271, 0.104792, 0.223408, -0.016360, -0.323418, 0.257642, -0.126087, 0.016994, -0.049034, -0.005397, 0.168384, -0.241408, -0.127733, 0.105540, 0.032408, 0.019416, 0.004226, 0.125884, 0.056692, -0.122698, -0.132695, 0.106991, -0.091004, -0.054214, -0.034954, -0.217172, 0.217112, 0.008684, -0.127240, 0.107909, -0.076156, 0.283640, -0.089417, -0.145045, -0.155793, 0.243561, -0.168263, 0.021503, -0.139104, -0.013196, 0.189953, -0.175576, 0.024923, 0.325795, 0.148160, -0.030383, 0.022209, 0.135826, 0.048872, 0.206184, -0.097106, 0.267181, -0.345680, -0.057673, 0.033409, -0.149783, 0.176360, -0.050377, 0.165024, 0.091787, 0.001101, 0.137334, -0.051473, 0.111468, 0.152344, 0.331834, 0.071797, -0.003381, 0.013867, 0.237433, -0.222382, 0.071398, 0.168906, -0.185149, 0.248103, 0.079531, -0.163144, 0.042697, 0.167567, -0.107992, 0.046616, -0.045979, 0.094903, 0.012069, 0.013121, -0.019762, 0.026029, -0.097585, -0.007719, 0.040132, 0.232538, -0.074549, -0.062944, 0.061374, 0.100739, 0.328467, 0.007497, 0.062247, 0.210572, -0.147384, -0.077837, 0.115405, 0.098006, -0.135919, -0.053937, -0.049971, 0.053732, 0.024481, 0.115996, 0.018738, 0.021183, 0.123581, -0.051442, 0.134831, -0.074019, -0.269065, 0.089145, -0.329292, -0.137199, 0.037017, -0.066669, -0.214301, -0.167513, -0.017179, -0.229931, 0.337280, 0.121468, 0.065153, 0.084331, -0.016292, -0.276786, -0.288646, 0.006009, 0.235497, -0.319525, -0.028354, -0.008927, -0.028781, -0.292598, 0.247813, -0.131654, 0.145819, 0.182294, -0.103734, 0.066840, 0.113121, 0.109996, 0.181233, 0.230855, -0.004737, 0.244777, 0.023452, 0.049917, -0.099374, -0.001650, 0.258580, -0.092197, -0.040362, 0.172254, -0.004376, 0.240670, -0.034626, -0.071328, -0.136104, 0.116478, -0.118434, -0.093795, -0.073172, -0.266554, 0.201632, 0.149253, 0.217075, -0.192337, 0.061568, 0.161614, 0.124992, -0.231562, 0.117037, -0.035456, -0.068925, -0.302675, 0.303290, 0.119497, -0.257310, 0.220893, -0.254993, 0.114955, 0.077556, -0.234777, -0.178952, -0.178942, -0.058964, -0.059006, -0.270433, -0.031050, -0.148626, -0.153846, -0.037870, 0.041857, -0.074322, 0.035306, 0.190524, 0.208957, -0.028208, -0.238568, -0.009178, -0.127986, 0.046496, 0.115178, -0.040095, 0.163187, -0.325928, 0.090214, 0.325295, 0.042360, -0.098198, 0.021198, -0.255224, -0.086428, 0.169462, -0.022353, 0.040927, -0.091308, 0.046591, 0.013009, -0.033508, 0.016929, -0.154925, 0.256983, -0.123036, 0.081529, -0.311759, 0.014532, -0.141293, 0.236913, -0.168006, 0.040869, -0.156737, 0.113963, 0.093113, -0.134482, -0.119297, -0.321400, 0.020744, 0.083088, 0.119267, 0.129989, 0.031110, -0.268284, 0.040888, -0.062901, -0.007109, 0.225073, 0.125198, 0.010477, -0.141313, -0.050404, -0.057230, -0.215446, -0.052830, -0.218858, -0.003905, -0.144957, 0.135356, -0.046500, -0.022245, 0.143959, -0.070207, 0.030092, -0.150187, 0.024033, -0.163778, -0.258353, 0.042334, -0.319212, -0.025619, -0.041542, -0.218467, -0.176157, -0.037760, -0.037538, 0.235426, -0.188812, -0.106344, 0.330301, -0.218540, 0.157055, 0.179196, 0.222933, -0.264717, 0.069548, 0.044981, -0.060867, 0.033884, 0.087971, -0.031485, 0.198215, -0.060603, 0.037499, -0.321590, 0.071155, 0.302974, 0.352202, 0.121195, 0.266391, 0.136204, -0.080441, 0.221292, 0.085239, 0.153169, 0.336154, 0.087858, 0.144022, 0.102371, -0.060602, -0.084801, -0.118518, -0.045948, 0.272047, 0.099213, 0.050990, -0.058295, -0.321835, 0.127593, -0.026402, -0.084433, 0.189464, 0.022760, 0.242916, -0.118302, -0.045734, -0.148884, 0.244950, -0.057594, -0.055438, -0.165052, 0.085513, 0.045968, 0.235842, 0.105483, 0.016675, 0.177695, 0.182775, -0.340814, 0.066777, -0.198850, 0.070236, -0.322787, 0.089552, 0.054067, -0.210709, -0.235674, 0.279178, -0.188371, -0.320052, 0.129502, -0.105366, 0.318347, -0.044714, 0.322485, 0.026447, -0.119708, -0.032558, 0.080184, -0.240684, -0.062923, 0.041147, 0.160859, -0.040344, -0.135710, -0.225039, 0.194271, 0.040178, 0.112976, -0.260213, -0.092077, 0.112144, -0.131405, 0.024287, -0.049992, -0.145092, 0.134005, -0.043108, 0.153178, -0.239056, 0.105113, 0.048011, 0.139757, 0.261937, -0.319880, 0.120693, 0.035541, -0.016233, 0.028305, -0.209297, 0.145198, 0.023204, -0.164945, -0.111930, 0.309406, 0.216156, 0.164682, -0.114329, -0.236094, -0.268870, -0.296266, -0.091875, -0.116486, 0.042222, 0.001481, 0.211591, -0.093373, 0.079894, -0.009678, 0.007406, -0.308381, -0.240044, 0.136251, -0.316729, 0.205948, -0.083101, 0.078053, -0.221093, 0.249365, -0.305934, 0.304507, 0.056581, -0.030210, -0.284435, 0.196861, -0.189497, -0.112551, 0.040596, 0.114719, 0.012771, -0.029390, 0.158855, -0.154768, 0.078566, 0.078794, -0.093951, 0.287142, 0.027788, 0.022268, -0.064304, 0.199175, 0.044563, -0.055601, 0.065854, 0.021054, 0.077401, -0.136374, -0.316931, 0.006019, 0.091280, -0.044644, 0.086743, 0.330494, -0.001147, -0.127962, -0.102864, 0.067507, -0.184808, -0.066812, -0.239624, 0.250876, -0.089205, -0.129094, -0.095952, -0.317191, 0.299842, -0.003390, -0.037781, 0.284587, -0.194553, -0.088557, -0.066570, -0.127900, -0.022389, -0.288868, -0.121951, -0.033757, -0.297461, 0.002296, 0.059575, -0.266146, -0.181859, -0.310419, 0.125371, -0.061946, 0.005531, 0.124232, -0.102990, 0.072534, 0.032084, 0.152852, 0.184025, -0.061090, 0.081348, 0.235293, -0.205189, 0.111722, -0.238545, 0.171189, 0.005480, 0.058977, 0.016355, 0.054429, -0.006231, -0.162732, -0.098117, 0.017488, 0.061522, -0.075053, -0.222511, -0.315777, 0.044146, -0.057877, 0.061517, -0.057489, -0.232958, -0.206990, 0.094966, 0.107436, -0.093439, -0.189481, 0.258015, 0.125559, 0.027378, 0.058906, -0.008886, 0.010497, -0.108329, 0.113121, -0.177708, -0.002496, 0.158322, 0.162673, -0.042933, -0.346949, -0.023602, 0.273195, -0.057018, -0.194303, -0.049861, -0.052309, 0.038338, -0.201762, 0.201291, 0.194590, -0.056037, 0.282698, -0.127830, 0.069439, -0.024809, -0.024481, -0.187381, -0.037972, 0.046489, -0.165025, -0.101594, -0.277374, 0.116309, 0.177324, 0.218836, 0.008944, -0.065577, 0.102043, -0.310273, -0.032871, 0.165811, 0.005908, 0.026675, -0.064634, 0.114179, -0.073221, -0.041897, 0.120103, -0.199287, -0.347465, -0.189082, 0.069170, -0.200023, -0.031070, 0.097343, -0.153425, -0.049416, -0.121228, 0.084044, -0.143930, 0.041761, 0.050046, -0.205885, 0.321100, 0.121659, 0.096114, -0.135282, 0.071214, 0.084925, -0.340684, 0.099059, -0.014048, 0.231704, 0.099177, -0.221218, 0.274609, -0.047502, 0.072275, 0.094163, -0.168295, 0.212101, 0.182701, -0.020606, 0.014581, 0.285204, -0.121263, -0.198511, 0.005505, 0.253488, -0.054069, -0.126455, -0.025937, 0.091644, 0.350268, -0.168009, 0.116218, 0.307102, 0.135499, -0.166130, 0.051348, -0.257309, 0.155700, -0.020926, 0.126457, -0.208096, 0.038517, 0.185392, -0.011773, -0.159736, -0.038514, 0.168301, -0.039726, 0.007099, 0.092764, 0.095895, -0.091587, -0.073741, -0.006017, 0.316300, -0.062405, 0.205770, -0.078709, -0.042574, -0.307670, -0.199140, -0.044889, 0.116393, -0.176025, -0.085107, -0.178038, -0.134293, 0.048635, -0.203944, 0.184133, 0.020837, 0.039684, 0.127584, -0.098322, 0.152567, 0.240626, 0.184308, 0.345399, -0.128955, 0.025509, -0.015762, -0.067479, -0.058038, 0.057313, -0.073402, 0.177545, 0.287712, -0.140029, 0.235084, 0.099812, 0.327663, -0.341220, -0.167320, -0.050362, 0.068781, 0.264419, -0.147987, 0.079962, 0.143065, 0.071053, -0.061428, 0.190573, -0.139271, 0.011993, 0.337434, -0.057713, -0.262128, -0.094056, 0.238906, -0.011580, -0.032027, -0.156780, -0.140044, 0.158369, -0.071306, 0.138423, -0.036666, -0.065999, -0.314066, 0.054768, -0.056883, -0.006008, 0.126224, 0.042695, -0.328404, -0.065405, 0.057189, -0.320254, -0.207092, -0.089914, -0.111190, 0.163685, -0.136758, 0.095146, -0.148162, -0.076509, -0.282795, 0.062714, 0.314386, 0.069739, -0.294575, 0.075189, 0.083722, -0.039859, 0.298896, -0.049822, -0.065784, 0.057703, 0.044391, -0.159433, -0.031347, 0.017047, -0.266399, -0.238088, 0.059754, 0.041125, 0.174090, 0.038397, 0.088136, 0.237734, -0.258439, -0.272388, -0.088929, 0.021432, -0.194365, -0.038062, 0.260324, -0.094354, 0.031667, -0.061867, 0.005714, 0.000687, -0.011301, -0.001265, 0.090467, 0.052899, 0.075019, 0.024870, 0.068004, 0.080750, 0.108139, -0.287644, -0.037633, -0.207609, 0.003044, -0.219356, -0.078903, 0.044624, 0.171533, 0.080645, -0.102436, -0.067550, 0.228825, -0.021283};
#endif

#endif
