//Numpy array shape [96, 32]
//Min -0.203229912041
//Max 0.202644906730
//Number of zeros 0

#ifndef CORE_EDGE_W0_H_
#define CORE_EDGE_W0_H_

#ifndef __SYNTHESIS__
ap_fixed<16,6> core_edge_w0[3072];
#else
ap_fixed<16,6> core_edge_w0[3072] = {-0.064992, 0.058050, 0.026640, 0.157706, -0.105015, -0.058768, 0.026485, 0.104386, -0.043204, -0.047661, 0.030047, -0.047896, -0.069457, 0.136213, 0.134679, -0.019041, -0.098059, -0.042532, 0.090089, -0.177128, -0.084066, -0.064694, -0.017144, 0.116857, -0.098097, -0.081626, -0.090583, -0.028038, 0.007571, -0.197000, -0.064158, 0.121104, -0.001004, -0.022412, 0.120666, -0.039917, -0.149410, -0.112470, 0.018419, 0.016530, -0.022925, -0.096731, -0.051250, 0.053654, -0.053939, 0.002687, -0.070294, 0.029969, 0.059845, -0.077438, 0.033495, -0.013116, -0.022286, 0.026918, -0.003548, 0.183394, -0.049768, -0.050137, -0.015466, 0.170733, 0.120499, -0.108417, -0.015558, 0.126735, 0.092728, -0.066973, -0.038223, -0.002131, -0.087854, 0.097256, 0.026635, -0.037959, -0.009240, -0.050784, -0.091445, 0.043834, -0.113044, -0.085490, -0.012011, -0.044184, 0.052894, -0.031284, 0.025575, -0.029357, -0.022540, 0.104762, 0.093499, -0.054499, 0.049077, 0.040948, -0.049046, -0.065425, 0.006058, 0.078873, 0.015178, 0.011677, 0.002858, 0.071697, -0.074660, 0.175489, -0.178549, 0.084292, -0.034069, 0.073950, -0.110461, 0.003875, -0.080101, -0.068735, 0.021598, 0.019232, 0.020186, 0.013428, -0.021301, -0.023027, 0.020965, -0.018951, -0.047365, -0.086808, 0.007935, -0.045751, -0.119998, -0.111213, 0.126991, 0.072393, 0.130717, 0.017906, -0.116815, 0.025025, -0.176753, -0.033367, -0.172314, 0.007804, -0.059178, -0.025563, -0.024595, -0.066508, -0.022131, -0.191856, -0.049941, 0.087351, -0.067066, 0.001681, 0.009784, -0.024490, -0.149206, 0.080202, 0.001253, -0.094317, -0.032295, -0.144249, 0.079892, -0.058327, 0.126712, -0.194812, -0.058158, 0.160109, -0.013622, -0.003612, 0.089774, -0.028368, 0.061990, 0.069201, -0.111093, 0.114159, 0.112036, -0.005162, 0.023090, -0.142672, -0.075656, 0.120470, 0.120224, 0.104015, -0.089727, 0.052367, -0.154937, 0.072634, 0.073502, 0.090230, 0.100165, 0.129112, -0.108978, 0.101669, 0.110529, 0.039660, 0.065618, 0.063043, 0.047424, -0.034907, -0.150758, -0.030462, 0.128081, 0.083941, -0.134730, 0.144383, -0.110451, -0.185168, 0.001964, -0.151934, 0.084369, -0.001726, -0.084451, 0.081317, 0.171461, 0.134634, -0.102014, 0.088239, 0.175032, -0.144878, 0.007443, 0.155174, -0.041489, -0.043488, 0.020851, 0.081670, 0.080155, -0.100324, 0.050127, 0.025993, 0.016244, 0.004730, 0.101630, 0.019170, 0.062279, -0.016328, 0.053725, -0.052182, -0.016463, 0.030920, 0.097161, 0.074362, 0.142202, -0.001492, -0.149744, -0.189256, -0.032504, 0.153859, -0.075223, -0.018116, -0.039851, -0.200498, 0.074945, -0.023761, 0.063916, -0.018666, -0.012355, 0.181110, 0.098121, -0.137304, -0.014180, 0.061753, 0.075648, -0.032738, -0.029918, -0.076335, 0.191864, -0.086043, -0.004328, 0.110575, -0.004564, -0.015626, 0.037343, 0.069012, -0.022311, -0.055379, -0.061138, -0.063444, -0.021725, 0.151752, -0.199986, 0.008044, 0.011825, -0.109781, -0.012473, -0.011143, -0.117868, 0.128155, 0.012756, 0.054155, 0.083126, -0.067715, -0.152320, -0.093439, -0.114602, 0.089877, -0.032489, 0.099201, -0.032056, 0.131812, 0.081773, 0.077943, -0.083285, -0.132752, 0.106254, 0.159556, 0.041798, -0.110067, 0.113353, 0.075666, -0.065237, 0.142882, -0.087784, -0.064763, -0.021871, 0.078071, 0.022121, 0.029574, 0.063482, -0.077786, 0.019840, 0.070188, -0.137670, 0.083203, -0.137093, 0.070403, -0.050964, 0.100600, -0.079263, -0.000876, -0.131510, 0.079550, -0.028571, 0.202018, -0.060754, 0.042412, -0.039175, -0.138437, -0.104055, -0.169006, 0.014501, 0.013249, 0.059575, 0.027637, 0.076130, -0.053319, -0.022155, -0.093305, 0.062742, -0.008007, -0.087982, -0.081607, 0.143669, -0.050872, 0.177799, 0.023028, 0.152297, -0.068451, 0.067106, 0.051715, 0.131883, -0.176203, -0.066270, 0.003755, -0.030336, 0.010191, 0.039003, 0.095617, -0.115178, 0.164415, -0.046311, -0.104340, -0.043941, -0.121930, -0.150321, 0.180784, 0.072414, 0.096583, 0.095039, 0.040930, -0.027950, 0.020668, -0.149808, 0.134551, 0.021859, 0.034472, -0.189209, -0.132719, 0.074306, 0.024911, -0.021437, -0.021719, 0.057776, 0.146281, 0.050128, 0.012957, 0.141655, 0.037777, -0.033732, 0.006341, 0.080643, -0.110876, 0.116817, -0.144118, 0.019888, 0.191813, 0.032698, 0.011070, 0.087653, -0.150166, 0.088173, 0.032087, 0.060808, 0.027355, 0.008033, 0.171004, 0.006584, 0.022898, -0.017033, 0.024259, 0.075327, 0.122687, 0.029961, -0.044105, 0.009086, 0.066668, -0.022605, 0.198711, 0.015419, -0.034313, -0.014917, -0.023567, 0.148720, 0.041852, 0.015885, -0.035129, 0.011561, 0.131890, 0.042738, 0.037335, 0.133434, 0.158932, -0.019928, 0.168004, -0.034115, 0.073041, -0.016603, 0.096623, -0.116707, 0.095235, 0.043165, 0.151221, -0.179625, -0.054545, 0.022956, 0.136574, -0.017651, -0.156906, -0.088379, -0.122393, -0.061922, -0.033557, 0.087438, -0.051920, 0.048402, -0.124780, -0.046412, -0.114372, 0.052722, 0.052178, 0.083322, 0.004504, -0.034089, 0.114461, -0.120592, 0.073258, -0.108890, -0.018952, 0.061313, -0.076523, -0.127172, -0.007754, -0.131491, 0.172657, 0.001763, -0.057320, -0.155936, 0.086928, 0.070857, -0.037087, -0.037966, -0.065815, -0.031187, 0.052253, -0.098779, 0.024569, -0.023943, -0.029541, -0.194445, 0.095941, -0.102135, 0.009687, 0.035851, -0.037469, 0.091942, 0.095747, 0.005917, -0.049039, -0.033357, -0.127771, -0.005545, -0.035159, -0.098619, 0.003711, -0.174562, -0.049529, -0.019933, 0.060400, -0.132225, 0.049469, -0.074977, 0.031220, 0.066961, 0.027273, -0.190586, 0.020917, -0.053491, 0.022529, 0.113865, -0.055876, -0.090065, 0.002096, -0.102904, 0.042878, -0.000878, -0.104248, -0.028069, -0.053059, -0.090851, -0.084968, -0.057314, -0.020429, -0.048362, -0.186196, -0.038622, -0.005587, -0.077366, 0.131133, 0.099512, -0.170297, -0.138844, 0.045343, -0.087239, 0.019332, 0.066827, -0.120947, -0.203230, -0.154995, 0.078663, 0.003972, -0.068631, 0.030968, 0.012514, -0.091859, 0.051206, 0.057773, 0.054634, 0.172670, -0.004506, -0.065499, 0.024718, 0.055572, 0.033822, -0.082739, -0.116502, -0.042445, 0.030268, -0.031626, -0.045442, 0.109434, 0.077873, -0.050041, -0.135995, -0.164861, 0.040815, 0.086886, 0.055536, -0.070476, -0.119657, -0.101053, 0.094891, -0.047163, 0.059268, -0.007877, -0.083888, 0.080062, -0.046885, -0.035864, 0.147444, -0.009149, -0.079193, -0.079463, -0.045609, 0.121104, -0.060873, -0.089938, 0.109614, -0.183950, 0.066434, -0.020144, 0.068141, -0.039718, 0.097629, 0.016227, -0.019265, -0.016694, 0.107759, -0.142593, 0.084959, 0.013607, 0.097398, -0.029581, 0.019972, 0.110194, -0.101798, -0.067301, -0.090225, 0.055663, 0.020594, 0.041657, 0.000468, 0.070698, -0.035697, 0.005087, -0.033713, 0.167530, -0.129809, 0.143558, -0.001538, -0.006028, -0.160811, 0.061762, 0.034101, -0.054175, 0.008400, -0.130404, 0.141088, 0.087163, -0.108355, -0.144205, 0.040696, -0.142014, -0.028595, 0.060124, -0.120600, 0.046957, -0.035621, 0.021225, 0.038891, -0.201580, 0.031017, -0.074259, -0.039678, -0.075341, 0.070975, -0.021844, 0.048650, -0.032434, 0.015080, 0.080688, -0.086391, 0.076330, -0.014705, -0.000549, -0.028966, -0.038537, -0.032639, 0.110824, -0.021010, -0.044713, -0.154907, 0.029136, -0.091802, -0.108176, -0.132836, -0.032527, 0.097108, 0.072809, -0.040712, -0.089475, -0.065725, -0.006187, 0.087476, -0.167611, -0.102175, -0.033970, 0.162124, -0.046972, -0.015044, -0.016751, 0.107719, 0.116596, -0.000405, -0.084058, 0.016237, -0.192314, 0.032561, -0.151540, -0.012072, -0.086618, -0.150027, 0.005717, -0.088254, -0.083379, -0.137965, -0.033952, 0.014738, -0.034471, 0.066601, -0.074662, 0.093589, 0.063991, 0.124158, 0.144581, 0.047604, 0.086389, 0.051963, -0.020263, 0.130965, 0.172523, -0.042450, 0.128894, 0.045407, -0.028861, 0.014795, -0.024244, -0.146618, -0.087712, -0.094350, 0.124319, 0.069670, 0.129210, -0.047824, -0.075917, 0.191790, -0.052137, 0.104757, -0.010334, 0.055816, 0.002554, 0.107142, 0.159784, 0.035371, -0.022357, 0.049315, -0.042806, -0.103362, 0.030129, 0.159873, 0.092165, 0.000329, -0.047023, -0.107453, -0.022566, -0.027240, -0.008680, 0.064163, -0.020852, -0.023283, 0.060841, 0.044745, 0.044513, -0.067067, 0.122710, 0.025947, 0.106628, -0.021416, 0.010798, -0.197119, 0.114738, 0.021094, 0.144998, 0.136397, -0.022179, -0.068632, 0.016304, 0.019376, -0.141760, -0.010784, 0.083450, -0.154632, 0.036628, 0.057423, 0.053713, -0.108423, -0.009585, 0.201046, -0.021694, -0.092586, 0.139963, -0.008951, -0.014885, 0.019555, -0.004190, -0.008333, 0.023552, 0.049545, 0.001210, -0.133077, 0.086845, -0.101457, -0.032131, 0.090556, -0.011999, -0.027619, 0.137983, -0.061908, 0.137858, -0.109072, -0.041512, -0.013642, -0.112799, -0.000322, -0.165176, -0.082344, 0.003601, -0.092166, 0.096969, -0.143898, 0.011503, 0.086627, 0.102796, 0.102871, -0.156145, 0.097737, 0.114419, -0.017421, 0.085584, -0.105817, -0.114901, 0.079279, 0.080984, -0.007581, -0.024144, -0.142369, 0.007595, 0.029477, -0.074295, -0.047026, -0.136083, 0.064894, 0.097547, 0.095388, 0.066528, -0.115398, -0.082991, 0.078449, 0.059456, -0.049740, -0.023171, -0.080708, -0.001509, 0.111654, -0.050655, 0.009830, -0.009196, 0.060106, 0.005093, -0.084371, 0.143825, -0.015823, -0.066063, -0.035316, 0.087052, -0.113958, -0.048517, 0.045756, -0.034836, 0.039826, -0.150658, 0.006150, -0.006591, -0.004140, 0.000317, -0.176029, -0.002935, 0.089457, 0.032726, -0.018547, -0.073613, 0.102568, -0.016545, 0.013815, -0.008520, -0.029226, 0.165993, 0.060085, 0.094174, -0.058793, -0.000477, 0.056849, 0.071117, 0.030597, -0.034548, -0.139972, -0.039366, 0.197488, 0.105974, 0.031464, -0.152308, 0.187026, 0.090431, 0.095709, 0.076306, -0.007913, 0.086607, 0.103296, 0.020966, 0.145549, 0.144517, 0.073531, 0.098904, -0.155707, 0.197824, -0.146750, 0.112397, -0.189823, -0.107976, 0.078740, 0.031253, 0.012665, 0.002292, 0.034477, -0.047810, 0.056118, -0.158988, -0.142547, 0.041675, -0.005392, -0.148536, 0.077946, -0.046311, -0.012581, 0.021513, -0.051333, -0.155367, 0.021441, -0.049315, -0.078700, 0.037053, -0.031605, -0.002622, -0.171399, 0.020338, -0.045434, 0.003806, -0.111304, -0.049714, 0.176247, -0.168477, -0.152823, -0.040140, -0.112091, 0.000518, 0.181364, 0.006137, -0.143076, -0.017313, 0.194905, 0.020672, -0.019595, 0.003356, 0.147253, 0.147932, -0.060253, 0.169672, -0.198068, -0.043183, 0.037006, 0.029370, -0.098930, 0.069581, -0.002192, 0.139826, -0.098751, 0.148762, -0.125951, -0.110127, -0.048852, -0.043206, -0.017110, -0.161810, 0.026332, -0.054715, 0.070769, -0.054850, 0.007686, 0.100710, -0.087251, -0.020391, 0.053113, 0.104388, 0.120622, -0.004839, -0.110589, -0.010824, -0.022315, -0.077897, -0.011656, 0.036500, 0.000986, -0.133837, -0.003356, 0.037172, 0.021912, 0.104787, -0.075490, 0.014740, 0.011282, -0.088033, -0.151831, 0.044830, 0.033836, -0.081093, -0.068213, 0.085746, -0.058662, -0.058575, 0.010448, 0.188985, 0.102900, 0.018820, 0.013428, 0.013222, 0.094862, 0.094706, -0.065069, -0.111638, 0.022029, 0.037746, 0.109030, 0.042345, 0.058691, 0.099010, 0.108779, -0.050919, 0.166914, 0.003555, 0.123432, -0.001182, -0.055426, 0.073480, -0.063315, 0.117275, 0.070092, 0.124550, 0.015326, 0.042855, -0.041142, 0.028916, -0.030134, 0.085193, 0.074118, 0.077133, 0.017123, 0.065982, -0.057803, -0.049382, -0.021124, -0.102468, -0.133405, 0.009320, -0.021292, 0.023800, 0.092720, 0.001101, -0.045252, -0.099813, 0.005800, -0.135603, -0.036986, 0.004460, 0.015475, -0.056763, -0.130777, -0.081711, -0.174655, -0.028619, -0.051712, 0.076855, -0.173193, -0.144566, -0.056378, 0.093231, -0.119805, 0.069656, -0.147539, -0.115673, -0.014097, -0.103993, -0.073297, 0.073102, 0.027500, 0.083428, 0.138478, -0.180747, -0.000670, 0.075913, 0.049745, 0.016386, 0.042722, 0.027230, -0.080035, -0.011590, -0.084117, 0.085790, -0.089895, 0.145244, -0.143299, -0.064066, -0.196499, 0.124679, -0.080905, -0.068202, 0.016482, 0.007524, -0.050664, -0.075158, 0.020340, -0.129664, -0.000697, 0.131876, -0.077436, -0.098923, -0.058433, -0.038819, -0.029808, -0.015002, -0.040693, -0.081245, -0.058753, -0.028207, -0.088011, 0.023308, -0.167185, -0.111210, 0.068870, 0.113362, -0.022620, -0.042375, 0.028178, 0.010844, 0.120326, 0.018973, 0.122057, 0.038190, 0.173075, -0.094236, -0.123291, -0.018521, -0.023331, 0.016681, -0.040309, -0.025726, -0.070898, 0.102954, -0.121381, -0.026017, -0.146063, 0.117710, 0.125422, 0.075590, -0.005305, -0.038405, 0.202645, 0.007827, 0.013523, -0.078199, 0.094055, -0.127432, 0.120082, -0.040412, -0.126626, -0.129729, -0.004951, 0.146797, -0.109594, 0.100556, -0.195255, -0.136502, -0.041123, 0.060938, -0.040296, 0.182253, 0.078026, 0.041451, 0.048765, 0.013418, 0.068996, 0.004415, -0.145290, -0.088999, 0.093249, 0.164493, -0.158330, 0.091583, -0.013827, 0.074600, 0.169295, 0.071082, 0.010937, -0.127381, -0.023070, 0.153832, -0.016565, 0.001601, -0.027157, 0.080736, -0.004497, -0.023471, 0.128458, 0.085052, -0.064880, 0.097361, -0.008447, -0.022212, 0.017764, 0.119851, -0.102127, 0.035816, -0.174812, -0.025027, -0.145337, -0.090530, -0.055360, 0.000723, 0.044867, -0.096889, 0.073051, 0.007960, -0.059755, -0.139297, 0.050398, -0.040419, 0.165201, -0.156783, 0.028302, 0.049747, 0.014707, -0.009822, -0.025695, -0.035305, -0.117345, 0.079004, -0.119675, 0.119363, 0.001581, -0.004775, -0.007336, 0.081930, -0.131279, -0.053497, -0.141235, 0.004431, -0.004014, 0.123426, -0.025103, 0.026453, 0.084516, 0.136800, 0.100963, 0.008632, -0.124965, -0.041122, -0.059886, -0.073652, -0.004166, -0.134647, -0.059230, -0.005713, -0.034875, -0.042368, 0.138167, -0.071401, 0.130479, -0.086320, 0.148565, 0.050725, -0.040423, -0.049770, 0.163108, 0.090632, -0.073270, 0.020380, -0.178582, -0.043835, 0.048626, -0.001323, 0.046336, 0.048045, 0.177808, 0.017629, -0.100230, -0.001158, -0.159171, 0.142541, -0.028283, -0.092779, 0.031930, -0.163732, 0.016732, 0.098235, -0.024844, -0.126272, -0.137684, -0.051304, -0.055142, -0.013565, -0.044530, -0.000587, 0.113092, 0.038448, 0.048951, 0.094976, -0.076714, -0.045694, -0.044865, 0.032965, -0.073431, -0.045899, -0.039213, 0.041435, 0.080414, 0.026353, 0.068314, 0.087584, -0.128650, -0.103062, 0.008114, 0.196551, -0.086818, 0.115634, -0.012481, -0.055437, 0.006620, -0.113888, 0.024181, -0.013959, -0.065036, 0.135444, 0.002378, 0.086125, -0.001686, -0.165078, -0.109154, 0.095571, 0.082000, -0.040038, 0.173417, 0.127419, -0.024737, -0.100283, 0.089522, 0.076344, -0.139658, -0.031152, -0.005088, 0.075970, -0.043114, -0.187098, -0.015999, -0.020498, -0.126307, -0.044949, 0.024391, 0.075306, 0.127764, -0.145619, 0.003059, 0.018114, -0.086414, -0.114456, 0.105234, -0.006386, 0.079837, 0.076782, 0.024828, 0.003623, 0.049485, 0.002586, 0.041293, -0.130774, -0.021598, 0.009937, 0.127167, 0.055082, -0.048094, 0.185088, -0.053889, -0.114195, -0.026305, -0.078558, -0.188159, 0.081746, 0.076598, -0.140554, -0.015053, 0.025921, -0.092974, -0.043816, 0.141170, -0.110563, 0.084838, -0.085099, 0.098460, -0.096790, -0.057179, -0.048482, 0.162892, 0.019225, -0.109128, -0.151605, 0.059006, -0.168943, 0.025095, 0.063427, -0.068570, 0.167312, 0.091002, 0.191081, 0.093024, -0.003150, -0.159226, 0.159482, 0.023830, -0.001498, -0.144579, -0.111282, 0.103015, 0.142418, 0.097064, -0.009898, 0.030679, -0.047496, -0.141089, -0.102557, 0.089960, 0.137149, 0.032909, 0.049976, -0.142046, 0.016894, 0.051055, -0.081969, -0.012062, 0.046202, -0.040305, -0.000506, -0.136353, -0.042492, 0.136203, 0.116132, 0.194602, 0.119915, -0.036044, 0.002842, 0.040669, 0.021189, 0.008050, 0.011018, 0.022771, -0.002185, 0.013347, -0.074218, 0.065899, 0.072999, 0.039426, 0.065425, -0.110028, -0.079769, 0.144195, -0.135274, 0.009529, -0.013356, -0.003247, 0.032363, 0.007701, 0.000351, 0.107610, 0.028626, 0.096398, 0.083799, -0.045770, 0.118477, 0.080981, -0.059725, -0.131776, 0.174315, -0.153650, 0.027578, 0.020530, -0.005030, -0.024235, -0.013416, 0.034662, 0.123393, -0.136298, -0.040080, -0.149416, 0.066870, 0.018825, -0.029599, 0.136914, -0.039590, -0.067885, -0.038426, -0.008201, -0.035861, -0.000501, 0.070097, 0.061579, 0.063037, -0.101893, -0.008825, 0.150800, -0.038133, -0.079246, 0.087736, -0.020191, -0.115899, 0.077801, 0.146679, 0.020118, -0.033637, 0.002944, -0.052285, -0.108266, -0.019601, -0.080907, -0.078330, 0.181215, -0.102559, 0.128856, -0.011164, -0.065833, -0.050451, 0.042306, -0.117843, 0.078328, -0.110984, 0.108737, -0.009847, 0.118940, 0.078791, -0.139311, -0.071957, -0.049706, -0.020927, -0.083681, -0.003132, 0.039425, -0.050291, -0.081820, 0.043888, 0.049673, -0.027795, 0.005124, 0.030600, 0.019659, 0.068433, 0.094167, -0.053063, -0.113431, -0.013712, 0.010983, -0.070917, 0.012068, 0.144169, 0.069793, -0.097941, -0.034608, -0.144027, -0.003516, 0.085201, 0.066026, -0.016065, 0.171687, 0.117400, -0.160561, 0.023292, 0.076810, -0.120723, 0.028702, -0.021027, 0.106344, 0.087622, -0.008324, -0.073767, 0.104312, -0.043854, 0.019797, 0.075730, -0.063186, 0.113213, 0.028042, 0.100556, 0.020713, -0.020971, 0.042808, 0.017987, 0.108564, -0.038094, 0.160471, 0.094295, 0.057379, 0.011051, -0.103120, 0.018293, -0.015608, -0.123523, 0.146560, -0.173253, 0.046124, 0.129808, 0.071279, 0.042047, 0.040932, 0.023942, -0.032437, -0.021898, 0.163546, -0.157740, 0.092872, -0.061764, 0.126795, -0.077065, 0.098064, -0.100635, -0.032151, -0.010910, -0.003242, -0.035338, -0.184058, 0.023672, -0.002293, -0.053989, -0.031801, -0.086674, 0.080011, -0.031460, -0.053054, -0.025472, 0.180308, 0.067392, -0.140125, 0.023985, -0.011388, 0.167907, 0.069796, 0.003246, 0.180793, -0.040802, -0.066852, -0.038214, 0.021668, 0.040651, -0.013368, -0.054421, -0.051493, 0.003277, 0.128116, 0.014730, 0.156327, -0.072643, 0.010029, 0.190912, 0.030861, 0.010513, 0.004018, -0.136881, 0.034497, 0.113047, 0.098162, 0.158758, -0.068314, 0.030524, -0.064154, 0.005780, 0.056308, -0.142968, -0.068008, 0.121107, -0.150215, 0.074188, 0.062790, -0.083632, 0.027583, -0.047255, -0.078376, 0.074943, 0.056941, 0.093083, -0.100708, 0.178103, 0.158881, -0.019388, -0.089615, -0.119783, 0.038101, 0.003719, 0.146353, -0.070262, 0.127328, -0.110374, 0.126707, -0.044968, 0.000230, 0.179128, -0.093256, 0.055293, -0.005656, 0.046485, -0.011756, -0.067584, -0.069480, -0.019284, -0.126685, 0.063553, 0.011687, -0.086985, 0.004669, -0.064386, -0.052696, -0.024847, 0.074503, 0.050198, 0.027294, 0.125899, 0.117776, -0.037176, 0.026806, -0.062672, -0.189594, -0.182649, 0.027848, 0.113036, 0.032073, -0.005401, -0.141034, -0.023299, 0.024469, -0.184981, -0.070311, 0.135766, -0.130915, -0.008542, -0.014747, 0.030558, 0.107455, -0.117893, -0.097431, -0.171770, 0.142555, 0.189250, 0.006313, -0.043951, -0.016964, -0.046426, 0.008207, 0.069462, -0.066702, 0.124755, 0.069975, 0.168498, 0.090094, -0.171513, -0.031657, 0.148986, 0.095033, 0.034812, 0.026863, -0.069322, 0.089821, 0.003880, -0.001545, 0.118082, 0.047664, 0.159082, 0.164632, -0.036154, 0.120123, 0.038168, -0.153602, -0.061812, -0.020280, 0.039591, 0.044346, -0.071287, 0.177161, -0.123483, -0.117653, -0.050981, -0.128833, -0.026417, -0.025191, 0.050827, -0.149592, -0.079795, -0.028803, -0.144946, -0.039718, 0.033858, -0.081552, 0.028307, 0.001531, 0.042747, 0.045536, 0.039162, -0.123155, 0.022062, 0.123064, 0.076280, -0.081957, -0.008454, 0.055526, 0.113445, 0.094207, 0.084324, 0.027366, -0.159373, 0.119458, 0.183294, -0.137116, 0.094180, -0.024441, -0.009427, -0.035980, -0.000634, -0.102700, -0.044337, -0.027874, 0.174117, -0.049071, 0.066612, -0.054541, 0.055407, 0.025151, 0.006935, -0.018111, 0.048779, 0.041430, -0.033295, 0.024991, 0.010676, -0.043688, 0.109729, 0.133510, 0.190798, 0.091944, 0.158552, -0.014048, 0.034493, -0.149824, -0.055419, -0.084090, -0.102958, -0.057704, 0.164069, 0.054318, 0.012260, -0.018011, -0.060569, -0.003571, 0.107657, -0.006653, 0.054464, 0.021265, -0.052798, -0.056419, 0.052667, 0.052365, -0.064080, 0.014717, 0.084912, -0.126016, 0.055609, 0.055228, 0.037433, 0.178861, -0.088014, 0.000449, -0.078128, 0.098264, 0.020332, 0.079966, 0.152027, -0.199165, -0.012385, -0.015185, -0.126240, -0.202732, -0.030766, 0.048675, -0.088036, -0.026800, -0.014837, 0.087943, -0.025921, -0.043757, 0.144216, 0.086087, -0.004906, -0.132550, -0.167428, -0.063488, 0.111181, -0.039197, 0.014251, 0.040385, -0.056693, 0.085595, -0.042261, -0.052893, 0.015163, 0.018715, 0.035369, 0.074175, -0.083902, -0.082120, -0.184876, -0.036566, -0.152976, -0.116648, -0.079214, 0.184137, 0.020907, 0.069764, 0.096656, -0.048586, 0.032730, 0.080250, 0.189378, 0.175414, 0.056659, -0.001746, 0.019514, -0.156343, -0.113916, -0.081639, 0.021499, -0.048653, 0.101025, -0.074311, 0.098659, -0.166007, 0.146270, -0.098698, -0.030183, -0.091047, 0.028283, -0.094745, -0.093703, 0.027149, 0.027059, 0.108891, -0.118185, 0.070481, 0.007174, 0.158069, -0.024202, 0.084768, -0.042765, 0.130014, 0.113654, 0.088729, -0.055348, 0.000717, -0.136544, -0.058724, 0.035094, 0.074653, -0.030146, -0.116711, -0.006673, -0.026606, 0.090043, -0.037021, 0.194000, -0.061575, 0.132366, 0.110910, 0.077328, 0.142134, 0.005259, 0.061047, -0.113716, -0.138053, 0.040962, 0.154618, -0.039176, 0.076954, 0.125247, 0.066687, -0.057801, -0.016244, 0.054995, 0.111269, -0.039162, 0.093628, 0.015960, -0.092896, 0.029527, -0.073531, -0.017230, 0.118647, 0.031030, 0.057581, -0.065533, 0.008870, -0.083620, -0.041653, 0.116839, 0.119874, 0.068223, -0.009913, 0.087309, 0.020753, 0.034177, -0.153759, 0.004329, 0.201026, -0.021140, -0.009120, 0.037112, -0.192493, 0.095144, -0.067775, 0.159655, 0.082121, -0.019768, -0.053937, 0.107210, 0.042631, -0.037673, 0.019024, -0.041194, -0.072001, 0.041978, 0.156022, 0.153820, 0.105264, -0.011084, 0.108935, -0.094795, -0.147558, -0.165113, -0.097086, 0.046446, 0.060845, 0.199445, -0.129241, -0.007782, -0.130621, -0.039245, -0.121133, -0.142416, -0.095575, -0.134417, 0.103423, -0.042515, 0.087170, 0.072634, -0.143810, -0.114467, -0.110419, -0.116198, -0.167312, 0.037036, -0.002485, -0.030341, -0.038759, -0.152990, 0.097792, -0.139242, 0.096580, -0.079085, -0.135759, -0.123546, -0.048067, -0.097410, -0.084822, -0.124249, 0.134254, -0.116321, 0.075128, -0.134090, -0.045202, 0.088047, -0.051459, 0.050367, 0.091819, 0.086949, 0.033670, 0.141352, -0.089047, -0.120240, -0.022556, 0.070531, 0.013279, -0.076324, -0.097653, -0.001926, 0.026416, 0.096614, 0.061056, 0.043274, -0.025002, 0.004723, 0.129059, -0.019216, 0.020753, -0.031018, -0.032234, -0.075555, 0.125200, -0.044660, 0.071371, 0.015610, 0.073680, 0.022875, -0.077821, -0.100423, 0.040027, -0.088989, -0.039235, 0.029379, -0.159284, -0.104408, -0.055465, 0.018524, 0.110465, 0.040681, 0.006195, -0.103263, 0.048122, -0.158615, 0.192038, 0.026114, 0.107982, -0.183778, 0.154060, -0.129757, -0.049104, 0.089638, -0.045707, -0.007578, 0.012924, 0.028533, -0.035852, 0.146327, -0.109282, -0.130124, -0.101825, 0.095181, -0.132877, -0.023071, 0.004373, 0.128391, -0.069537, 0.065086, 0.079712, 0.020231, -0.063933, -0.009740, 0.101237, -0.004859, 0.017106, 0.004709, 0.098072, -0.119307, -0.044205, 0.023552, -0.018362, 0.181675, -0.101513, -0.039404, 0.019984, -0.091067, 0.185332, -0.049433, -0.138007, 0.107858, 0.128113, 0.127422, 0.030739, 0.159794, 0.107908, -0.025706, 0.141078, -0.095279, 0.072831, 0.019964, -0.010202, -0.184552, -0.074340, -0.076724, -0.112074, -0.055462, -0.078709, 0.087176, -0.083808, -0.156471, -0.004757, -0.084342, 0.072468, -0.054183, 0.006975, 0.000482, 0.162574, 0.048730, 0.043940, 0.067587, -0.069797, -0.137980, 0.030064, 0.086583, 0.067372, 0.026067, -0.002761, 0.025796, 0.020773, 0.014286, -0.012338, -0.046935, 0.084008, 0.051203, 0.171922, -0.099988, -0.136865, -0.067484, 0.000785, 0.038307, 0.117552, -0.036645, -0.100557, 0.195736, -0.057738, 0.036485, -0.039395, 0.188095, 0.023293, -0.048044, -0.105678, -0.020563, 0.019153, -0.015177, 0.047226, -0.112729, 0.016610, -0.053234, -0.109553, -0.025028, 0.104354, 0.031596, 0.009120, 0.031260, 0.074164, 0.097305, 0.015899, 0.066146, 0.086654, 0.075698, 0.013546, 0.018300, -0.076868, -0.004797, -0.135639, -0.028667, 0.008062, 0.076898, 0.097183, -0.019681, -0.095709, 0.074779, -0.018755, 0.012903, 0.073942, -0.023962, 0.125719, 0.112971, -0.020866, 0.127376, -0.011942, -0.034974, -0.038214, -0.038552, 0.014464, 0.139563, 0.049163, 0.021364, 0.014133, -0.013944, 0.087435, -0.088721, 0.175407, -0.142504, 0.061910, -0.062233, 0.152205, -0.003626, -0.088332, 0.049740, -0.189012, -0.093923, -0.074817, -0.024392, 0.083651, 0.020165, -0.034119, -0.060574, 0.131640, -0.018573, 0.035314, -0.067145, 0.014238, 0.040656, -0.057341, 0.048885, -0.026194, 0.079836, -0.164103, 0.078052, -0.047670, 0.122705, -0.010151, -0.062299, 0.087174, 0.014363, 0.017310, 0.013237, -0.089661, 0.059106, -0.025407, -0.086933, 0.002170, -0.165344, 0.071840, -0.050631, -0.129496, -0.129438, -0.030977, 0.108423, 0.030032, 0.026530, -0.057306, -0.024355, 0.133731, 0.077419, -0.037394, 0.015184, 0.071476, 0.004255, 0.066292, -0.029589, -0.043047, -0.016573, -0.053513, 0.032259, 0.132251, -0.133889, -0.000985, 0.070217, -0.062746, 0.025612, 0.195868, -0.007158, 0.110466, -0.052389, -0.050921, 0.051778, 0.005477, -0.008181, -0.069299, 0.052070, 0.135315, 0.118134, 0.030612, 0.008924, 0.110624, 0.057519, -0.059450, 0.126524, 0.090776, -0.139770, 0.042084, -0.014235, 0.083479, -0.079358, -0.112265, 0.116131, 0.002408, -0.019191, -0.005475, -0.017038, 0.012543, 0.039617, 0.070872, 0.038088, 0.055448, 0.035649, 0.112039, 0.046594, -0.104469, -0.074026, -0.038108, 0.000104, -0.108873, 0.023119, -0.158680, -0.047850, -0.161053, -0.058144, -0.002266, -0.075513, -0.135924, -0.080088, -0.156047, 0.066091, 0.136888, -0.028144, -0.135096, 0.121483, 0.038937, 0.138843, 0.147418, -0.088603, -0.119975, -0.014997, 0.078001, 0.188469, -0.016211, -0.110749, 0.087964, 0.110699, 0.125192, 0.049980, 0.016962, -0.094574, 0.019178, 0.037720, -0.018797, -0.036539, -0.094210, 0.042837, -0.061348, 0.125875, 0.058358, -0.046897, -0.027394, -0.161875, -0.091542, 0.080466, -0.048088, 0.031148, -0.041873, 0.004736, 0.135421, -0.162891, 0.110367, 0.086629, -0.016669, 0.129252, 0.043369, 0.051673, -0.023214, -0.066127, -0.042121, -0.018871, 0.062975, 0.092964, -0.035677, -0.011642, -0.034722, 0.165455, 0.093680, 0.102363, 0.079442, -0.052928, -0.000092, 0.057306, 0.058466, -0.192680, 0.012474, 0.145031, 0.105099, -0.026513, -0.087587, 0.156128, 0.058180, 0.081005, 0.195892, 0.031905, -0.050984, 0.191745, 0.015239, -0.172574, -0.050771, 0.042712, -0.142580, -0.075323, 0.071356, 0.106080, -0.095363, -0.025478, -0.029878, 0.010830, 0.143020, 0.160104, 0.105783, -0.001968, -0.000977, 0.114944, -0.030470, -0.046623, -0.087104, 0.091401, 0.068385, 0.011351, -0.036513, 0.192413, 0.029955, -0.047112, -0.004317, -0.039546, 0.038309, -0.106645, 0.003182, -0.142425, -0.081818, -0.094579, -0.126298, 0.111972, -0.109731, -0.152111, 0.119230, 0.120035, 0.173271, -0.056138, 0.034663, -0.072623, -0.072249, 0.076451, -0.141689, -0.032412, -0.076726, -0.021402, 0.047717, 0.036497, 0.088692, -0.013114, -0.024285, -0.049029, 0.172009, -0.067867, -0.040043, -0.109956, 0.077286, 0.022152, -0.001589, -0.036295, 0.045335, 0.080339, 0.101254, 0.131936, -0.127636, 0.038407, -0.201464, -0.175527, -0.058767, -0.120817, 0.011606, -0.200841, -0.028556, -0.038978, -0.177108, -0.050740, -0.028398, -0.015979, -0.089276, -0.132524, 0.155192, -0.193402, -0.026398, 0.140683, 0.021666, -0.044731, 0.071979, -0.006039, 0.090622, -0.032284, 0.090364, -0.042312, -0.060408, -0.007658, 0.045108, -0.099034, -0.103627, -0.091644, -0.154429, 0.133983, 0.055267, -0.024209, 0.128157, 0.141917, -0.026018, 0.090580, 0.182150, 0.091524, -0.123467, 0.019815, 0.064958, -0.110531, -0.092269, -0.153754, -0.186666, -0.121379, -0.103421, 0.085748, -0.124282, 0.111550, 0.010128, 0.053048, 0.014658, -0.026892, -0.065123, -0.065790, 0.035073, -0.147903, 0.085160, 0.018619, 0.002439, -0.175279, 0.048039, -0.019847, 0.024915, 0.030682, -0.097037, -0.040711, 0.045752, -0.061810, -0.055611, -0.051528, 0.015855, -0.077616, 0.128958, -0.049770, 0.106831, 0.162489, -0.039756, -0.052138, 0.187825, 0.027183, 0.024424, -0.000422, -0.048780, -0.099592, -0.037516, 0.114852, -0.098642, -0.027173, -0.164076, -0.040447, 0.022923, 0.062194, -0.045550, -0.100543, 0.070762, -0.104133, 0.029140, 0.081090, 0.102670, 0.080151, -0.167823, 0.177163, -0.009474, -0.077160, -0.073310, 0.056792, -0.115532, 0.118312, -0.078571, -0.154556, 0.084281, 0.090697, -0.049954, 0.063041, -0.084325, 0.067588, 0.066794, 0.070672, -0.030394, 0.104775, -0.088865, 0.150349, 0.025713, 0.107375, 0.162056, -0.018611, -0.157999, 0.048513, 0.098254, 0.014546, -0.049815, -0.196012, -0.155480, -0.093246, -0.086655, -0.018273, 0.026831, 0.069510, -0.065328, -0.052671, 0.173340, 0.060008, 0.055634, 0.000970, -0.041379, -0.075256, -0.000026, 0.056258, 0.144827, 0.045508, -0.104556, -0.109698, -0.116519, 0.008284, -0.005316, -0.073965, -0.056401, 0.050030, -0.195197, 0.069159, 0.048239, -0.110061, -0.150702, -0.034868, 0.158929, -0.039867, 0.075914, -0.100718, 0.008220, 0.012753, 0.005081, -0.030388, 0.023339, -0.128989, 0.088835, -0.065499, -0.100370, -0.030052, 0.043180, -0.164926, -0.148616, 0.031151, -0.178716, -0.052275, 0.172229, 0.015094, -0.064169, -0.005685, 0.028471, -0.055025, 0.046369, -0.024792, -0.048874, 0.131256, 0.172830, -0.126111, 0.003074, 0.051555, 0.090847, -0.085859, 0.015514, -0.116426, 0.018486, -0.058181, 0.088925, -0.113916, -0.120506, 0.032844, -0.076481, 0.089700, -0.069815, 0.009049, 0.055584, -0.016269, -0.062244, -0.048738, -0.120608, -0.076530, -0.010535, -0.052768, 0.020850, 0.109677, -0.052381, -0.097230, -0.053799, -0.108521, -0.031289, -0.086748, -0.061632, 0.006430, -0.180022, 0.097712, 0.000585, 0.055270, -0.055728, -0.173214, -0.121776, -0.090195, -0.024848, -0.078271, 0.010743, 0.072148, 0.119616, -0.019515, 0.068023, 0.096650, 0.045673, 0.047496, -0.118984, 0.033324, 0.095069, -0.033578, -0.091405, -0.102540, -0.085736, -0.046253, 0.165048, -0.047829, 0.044277, 0.127601, 0.068607, 0.067438, 0.112431, 0.024318, -0.007252, -0.024257, 0.043479, 0.093817, 0.033921, 0.055591, -0.032287, -0.139692, 0.064281, -0.040113, 0.079629, 0.110712, -0.053454, 0.078790, -0.075356, -0.032192, -0.125789, 0.012350, -0.004697, -0.007920, -0.056121, -0.054889, 0.085288, -0.067687, 0.115703, -0.090027, -0.084248, -0.008976, 0.071380, 0.003322, -0.031365, 0.073617, 0.113918, 0.000829, 0.022984, -0.004987, 0.008753, -0.018542, 0.153121, -0.018301, 0.004446, 0.025846, -0.046004, 0.075589, -0.063537, -0.172321, -0.002338, -0.095758, 0.018558, -0.096338, -0.108327, 0.084550, 0.104928, 0.112191, 0.058863, -0.025262, -0.175853, -0.049899, 0.090045, 0.070840, 0.127996, 0.075642, -0.050442, -0.146456, -0.052351, 0.045406, -0.055813, 0.016637, 0.097329, -0.057086, -0.091714, 0.197427, 0.106506, 0.088180, -0.104124, -0.036291, -0.097018, -0.151158, -0.126450, 0.013011, 0.063206, 0.019875, -0.026311, -0.196405, 0.184144, -0.046149, 0.121782, -0.036356, -0.078460, -0.061073, -0.061708, 0.006640, 0.090028, -0.161894, -0.120013, 0.183744, -0.043410, -0.048722, 0.067798, -0.036973, -0.038477, 0.005813, 0.052417, 0.055745, -0.029471, -0.034886, 0.084014, 0.029917, 0.070477, 0.008273, 0.032415, -0.153291, 0.020749, 0.181849, -0.096894, -0.067905, 0.044175, -0.115608, 0.045119, 0.200339, -0.064753, 0.069762, -0.038836, -0.019214, 0.035968, 0.039066, 0.033497, 0.006047, 0.005886, 0.027693, 0.041142, -0.012583, 0.039763, 0.092135, 0.153750, -0.115938, -0.011232, -0.145073, 0.006537, -0.037110, -0.052214, -0.104830, -0.022664, -0.021979, 0.064657, 0.075313, -0.010387, 0.000673, -0.075672, 0.086463, -0.094285, -0.097617, -0.028913, 0.010890, -0.065382, 0.055385, -0.076830, -0.073033, -0.027284, -0.146232, -0.024621, -0.000575, 0.037244, 0.016342, 0.069526, -0.095601, 0.039444, 0.035972, 0.053694, 0.091926, 0.032260, 0.034344, -0.108931, -0.037705, -0.049689, -0.005297, -0.009477, -0.087566, -0.133726, -0.069496, -0.031260, -0.151713, 0.034268, -0.070444, 0.100688, -0.122225, 0.094986, -0.158823, 0.158208, -0.158033, -0.077426, -0.068702, -0.009415, -0.019905, 0.041526, -0.087285, -0.051565, -0.124058, -0.068334, -0.124300, -0.124631, -0.076944, 0.025712, -0.036043, 0.119811, 0.080749, 0.078430, 0.055868, 0.111875, -0.136296, 0.076344, 0.006148, 0.149115, 0.117910, -0.009399, 0.093368, -0.001238, 0.022408, -0.020959, -0.003908, 0.037239, -0.044690, 0.102428, 0.113549, -0.141302, 0.126863, 0.052490, -0.063643, -0.022554, 0.060565, 0.059924, -0.029420, -0.165057, -0.092078, 0.128783, -0.034161, -0.024954, 0.019825};
#endif

#endif
