//Numpy array shape [32, 32]
//Min -2.129107936967
//Max 0.867300797254
//Number of zeros 0

#ifndef CORE_EDGE_W1_H_
#define CORE_EDGE_W1_H_

#ifndef __SYNTHESIS__
ap_fixed<16,6> core_edge_w1[1024];
#else
ap_fixed<16,6> core_edge_w1[1024] = {0.358782, 0.327573, 0.181293, -0.029476, -0.014054, -0.028437, 0.080592, 0.397299, 0.504989, -0.210305, 0.233630, 0.088033, 0.165810, 0.154201, 0.095309, -0.077206, 0.159955, 0.388910, 0.045217, 0.164486, -0.167394, 0.692732, -0.259400, 0.054245, -0.174357, 0.053407, -0.180393, -0.192535, 0.052656, 0.003571, 0.097565, 0.115872, 0.041020, -0.068462, -0.209474, 0.185257, -0.353264, -0.213368, 0.231049, -0.021076, -0.132715, 0.148493, -0.245207, 0.139337, -0.024138, -0.379736, 0.024360, -1.062977, -0.151908, 0.112279, 0.205512, 0.106707, -0.152145, -0.157446, 0.000035, -0.189642, -0.367348, 0.046672, 0.037528, 0.154622, -0.299076, 0.074703, 0.129864, -0.092508, -0.228739, -0.242235, -0.360708, 0.437245, -0.035051, -0.324552, -0.270891, -0.339871, 0.198690, -0.279969, -0.475088, 0.528220, -0.584302, -0.076493, -0.387577, 0.206558, -0.148716, 0.134976, -0.370668, -0.071131, -0.524660, -0.202105, -0.061284, 0.129133, -0.404419, -0.300322, -0.440362, -0.531463, -0.126650, 0.159539, 0.043438, 0.078238, -0.193908, -0.243660, 0.329083, 0.462790, 0.478229, -0.724971, 0.072897, -0.389376, 0.415397, 0.121127, -0.177112, 0.499836, 0.266802, 0.311104, -0.029927, -0.015550, -0.263259, -0.071762, -0.145753, 0.083069, -0.282108, -0.021415, 0.194424, 0.722928, -0.105770, 0.028409, -0.246761, -0.027776, -0.228609, 0.200844, 0.357350, -0.625736, 0.137541, -0.135084, 0.019437, 0.075542, 0.290636, 0.180978, 0.317631, 0.258020, 0.100071, -0.074237, 0.154896, -0.072698, -0.027250, 0.347255, 0.126829, -0.784479, -0.040427, 0.073269, -0.107356, 0.067713, -0.040667, 0.231489, -0.229275, -0.322988, -0.117311, -0.191794, 0.295099, 0.098073, -0.089639, 0.300748, 0.273683, -0.008072, 0.328491, 0.015058, 0.299880, -0.439250, 0.192345, 0.243315, -0.148082, 0.331620, 0.003978, 0.115061, 0.357058, -0.129334, 0.052351, 0.231984, -0.001888, -0.957190, -0.392102, -0.791222, -0.406038, 0.307495, 0.299175, -0.381833, -0.180702, -0.209735, 0.517769, -0.258965, 0.143334, 0.278442, 0.191347, -0.065074, -0.043172, -0.194583, -0.040252, -0.223463, 0.144995, -0.047271, 0.281601, -0.354080, 0.007125, 0.007754, -0.146126, -0.420657, 0.068411, -0.249122, 0.130185, -0.144077, -0.234514, 0.487059, 0.084864, -0.277842, -0.242715, 0.209723, 0.381929, 0.167302, -0.215523, -0.232087, -0.114557, 0.192449, 0.119731, 0.175370, -0.164909, -0.101821, -0.096290, 0.029193, -0.117326, 0.061817, 0.039625, 0.031338, 0.213954, -0.031335, 0.106716, 0.045330, -0.152763, -0.202447, -0.136075, -0.192968, -0.355952, -0.209985, -0.414918, -0.941658, 0.178414, 0.276642, 0.158540, 0.060179, -0.080230, 0.100431, -0.405163, -0.165039, -0.554057, -0.013663, -0.454729, -0.544166, -0.262385, 0.085577, 0.128661, 0.179110, -0.003137, 0.103411, 0.173409, 0.265542, 0.021688, -0.144022, -0.020488, 0.101359, -0.182558, 0.278034, 0.107563, -0.050187, -0.138079, -0.012889, 0.077741, 0.268980, -0.404160, -0.308055, -0.308771, -0.165144, 0.244563, 0.019389, -0.001442, -0.104783, 0.208108, -0.176787, -0.117617, 0.183634, 0.180333, -0.046563, -0.076145, 0.405980, 0.518862, 0.163159, 0.438688, 0.214309, 0.302778, 0.827010, 0.741004, 0.356820, 0.613879, 0.785635, 0.769259, -0.117295, 0.395879, 0.310245, 0.484660, 0.129179, -0.415925, -0.729455, 0.377450, 0.451478, 0.019319, 0.828541, 0.116461, -0.228759, 0.249555, -0.192386, 0.846115, 0.576727, 0.532127, -0.069708, -0.086293, -1.122778, 0.133590, 0.189678, 0.107942, -0.034083, -0.107476, -0.237363, -0.087232, -0.108747, 0.148735, -0.246620, 0.041124, 0.289310, 0.215277, 0.108553, -0.174386, -0.574505, -0.106728, 0.266990, -0.663309, -0.040122, 0.343143, 0.104721, 0.082680, 0.273060, 0.184537, -0.166367, 0.124011, 0.184092, 0.065139, -0.041476, 0.214876, 0.357632, 0.165405, 0.540515, 0.326644, 0.118900, -0.210175, 0.344135, 0.005426, -0.120055, 0.383308, 0.229197, 0.016796, 0.142881, 0.093535, 0.151887, 0.229599, 0.107615, -0.042396, 0.131236, 0.201524, -0.353294, -0.099653, 0.078111, 0.241849, 0.325280, 0.073366, 0.116997, 0.306492, 0.067409, -0.248564, 0.247424, -0.017613, -0.015360, -0.074651, -0.077911, -0.119184, 0.275649, -0.269775, 0.076192, -0.044381, 0.131342, -0.140711, 0.058966, 0.190507, -0.196453, -0.218323, 0.032103, 0.007409, 0.400921, 0.085845, -0.313577, 0.125281, 0.197313, 0.323688, 0.321415, -0.108378, -0.153356, -0.265890, -0.151203, 0.120629, -0.128669, 0.114495, -0.266478, -0.156663, 0.106616, -0.026608, 0.222129, 0.472516, 0.356743, 0.345342, 0.384023, 0.248714, 0.078738, 0.368016, 0.184126, -0.029856, -0.109873, -0.084603, 0.102709, -0.074648, 0.312557, 0.298918, 0.004255, -0.261195, -0.229439, -0.047227, 0.012934, 0.012025, 0.204008, 0.210257, 0.147705, 0.154155, -0.047015, 0.086543, 0.306203, -0.213740, 0.109879, 0.385279, -0.031812, -0.007712, -0.018856, 0.161180, 0.320085, 0.045605, 0.063029, 0.277190, 0.413250, -0.057195, -0.083782, -0.025260, 0.159083, 0.426497, -0.266584, -0.495858, -0.447399, 0.290834, 0.148464, 0.154924, 0.059991, 0.111939, 0.056964, 0.233354, -0.202627, 0.124027, 0.072873, 0.273443, -0.344600, -0.554844, -0.058256, -0.143733, -0.203400, 0.028932, 0.109456, -0.277426, -0.104255, -0.238246, -0.034527, -0.031937, -0.051876, -0.142402, 0.138823, -0.278102, -0.074519, -0.631275, -0.706565, -0.157235, -0.305448, 0.113925, -0.083049, -0.003080, -0.104011, -0.345538, -0.119787, -0.414173, -0.021278, -0.754772, -0.269466, 0.078331, -0.069811, -0.039543, -0.066332, -0.068523, -0.035056, 0.016670, 0.184574, -0.160418, -0.285612, 0.156917, -0.053402, -0.730609, -0.096563, 0.005803, -0.533798, 0.289041, 0.018834, -0.058548, 0.261874, -0.263850, -0.291679, 0.237156, -0.157367, 0.143829, -0.442428, 0.066175, -0.221018, 0.135221, -0.018338, 0.066509, -0.270728, 0.256893, -0.386050, -0.063811, -0.198467, 0.263375, 0.099396, 0.105569, -0.089236, 0.226978, 0.451283, 0.405945, 0.643331, -0.149454, -0.076107, 0.510742, -0.332838, 0.155652, 0.039349, -0.151384, 0.227772, -0.303503, -0.448359, -0.418725, 0.497979, 0.614869, 0.391156, 0.017866, 0.084675, -0.282599, 0.311296, -0.063227, 0.129242, 0.117868, -0.064949, -0.285321, -0.230488, 0.421738, 0.379363, 0.434352, -0.385547, 0.070207, 0.380235, 0.037002, 0.061903, 0.099946, 0.106197, -0.205652, 0.130261, 0.176814, 0.363818, 0.359497, -0.098648, -0.052624, 0.109001, 0.127919, 0.072288, 0.031978, -0.132332, 0.223581, 0.084314, -0.277993, -0.005957, 0.048259, 0.255127, 0.071289, -0.553871, -0.002673, 0.170639, 0.333573, 0.389430, 0.641297, -0.277816, -0.166905, 0.552122, 0.519994, 0.265675, 0.003903, 0.526446, 0.500919, 0.095575, 0.554981, 0.495651, 0.355758, -0.678851, -0.129150, 0.010557, -0.248991, 0.548726, 0.356114, 0.281645, 0.362199, 0.246180, 0.568427, -0.055259, 0.385443, 0.481018, 0.251202, -0.347450, -0.034250, -0.500885, -0.400611, 0.208085, 0.060575, 0.302026, -0.386391, 0.083605, -0.234602, -0.090206, -0.172683, -0.014911, -0.306090, 0.236991, -0.058932, 0.118325, -0.547012, -0.690853, 0.126962, 0.026547, -0.202832, 0.044858, -0.255345, -0.196890, -0.171485, -0.019805, -0.566208, -0.239379, -0.072122, -0.206004, -0.058915, 0.220443, 0.192891, 0.147746, 0.170762, -0.226851, 0.160708, 0.024044, -0.615255, 0.328596, 0.029974, 0.423814, -0.370912, 0.418043, 0.176625, -0.192557, 0.631218, -0.086642, 0.532607, -0.022396, -0.549283, -0.070023, -0.181043, 0.003009, 0.011828, -0.221048, -0.105306, -0.471977, 0.120806, -0.095653, 0.356238, 0.134369, 0.431855, -0.406094, -0.505782, -0.534510, -0.015520, 0.281718, -0.081967, -0.199876, -0.578539, 0.745398, 0.192178, 0.033694, 0.230548, 0.489928, 0.211617, -0.065724, -0.152650, -0.249447, 0.289225, -0.479297, 0.322421, -0.221225, 0.053316, 0.138555, -0.243958, -0.066017, -0.210470, 0.248787, 0.478450, -0.108785, 0.167095, 0.484078, 0.424611, -0.022925, -0.350850, -0.108224, -0.193604, 0.573107, 0.326255, -0.531417, 0.230871, 0.346896, 0.560214, 0.039080, 0.266758, 0.064722, 0.076637, 0.102217, -0.033933, 0.671589, 0.165964, -0.998823, 0.427904, -0.023082, -0.109345, -0.039697, -0.135559, 0.467736, -0.126734, 0.453626, -0.010427, 0.143184, 0.021221, 0.012274, 0.267460, 0.125637, 0.211807, -0.132814, 0.040524, 0.113948, -0.042078, -0.500939, 0.073342, 0.220039, 0.107885, 0.070851, -0.033516, 0.207155, -0.077468, -0.471151, 0.213559, 0.006991, 0.068580, 0.017528, -0.113657, -0.725977, -0.189966, 0.284819, 0.506148, -0.118957, 0.114688, -0.267258, 0.074531, -0.329358, -0.112091, -0.091433, 0.159556, -0.184634, -0.302225, -0.127884, 0.118323, 0.285183, 0.092191, -0.323953, 0.134980, -0.228040, -0.108241, -0.329957, 0.192005, -0.060567, -0.016586, -0.244935, -0.013025, -0.109706, 0.190803, -0.114619, 0.422757, 0.290692, 0.115797, 0.195663, -0.178800, 0.068426, 0.247012, 0.169160, -0.204838, -0.121664, -0.100826, -0.178794, -0.370756, 0.069232, 0.312586, 0.017687, -0.098439, 0.278498, 0.070910, 0.117171, 0.179888, 0.055884, -0.210050, 0.101878, 0.127499, 0.330594, -0.158558, -0.168080, -0.598149, -0.225403, -0.108894, -0.042675, -0.427322, 0.250234, -0.028402, -0.066518, -0.208058, 0.036377, 0.252773, 0.052216, -0.048256, -0.308944, 0.068547, 0.078265, 0.079874, -0.105269, -0.299613, -0.018082, -0.397145, 0.509132, 0.405882, -0.881031, 0.257492, -0.030046, 0.215268, 0.143585, 0.214757, 0.082657, -0.152159, 0.080323, -0.521572, 0.401013, -0.071240, -0.506086, 0.778240, 0.342379, 0.011517, 0.408838, -0.168176, 0.173838, -0.027701, 0.867301, 0.252471, -0.116478, -0.193351, 0.112517, 0.283134, 0.148446, 0.171369, 0.154787, -0.062017, -0.217261, 0.121304, 0.065513, 0.090951, 0.026343, 0.069305, -0.111831, -0.386915, 0.199024, 0.205739, 0.105754, 0.216687, -0.047711, 0.186416, 0.359025, 0.015560, -0.308113, -0.306774, -0.299956, -0.003767, 0.179465, 0.185241, -0.111261, 0.304888, -0.033408, 0.122482, -0.001315, 0.021105, -0.156348, -0.026486, -0.375638, -0.084004, 0.350434, 0.257511, -0.161501, -0.501324, -0.003465, 0.189520, 0.097086, 0.212220, 0.177034, 0.018455, 0.116877, 0.119441, 0.270858, 0.163154, -0.669198, 0.192285, 0.387737, -0.077136, -0.074045, -0.320464, 0.251958, 0.014894, 0.134028, 0.457119, 0.017825, -0.275185, 0.034593, 0.139579, -0.098993, 0.090202, 0.335074, -0.260910, 0.410974, -0.124004, -0.252325, -0.266221, -0.057348, 0.329259, 0.042970, 0.100298, 0.150723, -0.281586, -0.009275, -0.167183, 0.218318, 0.104123, -2.129108, 0.197554, 0.550586, -0.025176, -0.169962, -0.450170, 0.177892, 0.011057, 0.127347, 0.069316, -0.185213, -0.130477, -0.143523, 0.256429, 0.171686, 0.015625, 0.116876, 0.099025, -0.157366, 0.244695, 0.052584, -0.810216, -0.036562, 0.110587, 0.241400, -0.372487, 0.090966, -0.121919, -0.399643, 0.201958, 0.239374, 0.234297, 0.429977, -0.038135, -0.240590, 0.213772, -0.047182, 0.233100, -0.098679, 0.364794, -0.180966, 0.052972, -0.146881, 0.049060, 0.056313, 0.168088, -0.253838, -0.396784, 0.301785};
#endif

#endif
