//Numpy array shape [8, 24]
//Min -2.515718457582
//Max 1.104952189083
//Number of zeros 0

#ifndef CORE_EDGE_W0_H_
#define CORE_EDGE_W0_H_

#ifndef __SYNTHESIS__
ap_fixed<16,6> core_edge_w0[192];
#else
ap_fixed<16,6> core_edge_w0[192] = {-0.459420, -0.708381, -0.224947, -0.521263, -0.422577, 0.217404, -0.228696, -0.401559, 0.369510, 0.145287, 0.129596, 0.111748, -0.115268, 0.366964, 0.158850, -0.017231, -0.196587, 0.092703, -0.157061, -0.118211, -0.260448, 0.318336, 0.207570, -0.048190, 0.206331, 0.386543, -0.128470, 0.751967, 0.687095, 0.154096, 1.104952, 0.716494, -0.642488, 0.679329, -0.734233, -0.130963, -0.325862, -0.017751, 0.413024, -0.411274, -0.584158, 0.550579, -0.405911, 0.203115, -0.218158, -0.248648, 0.195338, -0.220033, 0.668100, 0.350635, 0.014616, 0.382011, -0.158998, -0.585640, 0.268471, 0.381468, 0.172199, 0.002682, 0.178347, -0.115323, 0.136525, 0.306733, -0.307539, 0.107767, 0.261936, 0.032945, 0.441281, 0.287305, -0.133552, 0.089633, -0.027960, 0.078485, 0.653782, 0.202095, 0.088087, 0.825740, 0.071872, -0.081238, -0.500158, -0.089159, 0.265546, -0.067618, 0.071767, 0.518824, -0.210709, 0.183083, 0.006405, 0.272507, 0.544715, -0.343813, -0.147161, 0.349537, -0.105501, 0.327886, -0.286810, 0.307733, -0.780651, -0.341932, 0.136727, -1.068351, -0.297200, 0.299023, 0.018231, -0.326186, -0.101931, 0.004127, 0.167792, -0.062749, 0.378016, -0.073347, -0.177505, 0.094808, 0.246165, 0.005783, 0.264898, -0.044045, 0.222814, -0.001660, -0.075913, -0.092694, 0.024094, 0.504241, -0.046338, 0.481617, 0.071568, -0.206636, 0.267305, 0.456035, -0.067733, 0.356683, -0.123463, 0.529685, 0.037878, 0.195258, 0.092268, 0.543839, 0.240401, 0.039538, 0.022958, 0.593712, -0.122118, 0.171877, 0.058909, 0.266805, -0.133827, -0.072919, -0.023569, -0.164449, -0.251200, 0.234535, -0.079625, 0.157115, -0.153968, -0.199455, -0.008689, -0.252088, 0.144234, -0.103832, -0.354157, -0.067190, 0.019970, -0.078519, 0.021845, -0.187501, 0.141085, -0.225013, 0.054914, 0.113183, -1.164807, -0.452776, -0.091078, -2.515718, -0.901624, 0.012926, -0.718575, -0.473703, 0.257645, -0.140529, 0.334206, -0.159209, 0.065296, 0.160809, -0.194270, 0.093114, 0.104830, 0.146758, 0.283536, 0.008928, -0.148429, 0.339023, -0.142869, -0.008010};
#endif

#endif
