//Numpy array shape [32, 32]
//Min -0.351659276378
//Max 0.352496579903
//Number of zeros 0

#ifndef DECODER_EDGE_W2_H_
#define DECODER_EDGE_W2_H_

#ifndef __SYNTHESIS__
ap_fixed<16,6> decoder_edge_w2[1024];
#else
ap_fixed<16,6> decoder_edge_w2[1024] = {-0.087749, -0.021594, -0.033624, -0.172906, 0.139027, 0.271266, 0.183850, 0.302633, 0.159863, 0.329444, -0.094397, -0.070643, 0.289860, 0.113863, -0.108346, 0.136170, 0.001207, 0.051393, 0.215984, 0.207398, 0.123033, 0.188094, 0.076643, 0.134023, -0.080316, 0.067001, -0.103252, -0.024447, -0.245824, 0.181517, 0.133070, -0.244398, -0.192939, -0.136076, -0.204601, 0.081215, -0.101120, 0.287210, 0.111592, 0.027419, -0.091595, 0.281626, -0.164272, -0.136566, 0.112702, 0.197948, 0.052426, -0.099017, -0.008878, -0.303918, 0.182577, -0.080723, -0.096225, -0.036157, -0.073426, 0.035894, 0.133036, -0.174536, -0.220987, 0.261698, -0.163014, 0.224694, 0.236306, 0.047377, 0.262216, 0.066751, -0.259389, -0.118694, 0.067335, -0.180914, -0.080366, -0.301090, -0.121723, -0.017327, -0.156948, -0.152209, -0.265268, 0.123378, -0.103946, -0.110866, -0.013339, -0.045758, 0.108674, -0.038222, 0.152000, -0.184012, 0.053536, -0.217032, 0.010524, -0.111306, -0.036352, -0.058705, -0.180053, 0.140443, 0.285257, 0.020212, -0.069161, 0.176546, -0.182279, 0.100783, 0.009117, -0.096607, -0.144151, 0.016517, 0.086308, -0.305381, 0.223194, 0.004247, 0.086492, 0.136318, -0.045928, -0.216210, -0.031309, -0.068735, -0.066807, 0.084201, -0.268320, 0.176757, -0.132730, 0.252248, -0.107289, -0.041172, 0.100870, -0.093942, -0.140265, -0.072139, -0.006776, 0.080381, 0.000482, -0.016113, 0.077352, -0.106544, 0.310076, 0.105183, 0.044811, 0.247831, 0.127457, -0.162859, 0.063433, -0.050299, -0.045519, -0.185311, -0.078101, -0.115156, 0.222489, 0.313906, -0.127090, -0.041737, 0.070410, 0.129958, -0.024881, -0.245991, -0.020040, -0.267538, -0.013688, 0.071136, 0.160898, 0.061618, -0.177474, -0.092511, -0.323498, 0.177775, 0.182732, -0.088868, 0.180101, -0.058278, 0.139766, 0.112419, 0.027894, 0.038335, 0.104181, 0.123396, -0.021574, 0.123532, 0.032797, 0.257058, -0.100247, 0.066126, 0.001078, -0.051659, 0.030975, -0.034195, 0.064593, -0.020001, -0.270343, -0.259697, -0.244629, 0.074099, -0.115843, -0.282542, 0.078512, -0.199251, 0.000165, 0.215854, -0.011437, 0.015715, -0.333034, 0.087894, -0.108780, 0.191056, 0.201203, 0.139043, -0.008563, 0.009392, -0.101319, 0.345599, -0.009555, -0.269942, -0.195503, 0.010756, -0.143463, 0.025539, 0.099910, 0.129223, -0.189980, -0.004827, -0.345574, 0.045046, 0.031361, 0.146523, 0.108814, -0.271186, 0.276221, 0.158378, -0.178009, 0.081152, 0.121869, -0.236242, 0.242699, -0.145806, -0.131593, -0.247301, -0.028331, -0.217256, -0.301215, -0.047157, 0.219722, -0.173371, 0.027177, 0.032195, 0.022228, -0.211859, -0.003711, -0.206400, -0.068628, -0.001616, 0.043284, 0.122733, 0.102210, 0.207791, 0.068007, 0.053041, 0.217867, -0.167307, 0.029317, -0.203978, -0.041404, 0.098812, 0.023210, -0.256484, 0.042326, -0.086724, -0.090096, 0.000507, 0.016883, 0.233828, -0.082658, 0.170344, 0.102515, -0.158237, -0.093191, 0.143102, 0.104125, 0.031584, 0.247705, -0.005256, 0.088164, -0.018782, -0.351149, 0.122822, 0.039695, -0.153932, -0.114541, 0.070620, 0.180702, -0.205338, -0.048924, 0.128867, 0.211110, 0.155418, 0.228941, 0.241981, -0.312235, -0.074783, -0.140244, 0.037570, 0.114671, 0.040881, 0.015813, -0.082561, 0.139345, 0.314704, -0.064139, -0.103157, -0.134243, -0.235091, -0.235804, -0.176770, -0.064462, 0.241351, -0.105469, -0.000946, 0.125535, -0.000450, -0.038280, -0.289318, -0.149808, 0.104366, -0.158595, 0.229431, 0.096344, 0.127056, 0.275598, 0.243062, 0.170760, 0.325538, 0.048372, 0.052227, 0.225709, 0.142155, 0.009176, -0.205068, -0.036969, -0.161023, 0.149455, -0.197069, -0.299560, 0.149724, 0.014309, 0.327028, -0.004147, 0.053395, -0.195063, -0.006683, 0.074858, 0.195357, -0.227925, -0.150108, 0.136663, -0.164351, 0.183757, -0.087430, 0.004315, 0.047334, 0.317822, -0.184932, -0.015610, -0.098834, -0.001389, 0.342483, 0.047825, -0.149748, 0.013367, 0.003074, -0.067841, 0.215899, -0.057194, -0.305889, 0.028749, -0.124663, -0.036465, 0.059950, -0.198364, -0.021182, 0.144070, -0.146637, 0.122067, -0.286047, -0.211347, 0.007605, -0.099459, -0.187435, 0.191262, -0.135738, -0.186182, 0.158973, 0.313923, 0.174855, -0.037183, 0.046822, -0.061778, -0.030828, -0.094714, 0.155346, -0.274190, 0.171011, 0.192901, 0.203285, 0.298621, -0.320830, -0.123070, 0.181024, 0.021707, -0.206231, 0.101313, 0.074721, 0.077186, -0.316584, 0.080901, -0.118575, 0.271303, 0.225605, 0.018355, -0.163738, 0.262668, -0.163288, -0.029879, 0.053960, -0.158523, 0.183571, -0.145266, -0.263701, 0.241406, 0.013062, 0.041780, 0.016123, 0.186556, 0.031896, 0.052087, -0.115910, 0.035567, 0.035631, -0.049969, 0.049734, -0.067649, 0.225781, -0.171053, -0.017947, -0.301196, 0.194505, 0.097693, -0.049964, 0.046405, -0.062016, -0.114308, 0.116152, -0.052309, -0.315090, 0.016395, 0.098008, 0.162167, -0.228520, -0.040489, -0.177071, 0.191532, -0.059376, 0.224933, -0.121910, -0.134427, 0.131797, -0.065981, 0.056808, -0.274352, -0.066251, 0.025097, 0.017448, 0.082082, -0.047033, -0.113953, 0.058717, 0.078735, 0.000887, 0.233531, 0.025627, -0.070062, -0.221657, -0.290134, 0.026672, -0.177312, 0.139838, 0.208409, -0.039835, 0.123704, 0.091748, -0.096867, -0.299136, 0.044167, -0.022176, -0.300575, -0.142216, -0.105416, -0.126480, 0.070083, -0.087601, 0.153735, 0.221629, -0.064536, 0.126531, 0.143798, 0.020737, -0.132812, 0.058157, -0.186772, -0.096457, -0.049596, 0.159228, 0.191606, 0.022644, -0.061779, -0.045057, -0.187799, 0.042519, -0.196598, 0.155065, -0.193555, 0.303500, -0.010507, 0.052774, 0.046783, 0.038489, 0.107735, 0.138980, 0.004432, -0.049463, -0.021959, -0.279322, -0.083385, 0.039719, 0.230904, -0.054126, -0.096110, -0.251789, 0.019111, 0.007632, 0.000325, 0.079812, 0.035338, -0.142856, 0.035917, -0.032785, -0.266621, 0.104178, -0.062365, -0.029100, -0.008876, 0.022917, -0.304520, -0.051091, -0.148455, -0.157764, 0.044391, -0.088835, 0.153023, -0.218508, -0.158719, -0.197367, 0.025960, -0.153660, -0.115252, 0.029902, 0.093376, 0.182613, -0.114282, -0.260999, -0.054188, 0.136586, -0.195127, -0.048325, 0.306264, 0.070408, 0.030941, -0.130569, -0.077377, 0.090873, -0.109376, 0.028641, -0.046252, -0.183485, -0.055681, 0.009160, 0.042184, 0.183692, 0.291231, 0.131683, 0.055295, -0.133416, 0.117231, 0.195207, -0.262215, -0.123169, -0.124163, -0.031646, -0.066358, 0.035399, 0.069698, 0.296969, -0.244584, 0.128401, 0.266477, -0.059807, 0.331311, -0.335625, -0.324540, -0.010970, -0.031624, -0.211432, -0.040524, -0.293288, -0.226363, 0.320025, 0.135792, -0.027752, 0.147476, -0.049291, 0.186181, -0.062264, -0.191252, -0.205367, -0.094009, 0.057615, 0.076906, -0.128875, -0.258954, 0.174757, 0.197846, -0.227219, -0.129200, 0.154799, -0.169320, 0.111751, -0.080571, -0.067827, 0.190529, 0.033564, -0.032067, -0.113655, -0.084278, 0.156634, -0.207743, -0.004772, -0.067437, -0.064904, -0.061594, -0.039790, 0.256596, -0.276273, -0.117166, -0.127004, -0.155334, 0.035313, -0.045720, -0.035157, 0.029899, -0.112356, 0.266975, 0.004183, 0.083413, 0.154165, -0.273803, 0.277980, 0.109814, 0.079244, -0.281268, 0.266906, 0.216519, -0.097921, -0.205124, 0.051439, 0.000163, 0.082987, -0.161670, 0.301426, -0.351659, -0.050012, -0.076499, -0.048869, -0.065921, 0.144944, 0.288787, -0.229338, 0.338877, 0.098069, 0.027354, -0.041239, 0.232685, -0.011542, 0.121896, -0.132847, 0.114567, -0.234070, 0.208264, -0.098941, -0.192901, -0.108397, 0.214437, -0.102921, -0.079368, 0.112287, -0.076472, 0.038898, 0.002808, -0.017299, 0.087089, 0.100203, 0.173090, 0.244926, -0.084162, 0.061472, -0.022994, 0.007198, -0.201556, 0.223641, 0.104369, 0.152531, 0.119297, 0.001650, 0.273766, 0.065583, -0.282664, 0.352497, 0.065869, 0.028721, 0.105170, -0.080439, 0.010793, -0.289632, -0.048040, 0.191154, -0.190728, 0.097134, -0.030792, -0.000471, 0.190387, -0.217399, -0.001341, -0.089524, 0.204694, -0.146846, 0.129010, 0.266743, 0.014012, 0.162162, -0.046745, -0.030405, -0.068845, -0.177158, 0.326921, -0.157356, 0.174681, 0.001643, -0.226620, -0.023964, -0.176096, -0.059323, -0.138818, 0.103096, 0.006420, -0.134686, -0.296918, 0.110124, -0.205569, 0.171048, -0.073296, 0.068822, 0.068553, 0.086672, -0.256479, 0.120684, -0.226631, 0.059068, 0.118243, -0.142449, -0.075891, 0.025086, 0.119932, 0.077104, 0.195253, 0.186698, 0.168670, 0.081014, -0.084947, -0.207542, 0.078810, 0.026161, -0.144546, 0.000600, 0.081937, 0.206296, 0.269827, 0.252382, 0.335255, -0.119464, -0.149646, 0.006807, 0.051147, -0.117084, -0.121451, -0.090080, 0.076276, 0.022006, -0.152894, 0.201560, 0.064603, -0.021678, -0.139398, 0.004074, -0.204863, -0.266251, -0.113593, 0.172424, 0.129422, 0.142554, -0.104010, -0.058820, -0.253229, -0.093459, 0.035650, -0.054215, 0.191921, -0.166877, 0.026980, 0.244885, -0.033557, 0.286480, 0.121563, 0.059598, -0.270776, 0.068181, -0.055007, 0.049456, -0.098627, -0.295825, 0.340264, 0.115187, -0.156818, 0.074957, -0.302350, -0.039337, 0.243980, 0.052134, 0.303064, -0.086495, 0.017491, 0.295946, -0.132918, 0.150774, -0.151101, -0.100379, -0.017530, -0.132748, 0.101383, -0.051223, 0.082537, -0.179713, 0.213411, 0.103168, -0.026856, 0.069256, 0.045929, -0.230823, 0.092183, -0.074579, -0.036423, 0.144316, -0.121972, -0.142209, -0.062266, -0.310560, 0.250177, 0.255688, 0.035754, -0.006522, 0.228281, -0.150361, -0.054448, 0.084949, 0.311480, -0.122031, 0.168308, 0.043926, -0.109376, -0.082596, 0.119318, -0.021211, -0.340033, 0.033742, 0.151032, -0.139717, 0.229453, -0.053223, -0.030136, -0.070781, -0.318537, -0.139075, 0.031649, 0.028992, -0.089146, 0.136096, -0.018867, 0.005976, 0.166978, -0.164752, -0.321179, 0.091237, -0.049943, 0.092806, 0.002255, 0.003666, 0.023747, 0.090625, 0.039620, 0.102795, 0.197166, 0.117192, 0.081275, 0.037726, -0.144772, 0.249822, -0.115877, -0.018242, -0.030373, -0.022198, 0.110597, -0.108234, -0.140781, -0.056351, -0.013193, 0.146826, 0.107117, 0.138467, 0.161980, -0.198605, -0.028461, -0.211433, -0.039508, 0.283030, 0.162140, -0.045242, 0.176727, -0.295183, -0.112900, 0.215763, -0.160930, 0.344469, 0.125714, 0.108384, -0.023209, 0.093103, -0.038732, 0.112663, 0.109478, 0.282257, 0.021205, -0.150641, 0.243465, -0.091781, 0.183875, -0.254637, 0.057946, -0.155373, -0.047844, -0.203416, 0.020539, 0.306728, -0.339806, 0.128999, -0.101490, 0.135502, -0.094254, -0.123312, -0.010498, 0.108750, -0.175264, -0.281816, -0.044930, 0.008138, -0.004272, -0.200238, 0.107460, -0.116569, -0.029564, 0.309926, -0.235718, 0.012282, -0.242150, 0.048289, -0.343509, 0.067607, 0.018483, 0.166469, 0.155117, 0.050037, 0.347427, -0.057309, 0.260159, -0.212391, 0.068911, 0.142114, 0.212896, -0.011813, -0.055521, 0.181775, 0.067189, -0.142892, -0.166095, -0.167378, -0.089254, -0.011383, 0.015893, -0.256621, 0.194196, 0.013018, -0.087453, 0.142483, 0.164958, 0.011264, 0.062051, 0.080150, 0.041191, 0.020959, 0.060868, 0.089084, -0.194629, -0.080553};
#endif

#endif
