//Numpy array shape [32, 32]
//Min -1.404323274334
//Max 1.233729673682
//Number of zeros 0

#ifndef DECODER_EDGE_W0_H_
#define DECODER_EDGE_W0_H_

#ifndef __SYNTHESIS__
ap_fixed<16,6> decoder_edge_w0[1024];
#else
ap_fixed<16,6> decoder_edge_w0[1024] = {0.304678, -0.378127, -0.218951, 0.136001, 0.139561, -0.625177, -0.040620, 0.239559, 0.098067, -0.638419, 0.105722, -0.085862, 0.107261, 0.005867, -0.152152, -0.527728, -0.348454, 0.092518, -0.547098, -0.050403, 0.152468, 0.022012, 0.315883, -0.180914, -0.103186, 0.090283, -0.073255, -0.108424, -0.442136, 0.039061, 0.063311, 0.042389, -0.277202, -0.038772, 0.191076, -0.154412, -0.012191, 0.196371, 0.171098, 0.030251, 0.134883, -0.123476, 0.234041, -0.512797, 0.182540, 0.206947, 0.002178, -0.353135, -0.000825, -0.155602, 0.347128, 0.449947, 0.136175, -0.060513, -0.117261, -0.113897, 0.282048, 0.213686, 0.105657, 0.212926, -0.072543, -0.155897, -0.131591, -0.150833, 0.084377, 0.209476, 0.238132, -0.128922, 0.281286, -0.314610, -0.012117, -0.442685, 0.247989, -0.250881, -0.373083, 0.064590, -0.091011, 0.105621, -0.582907, 0.132620, 0.256166, -0.042130, 0.954283, -0.655243, -0.419539, -0.190410, -0.365587, 0.412250, -0.554984, -0.027295, -0.239025, 0.022149, -0.232324, 0.116947, 0.336894, 0.017004, -0.022788, 0.097589, 0.119783, 0.069480, -0.607140, 0.374893, 0.187011, -0.250391, 0.512899, 0.377400, -0.126987, -0.167595, -0.398060, 0.221442, 0.019797, -0.337720, 0.275636, -0.071257, 1.038053, 0.061221, -0.212704, 0.014504, -0.021076, 0.511635, -0.258600, -0.205412, 0.168792, 0.293138, -0.105292, 0.063236, -0.183405, -0.494011, 0.021691, 0.109550, 0.267264, -0.119803, 0.667463, -0.161637, 0.083040, -0.270124, 0.122982, -0.080686, 0.078001, -0.145094, -0.030219, -0.255679, 0.022819, 0.616469, 0.204327, 0.128402, 1.105401, -0.352007, -0.340990, -0.121335, 0.007397, 0.328690, -0.242409, 0.172487, -0.046422, -0.199607, 0.085429, 0.238938, 0.133080, 0.197572, 0.288034, 0.135121, 0.092294, -1.232569, -0.563117, 0.069197, -0.014909, -0.071016, -0.587617, -0.142422, -0.156291, -0.536640, 0.099855, -0.200562, -0.606441, -0.985260, 0.169840, -0.679434, -0.151546, 0.530790, 0.476070, -0.049076, -0.463769, -0.781065, -1.235432, 0.132369, -0.146418, -0.503370, 0.038957, -0.960587, 0.092214, -0.149177, -0.287338, 0.184783, -0.008192, -0.121518, 0.317534, -0.378308, -0.212529, -0.355788, 0.195925, 0.003670, 0.059963, 0.030938, -0.097830, 0.145748, -0.260847, -0.044568, 0.334611, 0.005285, 0.922290, -0.147495, -0.431297, 0.226996, -0.115836, 0.577836, -0.515014, -0.021644, -0.296676, 0.056718, -0.021545, 0.269303, -0.048304, -0.044722, -1.196380, -1.056180, -0.099431, 0.548734, 0.067906, -0.364341, 0.223631, 0.403708, -0.133426, 0.011364, 0.256221, 0.174907, 0.685683, -0.109014, -0.269172, -0.459825, -0.194714, -0.699893, 0.188368, -0.184333, -0.335157, -0.634690, 0.046708, 0.217225, 0.199842, 0.130144, -0.076806, -0.186580, 0.295471, -0.125838, 0.083392, -0.049915, -0.610917, -0.411602, -0.122967, 0.283324, -0.641988, 0.230560, -0.206531, -1.404323, -0.303545, 0.506528, -0.413248, 0.038390, -0.704892, -0.470483, 0.367446, -0.196644, -0.435445, -0.616673, -0.634991, -0.458665, -0.160774, -0.665635, -0.023270, -0.070462, 0.332481, -0.112773, -0.054582, -0.293648, 0.310647, -0.015148, 0.199597, 0.045542, 0.218823, 0.089673, 0.020403, -0.413386, -0.391959, 0.534765, 0.037450, 0.370632, -0.234493, 0.131903, 0.129308, -0.562198, 0.023012, 0.238327, 0.249255, -0.718655, -0.241869, 0.036079, -0.274116, 0.195892, 0.188713, -0.133462, 0.382936, -0.008149, 0.042026, 0.022499, 0.443971, 0.214408, 0.255259, -0.151196, -0.167570, -0.207867, -0.110366, -0.029590, -0.199337, 0.087231, 0.157714, -0.049473, -0.114295, -0.151801, 0.136214, 0.071893, -0.177094, -0.307990, 0.036463, -0.280233, -0.167429, 0.067435, -0.079345, -0.341005, 0.161005, 0.056278, -0.337423, -0.039151, -0.173908, -0.103910, 0.010242, 0.019584, -0.002299, 0.015950, 0.091787, -0.166779, -0.004365, 0.158507, 0.345413, 0.259181, 0.149367, 0.098778, -0.440616, 0.263689, -0.053483, -0.126810, 0.021684, 0.327770, 0.271148, -0.077298, 0.067222, -0.159474, 0.373392, -0.450357, -0.290319, -0.260833, -0.456546, 0.116125, 0.045742, 0.191615, 0.216153, 0.014336, 0.159738, 0.347208, 0.157733, 0.164520, 0.275023, -0.433700, -0.227992, -0.398238, -0.056468, -0.152151, -0.118398, -0.039193, -0.188072, -0.013673, -0.137273, -0.048287, 0.049365, 0.145371, -0.238786, -0.002087, 0.272498, 0.015087, 0.046103, 0.114634, -0.028640, -0.021200, -0.106718, -0.258833, 0.100568, -0.289222, -0.075936, 0.277401, -0.233321, -0.049277, -0.014854, 0.209283, -0.066398, 0.015844, -0.237169, -0.157893, -0.242343, 0.137649, -0.156592, -0.182599, 0.809400, -0.120291, -0.138891, -0.076420, -0.111717, -0.125569, -0.073791, -0.186494, -0.004495, 0.247365, -0.162843, 0.192201, 0.173181, 0.006330, 0.445668, -0.319001, -0.458110, 0.151298, 0.304039, 0.126460, -0.629110, -0.071454, -0.164598, -0.260213, 0.047310, -0.001456, 0.008932, 0.419626, 0.046174, 0.269002, 0.009329, -0.185148, -0.263933, 0.479895, 0.163246, 0.012422, 0.097852, 0.008890, 0.165808, -0.478194, -0.226606, 0.078545, 0.008989, -0.536410, 0.063013, 0.036757, -0.081533, 0.340992, -0.051453, -0.051459, 0.248369, -0.349475, 0.386122, -0.048810, 0.256619, 0.295164, 0.418587, -0.220692, -0.314835, -0.358796, 0.161265, 0.048031, -0.119775, -0.070263, 0.103193, -0.194730, -0.160681, -0.004863, 0.050188, 0.116651, 0.041721, -0.267957, -0.002294, -0.194848, -0.081085, -0.144531, 0.137496, -0.006792, -0.006078, 0.023234, 0.050935, -0.228406, -0.032435, 0.002757, -0.063173, -0.096932, 0.093103, 0.101970, 0.037323, 0.089096, -0.225275, 0.096530, -0.056569, -0.067197, 0.211020, -0.520450, -0.188325, 0.198430, 0.232039, 0.039110, 0.030250, -0.060672, 0.142736, -0.137735, 0.237803, -0.009093, 0.214531, -0.738340, -0.351042, -0.375016, 0.149570, 0.250001, -0.005587, 0.232720, 0.175955, 0.110315, 0.012840, 0.249460, 0.030261, 0.205851, -0.082244, 0.072346, -0.570177, -0.145286, 0.157216, -0.239784, -0.055940, 0.008245, 0.083819, 0.039572, -0.110946, -0.136936, 0.170833, -0.067003, -0.176616, -0.044304, 0.319795, -0.129435, -0.165369, -0.045343, 0.088176, -0.273481, -0.068975, 0.153290, -0.224358, 0.088828, -0.045234, -0.183751, -0.113441, 0.086389, 0.028747, -0.017161, -0.041657, 0.011313, -0.243518, -0.078787, -0.178174, -0.463128, -0.216363, 0.175754, -0.599811, -0.205553, 0.237364, -0.261521, -0.240174, -0.174500, -0.112180, 0.105897, -0.376315, -0.082760, 0.169247, -0.268517, 0.111819, -0.326268, -0.420078, -0.470877, -0.253186, 0.168066, -0.550066, 0.001556, 0.174695, -0.181225, 0.090578, -0.026831, 0.052769, 0.181970, 0.158495, -0.238039, 0.275508, -0.118157, -0.188344, -0.109957, -0.639178, -0.404134, -0.044413, 0.327046, 0.219493, -0.501485, -0.585851, 0.098975, -0.543779, -0.200551, -0.626700, 0.189277, -0.172717, 0.307699, -0.789801, -0.342272, -0.229195, 0.163220, -0.610948, -0.419305, -0.291955, 0.009256, -0.272142, -0.775029, -0.114724, -0.135416, 0.024035, 0.214401, -0.027135, 0.222752, 0.018218, -0.490542, 0.258065, 0.458423, 0.141002, -0.037123, -0.040547, 0.140398, -0.019179, 0.155674, 0.168874, -0.407680, -0.324462, -0.374876, -0.363018, -0.167196, 0.308314, 0.230699, 0.204129, 0.068120, 0.143643, -0.156295, -1.325745, -0.114734, -0.287211, -0.034503, -0.397912, -0.046203, -0.201912, -1.050134, 0.006470, 0.300168, -0.064579, 0.093090, 0.421984, -0.297280, 0.107998, -0.465398, 0.000704, 0.006521, -0.006480, 0.231682, 0.136410, 0.238089, -0.082089, 0.219770, 0.473013, -0.073326, 0.965123, -0.185514, -0.559440, 0.105700, -0.171862, 0.333465, -0.575428, 0.133315, -0.265988, -0.271295, -0.231080, -0.036365, -0.201893, 0.034185, 0.352770, -0.067701, 0.226462, -0.676777, -0.306292, 0.574666, 0.073472, 0.187853, 0.030983, 0.097561, -0.117553, 0.011134, 0.209752, 0.172383, 0.244023, -0.707031, -0.478691, -0.280449, -0.227094, 0.271753, 0.109781, 0.122709, -0.038736, -0.087436, -0.077532, -0.156055, -0.032390, 0.064410, 0.038578, -0.443998, -0.335754, -0.217197, -0.130561, 0.250919, 0.011826, -0.589163, -0.450881, 0.372991, 0.142201, 0.011173, 0.259529, 0.097153, 0.360075, -0.247595, 0.213378, 0.291130, -0.063407, -0.482929, -0.317137, -0.160207, -0.154037, 0.384040, -0.093345, 0.030583, 0.275055, -0.160491, 0.155913, 0.199166, 0.148316, 0.256251, 0.063247, -0.609969, -0.315886, -0.168210, -0.134897, 0.113059, 0.123964, -0.264300, -0.561214, 0.721754, -0.000288, 0.182883, 0.399670, 0.268417, 0.183356, -0.017407, -0.011651, 0.085877, 0.213066, -0.582704, -0.426059, -0.182388, -0.155516, 0.386893, -0.186941, -0.222754, -0.061445, 0.057614, 0.178169, 0.014846, 0.186818, 0.205849, 0.163711, -0.244706, -0.392112, -0.141280, -0.134871, 0.043310, 0.123431, -0.229585, 0.036139, -0.162698, -0.248696, -0.696506, 0.047203, 0.085298, 0.210933, -0.185220, -0.186360, 0.142051, -0.189533, 0.073963, 0.286406, 0.087379, 1.233730, -0.296082, -0.456111, 0.299990, -0.334860, 0.350229, -0.701905, 0.239243, -0.495987, 0.139064, -0.503644, 0.166076, 0.126163, -0.344091, 0.077972, -0.198549, -0.034520, -0.133562, 0.210062, 0.391223, 0.102109, 0.133597, -0.226976, 0.310630, 0.241733, -0.600233, 0.298729, -0.154097, 0.445773, 0.295074, -0.056500, -0.224199, 0.231716, -0.012221, 0.197598, 0.300356, 0.187438, -0.046648, 0.423441, 0.128248, 0.603217, 0.290799, -0.060828, -0.076469, -0.389162, 0.049317, -0.043418, -0.149966, -0.136386, -0.159345, -0.469753, 0.038864, -0.564270, -0.564638, -0.194474, 0.273418, -0.240591, -0.059721, 0.185381, 0.066853, 0.571888, -0.598858, 0.118163, -0.208826, -0.583768, 0.438199, -0.710246, -0.302920, 0.151276, 0.209066, 0.523734, 0.018509, -0.080497, -0.237577, -0.051809, -0.075994, -0.012635, -0.246959, 0.254713, 0.151701, -0.123285, -0.253336, -0.587934, 0.564776, 0.092505, 0.400315, 0.265064, -0.277762, -0.128905, -0.245316, -0.172677, -0.066031, 0.208941, -0.346977, -0.290680, -0.105141, -0.207217, 0.174602, 0.282570, 0.265171, 0.101253, -0.057445, 0.344662, 0.251412, 0.033059, 0.079455, 0.309007, 0.194562, -0.246735, -0.041781, 0.053017, -0.084933, 0.168719, -0.445034, -0.432095, 0.443960, -0.103908, -0.250445, 0.046031, 0.137093, 0.046973, -0.074284, -0.113806, -0.209292, 0.312104, -0.898747, 0.157378, -0.082456, 0.165938, 0.200394, -0.140233, 0.163794, 0.071537, 0.112480, -0.118834, 0.101169, 0.128856, 0.302159, 0.083095, -0.251776, -0.443771, -0.388233, 0.153927, 0.301328, -0.004708, -0.450327, -0.255133, 0.520966, 0.306215, 0.107409, -0.217021, -0.093102, 0.167948, -0.428541, 0.206811, 0.137531, 0.072498, -0.661464, -0.284795, -0.201719, 0.068994, 0.366877, 0.384362, -0.069337, 0.142809, 0.169223, 0.274854, -0.291445, 0.104929, 0.156351, 0.171021, -0.125315, -0.495076, -0.076141, -0.108359, -0.042785, 0.166769, 0.046783, -0.524641, 0.267879, -0.451431, -1.097322, 0.195742, 0.111767, -0.500142, 0.167785, -0.776329, -0.196078, 0.074397, 0.056571, 0.192495, -1.092428, -0.922840, -0.552854, 0.147757, -0.372515, 0.454860, 0.044222, 0.268006, -0.225689, -0.304919, -0.097695, 0.161276, -0.090792, -0.106974, -1.131211};
#endif

#endif
