//Numpy array shape [32, 3]
//Min -1.069522260693
//Max 1.030320975084
//Number of zeros 0

#ifndef ENCODER_NODE_W0_H_
#define ENCODER_NODE_W0_H_

#ifndef __SYNTHESIS__
ap_fixed<16,6> encoder_node_w0[96];
#else
ap_fixed<16,6> encoder_node_w0[96] = {1.030321, -0.071056, 0.090114, 0.773144, -0.082665, 0.999597, -0.841680, -0.605888, 0.290858, -0.610247, -0.541446, -0.831535, 0.204429, -0.786325, -0.625200, -0.042731, -1.029008, 0.318925, 0.210789, -0.647179, 0.615946, 0.095877, -0.522882, -0.158039, -0.027936, 0.591761, -0.304508, 0.606662, 0.435683, -0.864348, -0.109330, 0.018481, 0.839300, -0.530479, 0.752983, 0.182001, 0.130472, -0.033342, -1.036888, -0.530325, 0.642163, 0.327444, 0.698146, 0.595588, 1.027181, 0.967730, -0.425657, -0.941550, -0.845329, -0.080182, -0.657551, 0.045807, 0.130918, -0.820931, 0.334388, -0.640494, -0.938512, 0.022696, 0.175907, 0.407462, -0.596273, -0.647601, -0.985696, -0.383822, -0.012894, -0.114248, -0.762381, -0.910110, 0.014765, -0.243063, -0.988147, 0.724468, 0.073993, 0.726241, -0.084044, 0.472185, -0.587583, -0.333509, 0.589054, -0.186278, 0.111821, -1.069522, -0.149703, 0.551929, -0.064496, 0.316770, -0.211243, 0.114191, 0.529707, 0.691722, 0.310049, -0.368321, 0.102239, 0.337074, -0.321388, 0.160905};
#endif

#endif
