//Numpy array shape [4, 32]
//Min -0.947371589820
//Max 0.968831006335
//Number of zeros 0

#ifndef ENCODER_EDGE_W0_H_
#define ENCODER_EDGE_W0_H_

#ifndef __SYNTHESIS__
ap_fixed<16,6> encoder_edge_w0[128];
#else
ap_fixed<16,6> encoder_edge_w0[128] = {-0.652410, 0.360297, -0.493422, -0.509093, -0.723552, -0.362832, 0.537264, -0.017554, -0.046804, 0.436628, 0.339211, 0.514196, -0.144753, -0.120501, 0.073715, 0.198232, -0.627551, 0.335211, 0.368225, 0.014080, -0.304638, -0.397993, -0.029180, 0.261230, -0.682457, 0.077887, 0.002758, -0.323734, -0.696614, 0.795235, 0.728788, 0.465350, 0.285040, -0.267995, -0.211788, 0.024922, -0.274060, -0.313112, -0.420885, 0.752802, -0.480452, -0.439528, -0.210152, -0.717326, -0.047595, 0.386510, -0.504713, -0.352972, -0.259043, 0.355002, -0.128643, 0.464440, 0.117778, -0.271617, -0.075351, -0.074194, -0.462315, -0.161219, 0.068197, 0.327818, -0.411575, -0.599562, -0.205987, -0.559703, 0.295548, -0.701375, 0.917791, -0.060350, -0.480074, -0.270406, -0.548456, 0.143986, 0.363376, -0.252166, -0.006270, 0.396059, 0.623905, 0.358201, -0.079170, -0.484878, -0.485793, 0.170252, -0.123485, 0.023780, -0.533338, -0.829410, 0.099163, 0.741773, 0.791990, 0.516909, -0.595639, -0.634388, -0.010934, -0.191310, 0.543590, 0.469024, -0.104825, 0.154425, -0.506806, 0.644123, 0.426635, -0.299859, -0.214208, -0.607498, -0.535978, 0.446888, -0.640517, 0.968831, 0.150370, 0.767332, 0.021078, -0.484750, -0.059479, -0.947372, -0.856598, 0.929381, 0.190591, -0.156774, 0.448241, -0.244211, 0.308450, -0.165783, 0.383013, 0.517390, 0.288265, -0.564515, -0.224420, -0.542455};
#endif

#endif
