//Numpy array shape [32, 4]
//Min -2.578791422817
//Max 2.182294429551
//Number of zeros 0

#ifndef ENCODER_EDGE_W0_H_
#define ENCODER_EDGE_W0_H_

#ifndef __SYNTHESIS__
ap_fixed<16,6> encoder_edge_w0[128];
#else
ap_fixed<16,6> encoder_edge_w0[128] = {-0.702256, -1.510617, 0.559834, 0.131844, 0.180874, -1.120039, -0.701430, -0.283427, -0.382274, -0.027874, 0.058951, 0.738302, -1.399255, 0.649762, 0.091161, 0.529684, 0.755710, -0.728739, 1.121741, -0.474374, -0.611331, -0.145358, 0.524356, 0.797392, -0.356515, -1.498023, -1.797007, -0.026498, -0.432026, -1.519891, -1.444066, -0.579657, 0.138365, 0.192086, 1.202716, -0.128553, 1.125244, 0.311198, 0.917372, 0.115302, 0.297535, 0.651153, -1.817351, 0.627882, -0.101579, -2.094828, -0.753060, -0.141635, -0.900205, -2.427136, -0.539284, 0.048383, 0.923753, -0.948144, 0.061560, 0.436780, -0.315564, -0.311257, 1.047822, 0.731038, 0.916821, 0.584966, 0.143630, -0.658245, -0.479514, -0.944739, 1.079219, 0.613532, 0.832836, 0.656435, 0.268891, 0.267803, 0.020879, 0.819714, -1.383503, 0.743358, -0.323194, 1.648242, -0.946030, -0.833930, 0.945204, 1.562486, 1.088907, -0.005843, -0.075189, -1.097214, -1.262518, -0.164969, 1.169604, 0.512039, 1.232539, -0.168100, 0.115190, -1.318089, 0.690406, -0.862533, 0.353998, 2.182294, -1.430855, -0.153732, -0.567194, -2.578791, 0.889985, -0.009746, 0.582804, 1.439505, -1.317713, 0.460970, -1.155707, -2.405481, 0.746735, 0.063387, 0.020549, 1.198759, -0.167025, 0.645275, -0.251609, 0.129745, -1.061593, -0.528691, -0.756951, 0.822031, -1.224546, -0.060203, -1.485072, -0.996092, 1.250330, -0.027451};
#endif

#endif
