//Numpy array shape [4, 32]
//Min -2.578791422817
//Max 2.182294429551
//Number of zeros 0

#ifndef ENCODER_EDGE_W0_H_
#define ENCODER_EDGE_W0_H_

#ifndef __SYNTHESIS__
ap_fixed<16,6> encoder_edge_w0[128];
#else
ap_fixed<16,6> encoder_edge_w0[128] = {-0.702256, 0.180874, -0.382274, -1.399255, 0.755710, -0.611331, -0.356515, -0.432026, 0.138365, 1.125244, 0.297535, -0.101579, -0.900205, 0.923753, -0.315564, 0.916821, -0.479514, 0.832836, 0.020879, -0.323194, 0.945204, -0.075189, 1.169604, 0.115190, 0.353998, -0.567194, 0.582804, -1.155707, 0.020549, -0.251609, -0.756951, -1.485072, -1.510617, -1.120039, -0.027874, 0.649762, -0.728739, -0.145358, -1.498023, -1.519891, 0.192086, 0.311198, 0.651153, -2.094828, -2.427136, -0.948144, -0.311257, 0.584966, -0.944739, 0.656435, 0.819714, 1.648242, 1.562486, -1.097214, 0.512039, -1.318089, 2.182294, -2.578791, 1.439505, -2.405481, 1.198759, 0.129745, 0.822031, -0.996092, 0.559834, -0.701430, 0.058951, 0.091161, 1.121741, 0.524356, -1.797007, -1.444066, 1.202716, 0.917372, -1.817351, -0.753060, -0.539284, 0.061560, 1.047822, 0.143630, 1.079219, 0.268891, -1.383503, -0.946030, 1.088907, -1.262518, 1.232539, 0.690406, -1.430855, 0.889985, -1.317713, 0.746735, -0.167025, -1.061593, -1.224546, 1.250330, 0.131844, -0.283427, 0.738302, 0.529684, -0.474374, 0.797392, -0.026498, -0.579657, -0.128553, 0.115302, 0.627882, -0.141635, 0.048383, 0.436780, 0.731038, -0.658245, 0.613532, 0.267803, 0.743358, -0.833930, -0.005843, -0.164969, -0.168100, -0.862533, -0.153732, -0.009746, 0.460970, 0.063387, 0.645275, -0.528691, -0.060203, -0.027451};
#endif

#endif
