//Numpy array shape [32, 32]
//Min -0.351254358335
//Max 0.353465721910
//Number of zeros 0

#ifndef ENCODER_NODE_W1_H_
#define ENCODER_NODE_W1_H_

#ifndef __SYNTHESIS__
ap_fixed<16,6> encoder_node_w1[1024];
#else
ap_fixed<16,6> encoder_node_w1[1024] = {-0.064991, 0.178001, 0.188394, -0.180815, -0.045691, -0.021992, -0.071191, -0.291459, -0.109578, 0.036267, 0.170395, -0.236428, 0.133857, 0.038339, 0.227608, 0.147294, 0.244607, 0.244235, -0.303151, -0.144219, 0.098762, 0.086771, 0.240015, -0.100525, -0.096360, 0.043336, -0.210644, 0.216792, 0.016726, 0.046843, -0.127300, 0.115218, 0.004718, -0.029558, 0.148694, 0.349056, 0.099858, -0.304755, 0.018542, 0.153586, -0.078771, -0.206838, -0.295238, -0.269871, 0.070426, 0.036357, 0.096453, -0.005530, -0.052508, -0.170608, 0.134484, -0.215404, -0.305885, 0.257356, 0.151554, 0.032199, -0.048004, 0.062861, -0.021772, -0.037230, -0.028394, 0.008128, 0.075337, -0.254716, -0.064818, -0.231513, 0.006203, -0.073626, -0.337906, -0.263567, 0.313505, -0.074189, 0.075837, 0.020384, -0.267088, -0.091176, 0.040993, -0.100045, 0.123886, -0.152838, -0.262639, -0.001604, 0.275570, -0.058474, 0.037503, -0.285177, 0.234121, -0.310038, 0.197313, -0.307572, 0.164613, 0.075768, -0.160398, -0.041087, -0.043810, -0.176913, 0.154933, -0.005805, 0.042525, 0.053728, 0.194497, -0.029386, -0.236606, -0.179988, 0.200431, 0.249014, 0.350777, 0.036281, -0.075335, 0.061545, -0.152575, -0.016050, 0.256668, -0.058626, -0.122527, 0.011664, -0.256435, 0.053102, -0.088507, -0.103933, -0.267141, -0.246212, 0.128952, -0.080786, -0.095158, 0.006107, 0.154425, 0.166960, 0.088364, 0.036872, -0.012066, -0.318085, -0.047963, 0.022679, -0.076471, 0.270560, -0.113800, 0.085119, 0.091632, -0.172727, -0.139683, -0.149546, 0.021963, 0.139979, -0.036456, 0.278289, 0.014303, -0.064809, -0.169514, 0.000963, -0.221896, 0.009096, -0.322528, 0.137106, -0.018482, 0.009681, -0.055839, 0.037281, -0.057019, -0.012954, 0.059882, -0.221159, -0.213881, 0.087367, -0.040190, -0.116126, -0.296894, 0.111332, -0.068247, 0.025070, -0.105143, 0.109086, 0.269135, 0.154314, -0.270936, -0.250828, -0.065588, 0.167408, 0.227232, 0.046964, -0.236532, -0.016058, 0.024957, 0.033406, 0.049198, -0.011702, -0.187718, 0.167617, 0.197784, 0.053624, 0.105609, -0.076380, 0.024350, 0.323963, -0.186102, -0.115111, 0.077946, -0.124047, -0.089988, -0.314327, -0.103347, 0.030605, -0.119057, 0.318014, 0.104539, -0.089815, 0.180350, 0.020951, -0.275446, 0.035089, -0.183501, 0.077807, -0.118922, -0.148825, 0.066040, 0.044819, 0.246653, 0.158248, -0.065375, -0.048929, 0.184527, -0.059266, 0.114496, -0.051437, 0.085236, 0.178392, 0.079366, 0.027096, 0.095912, 0.186458, 0.187196, -0.122467, -0.003687, -0.016585, 0.117681, 0.256363, -0.066018, 0.116041, -0.205323, 0.021669, 0.031810, -0.011392, 0.027296, 0.035814, 0.105671, 0.196362, -0.164076, 0.122676, -0.031457, 0.222232, -0.322510, -0.113404, 0.276610, 0.133866, 0.095758, 0.216314, -0.192897, -0.073254, -0.206116, 0.307204, 0.125574, -0.222669, 0.280844, 0.272478, -0.081512, 0.074069, -0.200624, -0.103338, 0.179049, -0.063614, -0.328615, -0.286373, 0.324184, -0.064066, -0.342307, 0.174317, 0.137884, -0.239999, 0.090061, -0.277575, -0.100441, 0.122029, -0.002315, -0.036639, 0.039291, -0.005404, 0.159777, -0.260310, -0.022681, 0.121279, -0.139947, 0.141386, -0.080045, 0.043902, -0.107343, 0.120159, 0.116463, 0.062921, 0.058231, -0.076342, 0.091907, -0.164030, -0.162518, 0.016467, -0.168481, 0.176456, 0.098214, -0.095943, -0.171232, -0.122917, -0.224458, 0.124367, 0.010691, -0.266623, 0.087191, 0.105321, -0.023026, -0.067570, -0.051450, 0.156565, 0.034932, -0.185119, 0.167584, -0.258499, -0.238362, 0.092424, 0.059997, -0.189783, 0.152937, 0.329479, -0.246503, 0.039539, 0.095679, 0.031210, 0.034022, -0.095092, 0.049275, 0.072895, -0.162844, -0.251462, 0.134744, 0.045049, -0.124864, -0.250480, 0.095763, 0.174191, 0.337698, 0.205029, -0.214247, -0.218853, -0.027876, -0.032069, 0.065486, -0.013247, 0.111260, -0.154439, -0.039223, 0.019625, -0.022011, 0.052616, 0.072116, 0.043261, 0.125384, -0.092934, 0.252756, 0.119260, -0.181593, -0.070481, 0.138748, 0.132322, 0.027990, 0.026368, -0.160545, 0.115386, -0.173611, 0.064167, -0.146354, 0.063700, -0.051588, 0.256869, -0.188497, 0.307535, -0.082898, -0.259534, -0.079578, 0.247242, -0.326444, -0.330233, -0.149019, 0.044004, -0.056568, 0.071777, -0.212434, 0.070842, -0.117606, -0.121200, -0.258854, -0.131218, 0.055578, -0.201815, -0.078053, -0.214753, 0.091613, -0.108330, 0.231293, -0.104588, 0.044497, -0.086005, -0.090123, -0.189741, 0.041802, 0.137301, 0.132954, -0.096893, -0.112563, -0.186917, 0.063165, -0.121052, 0.057149, -0.301069, 0.295899, 0.007674, 0.206238, -0.176171, -0.112731, -0.116925, 0.272531, -0.050701, 0.282498, -0.103937, 0.025035, 0.087669, 0.164707, 0.145780, -0.317064, -0.148378, -0.257804, 0.300738, 0.253066, 0.331323, 0.161573, -0.047516, -0.005063, -0.027255, -0.051614, -0.314487, -0.235984, -0.296864, -0.208651, 0.312500, -0.035657, -0.030488, -0.131177, -0.129972, -0.202429, 0.227133, -0.093109, 0.168817, -0.248549, -0.099251, -0.010393, -0.007697, 0.118184, 0.059505, -0.131473, -0.099430, 0.141687, -0.192730, -0.144116, 0.124525, 0.232416, 0.068505, 0.068133, 0.012591, 0.182143, 0.181628, -0.088754, 0.007887, -0.103689, -0.224947, 0.076337, 0.008947, -0.035842, -0.000580, -0.023694, 0.233238, 0.128659, -0.175709, 0.041022, 0.117843, 0.105983, 0.021240, -0.146804, -0.158298, -0.063115, 0.179956, 0.179809, -0.309723, 0.105568, -0.089824, 0.184992, -0.206160, -0.087470, 0.035867, -0.079651, -0.040681, 0.162722, -0.021501, -0.009241, 0.085888, -0.240112, 0.181461, 0.033304, -0.090169, 0.220125, 0.135487, 0.114366, 0.066768, -0.201876, 0.041709, 0.093995, -0.300185, -0.097284, 0.139783, 0.219005, -0.102990, -0.351254, -0.052369, -0.131664, 0.194765, -0.207854, -0.097900, 0.147462, -0.249791, 0.160299, 0.167900, -0.022174, -0.085021, 0.016340, 0.093006, -0.062149, -0.153964, 0.330678, 0.047410, 0.076621, -0.025990, 0.078956, -0.044020, -0.064108, -0.013203, 0.090124, 0.032956, -0.057647, -0.099289, 0.058171, 0.212949, -0.235720, -0.272586, -0.096500, 0.122399, -0.061026, -0.239320, -0.261663, 0.139251, 0.156088, 0.035975, 0.152790, -0.083962, -0.073858, -0.039506, -0.054087, 0.121334, -0.244167, 0.086978, 0.117993, -0.146011, -0.022860, 0.133108, 0.018490, 0.078946, -0.057588, -0.170206, -0.127736, -0.020759, -0.058182, 0.208082, 0.134469, -0.053912, 0.018135, 0.099888, -0.043305, 0.328049, 0.066370, -0.086195, 0.021374, -0.313066, -0.003778, -0.004017, -0.108449, -0.268811, 0.093676, 0.234880, 0.053899, -0.127488, 0.273182, 0.318644, -0.254831, 0.086927, -0.031790, 0.041957, -0.038524, 0.173711, -0.094680, 0.036525, -0.014116, 0.009903, 0.198568, 0.239024, 0.068435, 0.073085, 0.036038, -0.079764, 0.158655, 0.193628, -0.232872, 0.198409, -0.104264, 0.062535, -0.057621, 0.189596, 0.029557, -0.093784, -0.156951, 0.051387, 0.308822, 0.154980, -0.100795, 0.078037, -0.269196, -0.039515, -0.193085, 0.088575, 0.002282, 0.029279, 0.152596, -0.210550, 0.100239, -0.023100, -0.020999, 0.087502, -0.222351, 0.246781, 0.205266, -0.068871, -0.018062, -0.046962, 0.057695, -0.097007, -0.206479, -0.096635, 0.052698, -0.151501, 0.014497, -0.088573, 0.065136, -0.033284, 0.072287, -0.091290, 0.134836, -0.214311, 0.241702, 0.129702, -0.073493, -0.172083, -0.016722, 0.024419, -0.089081, -0.242969, -0.170916, 0.029061, -0.003565, 0.155869, -0.002120, 0.188910, -0.289400, 0.078900, -0.054363, 0.033425, 0.084899, -0.024860, -0.238406, 0.077493, -0.082824, -0.234096, -0.278187, -0.010202, 0.330073, 0.036212, -0.101892, 0.199754, 0.060764, -0.131514, 0.315098, 0.168059, 0.021592, -0.009505, 0.330683, -0.298229, -0.097990, -0.027627, -0.075378, 0.353466, 0.122190, -0.256190, -0.108492, -0.304367, 0.099293, -0.222758, 0.148166, 0.086455, -0.157851, 0.028542, -0.235384, -0.011499, -0.219511, -0.006979, -0.333440, 0.012460, 0.099817, 0.265079, -0.081912, -0.080357, -0.250136, -0.301895, 0.213706, -0.161303, 0.077036, 0.238091, 0.059712, -0.086204, 0.140194, 0.037163, -0.314929, -0.114218, -0.025883, -0.017742, 0.194342, 0.012118, 0.041892, -0.005982, -0.177943, -0.174786, -0.010369, -0.139292, 0.048677, 0.294673, 0.192215, 0.252488, -0.054354, -0.033165, 0.054936, -0.086852, -0.143947, -0.128585, 0.056637, 0.052866, -0.017839, -0.082174, 0.035021, 0.171813, 0.123978, -0.262334, 0.063270, -0.015669, -0.083785, -0.041066, 0.301494, 0.084084, -0.186465, 0.189200, 0.221997, -0.145740, -0.178636, -0.299072, 0.059743, -0.109098, -0.021926, 0.137813, -0.019197, 0.327611, -0.110276, -0.016119, -0.003191, -0.296606, 0.005816, 0.072318, 0.222260, -0.196978, 0.049033, 0.167375, 0.271900, -0.147558, 0.136708, 0.339791, 0.270580, -0.229077, -0.142478, -0.034207, -0.009433, -0.292688, 0.240846, -0.074291, 0.133310, 0.245050, 0.121344, -0.051298, 0.302761, -0.142440, -0.267540, -0.050933, -0.091517, 0.214041, -0.124833, 0.021741, -0.227184, -0.168925, -0.102943, -0.053031, -0.075286, 0.039600, -0.170511, -0.003672, 0.053471, -0.099133, -0.149480, 0.349291, 0.309260, -0.145837, 0.200482, 0.126976, 0.014415, -0.241666, -0.006990, 0.092892, 0.263058, -0.088516, -0.117926, -0.023138, 0.116132, 0.078422, -0.073879, 0.113910, 0.008420, 0.085129, -0.007678, 0.125964, -0.027953, -0.132301, -0.172719, 0.245952, -0.246262, -0.055869, 0.177492, -0.180965, -0.075271, -0.132000, 0.001334, -0.171944, 0.223913, 0.065542, 0.065683, -0.147382, 0.116427, 0.053585, 0.126851, 0.048055, 0.084922, -0.109176, -0.032298, -0.114761, 0.086432, -0.068550, -0.012870, 0.124653, -0.151321, -0.091067, -0.169078, 0.283409, 0.016711, -0.015288, 0.278156, -0.061435, 0.086362, -0.038116, 0.209158, -0.078609, 0.176240, -0.154055, -0.096115, 0.048386, -0.105974, -0.192553, 0.027668, 0.165712, 0.196708, 0.047807, -0.115447, 0.184195, 0.215209, -0.217336, -0.255689, -0.038983, -0.066574, -0.089132, 0.202513, -0.057788, 0.066742, -0.001446, -0.189947, -0.075420, -0.031050, -0.176765, -0.308410, -0.168194, -0.097016, -0.041863, 0.062122, 0.214745, -0.090143, -0.316462, 0.122991, -0.147560, -0.013874, 0.070299, -0.015141, 0.017450, 0.101046, -0.017677, 0.163037, -0.228843, 0.176161, -0.334089, 0.129874, 0.179111, -0.114776, -0.062486, 0.185759, 0.056111, 0.085245, -0.023989, -0.094213, 0.216481, -0.048360, -0.255679, -0.123956, -0.241728, -0.294736, 0.204509, 0.103210, 0.027417, -0.199900, 0.017722, 0.040719, -0.076531, 0.229859, 0.013603, 0.096403, -0.146502, 0.215173, -0.334068, 0.229037, -0.085393, 0.025920, -0.192748, -0.035571, -0.084991, 0.094389, -0.052976, 0.252660, -0.037575, 0.079481, -0.139908, 0.278590, 0.080477, -0.120980, 0.182997, 0.040856, -0.195199, 0.140700, 0.088255, 0.126075, 0.303782, 0.168501, 0.141446, -0.032641, 0.026568, 0.141945, 0.281453, 0.036928, -0.065688, -0.260262, 0.081555, 0.123057, -0.018797, -0.184748, -0.036162, -0.284067, 0.003104, 0.188036, 0.050227, 0.190854, 0.339048, 0.065994, 0.017853, -0.203742, -0.209943, 0.015587, 0.003503, -0.043013, 0.317438, -0.181667, 0.082522, 0.171302, 0.116921};
#endif

#endif
