//Numpy array shape [32, 32]
//Min -1.324505544382
//Max 1.251653271262
//Number of zeros 0

#ifndef ENCODER_EDGE_W1_H_
#define ENCODER_EDGE_W1_H_

#ifndef __SYNTHESIS__
ap_fixed<16,6> encoder_edge_w1[1024];
#else
ap_fixed<16,6> encoder_edge_w1[1024] = {-0.135841, -0.174231, 0.028419, -0.537326, -0.002399, 0.034465, 0.509897, 0.111509, -0.375970, -0.076405, 0.179685, 0.231738, -0.008458, 0.399521, -0.112080, -0.175526, -0.136639, 0.303704, -0.115092, -0.130090, 0.004798, -0.047288, 0.015256, -0.025309, 0.164111, 0.080796, 0.326498, -0.101261, 0.119591, 0.112458, 0.102235, 0.098669, 0.018300, 0.400742, -0.168700, -0.099707, -0.068851, -0.342894, 0.556997, 0.396314, -0.422985, 0.150903, 0.229269, 0.071956, -0.282496, -0.327384, -0.044011, -0.028107, -0.221432, -0.050463, -0.027438, 0.091268, -0.562155, 0.387870, -0.398446, 0.076682, 0.428308, 0.002565, 0.289663, -0.134865, -0.000703, 0.143290, 0.060189, -0.237490, -0.205447, -0.039133, 0.214470, -0.069702, 0.026930, -0.232512, 0.657956, 0.134599, -0.490729, -0.416415, 0.130658, 0.173995, 0.220180, -0.059329, 0.069543, -0.112358, -0.055767, -0.046368, 0.199461, 0.045155, -0.597921, 0.125871, -0.440711, 0.020440, 0.200568, -0.072386, -0.097045, -0.216676, 0.193026, 0.041610, 0.040766, -1.314693, -0.054485, 0.362332, 0.164038, -0.002019, -0.201850, 0.183203, -0.138088, 0.095142, 0.325891, -0.234662, -0.350621, 0.480274, 0.531207, 0.156283, -0.021447, -0.431255, 0.238677, -0.460101, -0.123185, -0.377189, 0.090115, 0.348357, -0.114807, 0.076067, -0.417362, 0.256547, -0.242220, 0.138325, 0.112401, -0.123996, 0.129020, 0.547787, 0.163584, 0.299158, -0.150873, 0.020930, -0.167336, 0.083786, -0.282512, 0.035307, -0.215022, 0.036864, 0.177309, 0.005061, 0.033405, 0.016752, -0.285972, -0.090677, 0.062775, -0.324350, -0.207454, 0.127301, 0.075468, -0.157053, -0.048343, -0.333379, 0.096317, -0.205258, 0.308075, -0.250488, 0.105705, 0.028897, -0.152559, 0.022019, 0.089041, -0.433896, 0.227884, -0.248671, 0.013284, -0.179285, -0.725461, -0.240409, 0.434967, 0.147701, -0.055311, -0.255830, -0.499082, 0.346343, 0.021852, 0.014353, -0.119850, 0.155694, 0.038757, -0.014143, 0.140012, -0.325626, 0.469448, 0.225591, 0.240375, -0.323985, 0.257259, -0.560977, -0.014413, 0.002652, -0.222994, 0.121082, -0.178422, 0.373399, 0.010382, 0.351641, -0.343534, -0.069307, 0.347178, 0.270282, 0.200338, -0.342241, 0.224544, -0.032627, 0.016536, 0.267368, -0.042490, 0.426895, -0.289814, 0.092153, 0.153949, 0.319770, -0.758190, 0.151040, -0.073166, -0.010318, 0.461044, -0.164482, 0.094102, 0.066599, -0.062771, 0.153450, 0.074833, -0.855916, -0.286007, 0.050066, -0.181233, 0.091892, -0.183417, 0.223830, 0.345733, -0.101220, -0.236995, 0.032226, 0.253517, -0.111395, 0.158778, -0.354092, -0.051542, 0.254884, -0.200330, -0.327738, -0.113676, 0.375861, -0.860698, -0.013252, 0.005788, -0.022698, -0.038637, 0.099364, 0.147011, -0.227318, 0.205956, 0.351202, -0.082770, -1.046221, 0.472758, 0.897117, -0.345582, 0.223198, -0.041524, 0.223338, 0.061932, -0.473723, 0.567094, -0.063690, 0.043577, 0.025781, -0.049317, -0.371737, 0.147742, -0.556355, 0.256480, 0.060146, -0.153338, -1.287345, 0.185819, -0.075791, 0.309502, -0.130567, -0.341038, 0.270384, 0.362110, 0.157701, 0.186262, -0.190723, -0.633237, 0.323772, 0.123887, -0.014258, 0.318140, -0.136136, 0.137406, -0.302571, -0.082332, -0.174087, -0.251504, -0.156681, 0.015241, -0.049798, 0.024101, -0.249791, -0.120843, -0.132069, -0.215479, 0.050515, -0.098444, 0.073080, 0.099896, 0.229170, 0.017245, -0.150285, -0.143665, -0.131898, -0.017180, -0.162657, 0.078061, -0.112385, -0.043675, 0.031321, 0.134631, -0.105076, -0.146380, -0.076346, -0.141303, -0.256141, 0.075615, -0.050398, -0.339955, 0.004772, 0.023482, -0.172477, 0.079146, -0.226017, -0.054713, -0.251623, -0.080550, -0.244839, -0.252079, 0.021716, -0.008414, 0.172143, 0.005774, -0.015628, 0.240020, -0.110460, 0.091175, -0.060743, -0.173081, 0.090180, 0.065888, -0.117300, 0.225571, -0.036303, -0.094199, -0.099536, -0.021581, -0.332044, 0.100440, 0.153615, 0.212063, -0.015956, 0.162346, 0.330000, 0.058099, -0.056835, -0.018535, 0.019826, -0.411307, -0.136233, 0.106928, 0.032204, -0.433794, 0.193890, -0.441378, -0.178501, 0.203472, 0.109487, 0.221819, -0.230827, -0.009214, 0.144709, 0.313341, -0.582861, -0.384101, 0.397386, -0.619467, -0.188205, 0.051089, -0.611317, -0.019039, 0.048391, 0.019961, 0.104914, -0.469096, -0.065010, -0.417461, 1.251653, 0.270395, 0.295413, 0.432591, -0.340136, 0.036877, 0.252326, -0.071266, -0.043716, -0.194636, 0.380245, -0.060662, 0.235974, -0.321350, -0.349670, 0.091533, 0.036718, -0.552912, -0.487785, 0.079861, -0.028310, 0.117239, -0.530144, 0.206904, 0.182348, -0.382645, -0.150794, -0.079560, 0.201909, -0.042607, 0.096451, 0.039838, -0.465554, -0.005839, 0.352895, -0.195498, -0.373562, 0.297756, -0.013578, 0.173930, -0.116349, 0.136416, 0.139630, -0.009432, 0.051974, 0.019475, 0.058840, 0.055765, -0.427258, -0.031158, 0.339582, -0.200127, 0.171040, -0.002301, 0.018144, 0.222478, 0.010554, -0.094414, 0.027039, 0.199054, -0.110633, -0.095823, 0.128609, 0.512952, -0.116354, 0.172701, 0.093004, 0.149596, -0.309633, -0.040924, -0.164026, -0.052469, 0.045236, -0.207275, -0.097881, -0.406401, 0.386517, -0.171875, 0.413116, -0.121888, -0.079932, -0.390965, 0.282067, 0.132817, -0.192568, 0.082494, -0.521175, 0.408675, 0.055567, 0.034185, -0.068134, 0.026449, 0.234130, -0.362169, -0.243214, 0.247289, -0.337013, 0.266480, 0.063677, 0.008000, -0.197447, 0.393306, -0.143720, -0.283928, -0.092165, 0.082786, 0.359935, -0.008629, 0.494742, -0.086833, 0.227788, -0.272738, -0.265214, -0.246452, 0.353239, -0.333286, -0.541205, 0.530711, -0.385158, 0.238017, 0.491077, -0.174838, -0.089016, -0.071247, 0.183769, -0.326648, -0.386652, -0.271112, 0.460200, 0.003451, 0.094143, 0.060575, 0.111212, 0.633360, 0.447092, 0.052389, -0.166487, -0.019554, -0.039271, 0.289455, -0.211508, -0.113491, -0.567351, -0.277037, -0.245317, 0.011757, -1.324506, 0.011571, -0.134660, -0.357251, 0.087158, 0.141972, -0.165308, 0.403098, 0.144257, -0.033076, -0.160846, 0.005179, 0.216010, -0.024823, -0.183302, -0.051000, 0.033768, -0.163076, 0.141548, -0.020904, 0.120357, -0.464407, 0.309417, -0.346063, -0.197958, 0.179449, 0.002140, 0.309897, -0.084243, 0.128444, -0.077724, -0.002163, -0.435963, -0.758195, 0.094217, -0.218246, 0.872403, 0.096474, -0.151724, 0.368495, 0.114953, -0.305492, -0.005275, 0.160424, 0.093800, -0.644611, -0.333311, 0.331177, -0.086264, 0.047592, 0.432351, -0.452575, 0.263600, -0.390535, -0.011322, 0.239722, -0.131020, 0.189752, -0.220253, 0.165740, -0.542940, 0.249378, 0.190760, -0.517659, -0.976290, -0.010501, 0.121669, -0.114821, 0.104896, -0.022837, -0.062431, 0.582194, 0.414013, 0.102006, -0.052417, 0.245621, 0.193867, 0.226196, -0.173013, -0.366617, -0.202990, 0.066134, 0.253986, 0.051906, 0.057816, -0.735887, -0.032712, -0.148844, -0.379292, 0.281636, 0.122728, 0.136988, -0.221248, -0.256516, 0.146945, 0.301896, -0.490765, 0.123669, 0.038162, 0.078211, -0.043207, 0.049055, 0.146212, 0.400295, 0.005855, 0.191957, -0.067569, 0.250135, -0.190124, -0.224059, 0.164414, -0.195037, -0.268106, -0.268293, 0.183876, 0.213781, -0.170188, -0.360461, 0.059163, -0.225080, -0.230309, 0.311627, -0.111684, 0.226187, -0.324625, 0.153526, 0.099866, -0.002714, -0.901421, -0.382805, -0.545381, -0.144761, -0.436932, 0.319055, 0.061507, -0.648729, -0.172335, 0.211490, 0.324098, -0.058220, -0.339005, -0.667621, 0.544463, 0.121750, 0.311837, -0.201926, 0.163684, 0.077261, 0.082573, 0.162914, -0.110524, 0.159985, -0.175404, 0.266539, -0.130590, 0.162233, -0.431876, 0.174176, -0.429275, 0.145991, 0.308508, 0.289761, 0.046860, -0.166843, 0.474740, -0.265794, 0.024027, 0.659431, 0.056937, -0.070504, -0.307078, 0.085686, 0.154461, -0.032409, 0.202050, -0.276405, 0.263652, -0.331928, -0.206025, 0.161096, 0.340302, -0.540915, -0.152653, -0.093156, -0.216989, 0.213902, -0.111459, 0.246221, -0.332159, 0.046565, 0.367710, 0.256643, -0.616106, -0.351707, 0.216285, 0.288458, -0.121854, -0.165842, -0.129815, 0.181471, 0.280947, -0.340682, -0.127108, 0.127349, -0.021000, 0.050220, 0.039949, -0.296880, 0.016833, -0.014360, 0.003022, 0.177690, 0.111361, -0.601914, 0.253082, -0.348688, 0.277754, -0.077754, -0.339854, 0.182101, -0.415900, -0.061315, 0.203148, 0.427573, -0.668466, 0.254169, 0.152892, 0.057269, -0.014028, 0.375134, -0.228155, -0.248280, -0.332541, 0.192034, 0.203732, -0.131860, 0.328132, 0.116252, 0.150261, 0.214456, -0.003969, 0.221527, -0.219518, -0.112098, -0.030843, 0.288323, -0.002618, 0.302611, 0.261736, -0.170436, 0.502342, -0.238698, 0.323141, 0.039281, -0.213430, -0.412341, 0.549092, 0.272775, -0.573682, 0.439851, -0.173625, 0.047387, 0.334374, -0.618176, -0.211696, 0.039239, 0.035776, -0.459232, -0.162247, 0.192172, -0.361423, -0.222724, 0.154407, -0.103544, -0.295030, 0.183789, 0.201457, 0.003123, -0.246714, 0.109536, 0.274670, 0.153533, -0.158270, -0.161076, 0.383907, -0.244135, -0.377847, -0.088112, 0.059675, 0.351337, -0.063085, 0.107303, -0.140445, 0.082452, 0.068579, 0.464730, 0.404134, -0.219555, 0.071144, 0.253731, 0.108226, -0.093585, -0.058648, -0.399174, -0.188250, 0.029292, 0.283241, 0.069053, 0.181691, -0.566816, 0.160434, -0.322906, -0.132933, 0.338043, -0.090445, 0.277318, 0.208037, -0.051844, -0.015519, 0.135228, -0.587416, 0.161274, -0.251933, 0.030473, -0.182810, 0.138743, 0.082356, 0.082276, 0.231670, -0.028606, -0.284679, -0.032276, 0.207810, 0.308937, -0.493642, 0.126169, -0.048515, 0.009099, -0.292932, 0.000355, 0.079486, 0.161244, -0.213476, -0.332743, 0.011678, -0.591784, 0.306074, -0.196439, 0.566351, -0.463209, 0.242944, -0.017188, 0.704028, -0.045686, -0.259198, 0.092840, -0.153834, 0.343702, 0.202522, -0.303192, -0.040479, -0.034256, 0.122307, -0.025767, 0.199481, 0.005094, 0.270978, 0.167279, -0.153858, 0.075033, -0.349266, 0.040027, -0.042796, 0.344063, 0.094916, 0.061719, 0.109246, 0.027507, 0.450160, -0.287554, 0.256999, -0.012956, -0.298408, -0.106773, 0.370714, 0.136687, -0.192785, 0.108972, -0.415434, 0.142588, 0.037578, -0.589253, 0.033697, 0.152458, 0.162464, -0.040244, -0.045808, 0.077219, 0.311867, 0.108955, 0.172182, 0.269425, 0.146953, 0.040458, -0.276776, 0.418759, 0.101102, 0.183626, 0.204601, -0.088421, 0.287464, 0.093621, -0.171846, -0.139202, -0.306104, -0.215361, 0.527755, -0.218057, 0.067299, 0.073723, 0.109732, -0.313750, -0.115815, 0.519729, 0.417329, -0.461936, -0.056271, -0.009188, 0.059869, 0.023059, 0.115945, 0.094518, -0.358422, -0.168854, 0.259134, -0.179561, 0.317802, -0.666207, 0.219174, -0.295233, -0.360055, 0.149832, -0.208084, 0.071227, -0.118974, 0.001100, -0.001855, 0.304354, -0.839391, -0.137945, -0.285150, -0.153231, -0.379779, 0.097795, -0.075225, -0.723242, -0.211290, 0.202860, 0.105673, 0.151771, -0.068748, -0.736617, -0.019274, 0.056830, -0.074638, -0.156952, -0.093512, -0.049524, 0.109766, 0.586606, -0.136574, 0.228054, 0.034328, 0.317456, -0.377406, -0.111912, -0.386822, 0.380811, -0.086989, 0.093457, 0.443288};
#endif

#endif
