//Numpy array shape [32, 32]
//Min -0.352529553969
//Max 0.348901686511
//Number of zeros 0

#ifndef ENCODER_EDGE_W1_H_
#define ENCODER_EDGE_W1_H_

#ifndef __SYNTHESIS__
ap_fixed<16,6> encoder_edge_w1[1024];
#else
ap_fixed<16,6> encoder_edge_w1[1024] = {-0.260851, 0.027151, 0.138207, -0.080672, -0.053458, -0.009343, 0.053694, 0.280449, 0.246792, -0.165423, 0.230745, -0.045673, -0.118842, 0.299931, -0.076112, 0.169155, 0.085665, 0.061618, 0.292481, -0.208403, -0.018113, 0.135754, 0.078811, 0.082682, -0.031646, 0.136318, 0.254192, -0.261228, 0.236370, -0.056136, -0.277144, -0.070055, 0.053026, 0.035038, 0.014254, 0.304816, 0.113735, 0.061630, 0.003132, -0.148543, 0.051874, 0.024190, 0.012468, 0.203365, -0.046106, -0.266824, 0.084215, 0.122606, 0.232323, -0.127193, 0.001841, 0.057145, 0.182890, 0.268794, 0.142276, 0.171421, 0.161169, 0.117011, 0.000958, -0.195444, -0.087778, 0.066134, 0.254361, -0.212211, 0.054852, 0.344045, -0.170842, -0.072688, 0.017915, 0.217056, 0.010951, 0.031394, -0.277667, 0.071925, 0.194058, -0.082830, 0.189334, -0.122031, 0.305593, 0.112310, -0.013712, 0.026252, 0.335264, -0.049926, 0.015645, -0.008590, -0.204831, -0.083221, 0.294562, -0.069017, 0.225395, -0.167373, -0.345764, -0.075151, -0.008001, -0.326145, -0.167825, 0.297032, 0.078817, -0.084167, -0.269753, 0.102086, -0.042678, 0.095955, 0.136550, 0.076691, 0.018687, -0.133924, -0.163744, 0.194539, -0.214234, 0.314927, 0.214115, 0.062458, 0.116275, -0.295511, 0.289314, -0.144248, 0.004544, -0.212810, -0.207300, 0.174815, -0.144731, -0.055239, -0.301673, 0.071543, 0.037533, -0.191796, -0.071987, -0.007000, -0.142134, -0.199833, 0.062015, 0.034359, -0.050727, 0.196949, -0.215844, -0.032777, -0.181746, 0.067264, 0.211492, -0.007764, 0.134976, -0.055951, -0.011213, -0.272361, 0.250531, -0.258524, -0.133582, 0.020923, 0.152357, -0.023905, 0.174874, 0.037879, 0.245676, -0.007148, -0.126782, -0.183895, -0.320425, -0.011022, -0.098180, -0.282058, -0.038659, 0.146958, -0.113036, -0.129423, 0.079225, -0.027362, -0.187306, 0.215353, 0.178559, -0.053438, -0.314960, 0.230191, 0.061714, -0.007831, 0.068620, -0.099577, -0.107296, 0.073657, 0.200110, -0.061777, -0.051870, -0.027936, -0.122193, -0.325309, 0.071797, -0.218823, 0.177977, 0.169622, 0.233988, -0.152197, 0.215614, -0.159763, -0.005850, -0.008697, -0.060968, 0.052699, -0.047163, -0.140061, 0.014346, 0.100692, -0.303106, -0.328492, 0.083855, -0.107223, 0.059528, 0.279300, 0.267846, -0.079473, 0.099978, 0.002281, 0.099297, -0.284678, -0.050414, 0.288874, -0.170108, 0.171287, -0.232060, -0.250283, 0.097084, 0.205466, 0.087563, -0.168602, 0.026869, -0.255571, 0.286721, -0.064318, -0.011784, -0.217150, 0.010577, 0.160251, -0.285727, -0.052451, 0.132082, -0.164410, 0.035267, 0.083602, -0.159413, 0.060727, -0.102141, -0.122397, 0.348859, -0.108114, 0.173216, 0.090186, -0.160106, 0.016448, 0.099025, 0.125207, -0.009547, -0.007010, -0.157683, 0.160803, 0.075897, -0.068783, -0.086012, -0.153871, -0.088269, 0.198002, -0.304920, -0.000743, 0.108881, -0.061583, 0.155565, -0.062012, 0.081689, -0.230927, 0.074710, -0.120895, 0.259005, -0.132984, -0.032017, -0.153140, -0.299549, 0.184105, -0.251555, -0.054708, -0.097772, -0.104428, -0.052816, 0.181858, -0.007462, 0.145022, -0.069484, 0.091818, -0.122748, 0.004050, -0.005568, 0.340284, 0.026263, 0.160897, -0.297060, -0.094336, -0.126468, -0.168625, 0.098466, -0.260847, 0.012261, 0.028283, 0.120818, -0.073431, 0.030533, -0.068638, 0.190323, 0.243270, -0.027651, 0.107281, 0.046034, -0.054114, 0.257392, -0.050365, 0.234085, 0.012589, 0.326644, -0.092697, 0.274134, 0.069051, 0.150292, -0.045328, -0.195828, 0.309344, -0.144930, -0.067639, 0.085585, 0.104093, 0.113282, -0.015224, -0.105287, 0.062180, 0.113183, -0.031208, 0.216502, -0.186162, -0.157102, 0.001145, -0.075523, 0.138929, -0.047743, -0.142565, 0.029339, 0.347044, -0.222861, 0.158561, -0.130718, 0.156487, 0.106085, -0.286316, -0.014184, -0.077784, 0.143720, -0.035040, -0.114711, 0.330005, 0.047715, -0.154579, 0.116385, -0.193395, 0.324253, -0.223676, -0.070183, -0.006960, 0.127410, 0.092776, 0.110698, 0.125132, 0.193756, 0.348902, -0.226755, -0.048093, 0.340836, -0.138499, 0.041368, -0.238529, 0.132590, 0.004651, 0.208535, -0.003870, -0.119881, -0.061998, -0.182074, -0.247351, 0.104720, 0.074133, -0.106725, -0.003270, 0.163708, -0.291593, -0.095210, 0.080778, 0.075900, 0.171357, -0.046767, 0.171804, 0.071707, 0.168029, -0.274195, 0.338373, -0.007401, 0.024132, 0.010441, -0.023365, -0.177843, 0.010459, 0.154927, -0.165413, 0.284117, -0.083139, -0.042679, 0.099540, 0.158962, 0.095676, 0.181715, 0.260858, -0.172003, 0.014803, -0.186545, 0.278633, -0.080975, 0.182709, 0.099082, -0.280548, -0.128641, -0.029725, -0.225289, 0.044054, 0.036593, -0.075666, -0.074061, 0.314827, -0.072116, -0.103101, 0.121746, -0.098424, -0.234050, -0.002276, -0.311691, 0.034745, 0.187499, -0.056667, -0.048167, -0.202120, -0.128207, 0.035866, 0.150931, 0.041852, 0.309459, 0.187103, -0.097921, 0.088767, -0.160596, -0.113140, 0.065833, 0.060762, -0.005927, 0.157928, 0.059556, -0.027224, -0.149508, -0.252764, -0.098025, -0.307447, -0.064879, -0.066455, 0.313267, -0.162663, 0.215712, -0.193960, 0.284602, 0.330105, -0.124913, -0.122888, -0.112934, 0.003203, -0.124540, 0.299978, 0.019412, -0.154842, 0.236083, -0.159798, 0.011571, -0.230856, -0.102453, -0.164244, 0.127206, 0.173217, -0.101572, -0.153308, 0.055934, -0.139600, 0.070203, -0.065819, 0.226603, 0.055175, 0.066060, 0.077362, -0.170455, 0.095606, 0.127000, 0.145789, 0.133475, 0.077250, 0.128793, 0.033946, 0.169139, -0.126255, 0.097453, -0.235364, -0.012677, -0.215788, 0.191928, 0.085467, -0.066781, 0.070113, -0.029660, -0.283530, 0.113513, -0.132463, -0.273744, -0.177729, -0.244697, -0.340166, 0.275158, 0.201364, 0.157847, 0.114661, 0.317161, -0.075223, 0.076406, -0.004228, -0.217383, -0.173444, 0.142877, 0.301213, -0.039534, 0.171863, 0.273356, -0.056652, -0.071869, 0.164134, -0.222308, 0.220816, -0.116811, 0.013003, -0.197800, -0.322524, -0.055789, -0.071058, -0.097654, 0.072866, 0.047641, -0.145104, -0.101674, 0.164274, -0.248493, -0.051162, 0.008102, -0.093826, 0.104325, 0.012039, 0.092063, -0.067034, 0.037590, -0.211754, -0.333093, 0.097934, 0.148414, -0.128575, 0.074029, 0.124502, -0.296391, -0.284970, -0.058362, 0.118704, 0.163597, 0.075184, 0.050521, 0.090844, 0.270141, 0.123970, -0.206500, 0.007087, -0.064331, -0.162114, 0.009849, -0.017291, 0.082623, 0.055800, -0.032211, -0.129757, -0.070245, -0.003927, 0.039921, -0.069178, -0.187205, 0.013821, 0.297663, -0.233101, -0.089729, -0.118262, -0.195806, 0.081289, 0.013557, -0.164924, 0.075832, -0.022534, 0.064157, -0.034757, -0.229414, -0.069840, -0.230292, 0.074594, -0.011376, 0.172525, -0.230589, -0.093443, 0.077152, -0.055243, -0.112267, 0.131994, 0.011287, 0.072484, 0.121345, 0.027796, -0.082253, 0.255673, 0.293807, 0.049518, 0.000231, -0.135042, 0.180328, -0.018676, 0.065984, -0.295018, -0.127695, 0.010995, -0.066327, -0.177003, -0.179437, 0.104691, -0.220377, 0.094906, -0.254162, -0.040867, -0.204040, 0.088899, 0.236852, -0.255056, -0.004372, -0.182017, -0.039382, -0.110730, -0.107512, -0.062039, 0.163219, -0.254696, 0.346734, -0.008377, -0.180368, -0.006292, 0.142485, -0.148724, 0.199861, -0.004338, -0.067152, 0.030946, 0.207010, -0.138002, -0.007974, -0.104053, -0.131299, -0.217197, 0.297529, -0.255447, -0.279402, -0.000786, -0.224451, -0.145307, -0.123753, 0.082383, 0.279413, 0.251909, -0.093237, -0.227138, -0.131159, -0.240217, 0.129574, -0.139632, 0.100290, 0.180836, -0.065171, -0.338651, -0.014985, -0.240083, -0.157667, 0.124650, 0.166210, -0.236761, 0.282519, 0.044231, 0.139886, -0.237882, 0.175865, -0.072326, 0.242159, -0.107075, -0.129863, 0.155328, 0.065654, -0.046097, 0.262725, -0.120647, 0.075213, -0.016711, 0.122629, -0.010494, 0.066028, -0.167384, -0.145223, -0.074055, -0.028505, 0.086259, 0.319060, 0.009822, -0.087257, 0.021676, 0.078712, -0.034933, -0.169429, 0.210557, 0.010098, 0.208612, 0.177237, -0.058128, -0.046619, -0.148132, -0.105490, -0.045465, -0.039227, -0.072757, -0.173270, -0.117653, -0.000823, 0.094893, 0.111744, 0.280286, 0.026357, -0.117794, -0.234357, 0.105709, 0.244018, -0.306493, 0.003082, -0.082234, -0.192216, 0.197397, 0.232829, -0.138480, -0.003513, 0.057611, 0.064873, -0.151168, 0.082796, 0.096189, 0.323829, -0.074623, 0.154388, 0.022602, -0.223919, 0.107358, 0.230284, -0.114413, -0.317272, -0.062705, 0.144100, 0.088804, -0.001906, 0.271976, -0.003842, -0.155830, 0.082363, -0.082784, -0.061805, 0.164226, 0.213153, -0.060875, -0.205145, -0.166632, 0.048366, -0.125836, -0.184822, 0.047598, 0.297383, -0.088998, 0.074621, 0.025995, 0.087836, -0.110862, 0.230311, 0.152673, 0.040035, 0.192335, 0.243772, -0.237329, 0.292237, 0.099303, 0.227307, 0.334148, 0.209953, 0.084899, 0.215922, -0.010339, -0.018602, 0.021773, 0.150080, 0.090433, 0.024517, -0.264694, 0.220359, -0.052099, -0.050558, 0.252747, -0.063983, -0.177086, 0.231089, 0.109475, 0.173498, -0.061243, -0.170464, -0.167643, -0.079448, -0.127454, 0.037524, -0.337114, 0.289105, 0.010651, -0.169662, -0.047665, 0.298361, -0.089598, -0.006038, 0.042598, -0.303762, -0.248932, -0.071721, 0.060220, -0.031656, -0.145934, 0.085394, 0.091138, 0.046201, 0.125339, -0.056713, 0.045367, 0.268465, -0.352530, -0.006015, 0.054972, -0.249127, 0.229435, -0.180815, 0.053887, 0.336674, 0.089476, 0.035672, 0.127146, -0.026434, 0.092827, -0.001647, 0.029515, 0.093016, -0.232161, 0.039589, -0.080943, -0.245219, 0.104967, 0.258484, 0.102375, -0.319071, -0.109534, 0.314085, -0.106860, -0.048944, 0.095590, -0.074208, 0.065453, 0.233050, -0.256862, -0.287359, 0.040050, 0.337981, -0.003575, -0.243187, 0.058042, -0.002091, -0.179035, -0.021068, -0.015641, -0.209908, 0.201914, 0.311617, -0.078381, -0.039404, -0.204389, -0.074651, 0.193340, 0.033139, -0.260209, -0.103334, 0.199761, -0.033547, -0.105383, -0.008946, 0.170540, -0.006563, 0.080025, 0.048982, -0.051952, 0.115646, -0.146565, 0.029077, -0.197495, 0.110676, 0.032606, 0.044722, -0.254226, 0.088568, -0.020520, 0.099511, 0.150462, -0.055234, -0.251974, 0.147227, -0.089336, 0.157529, -0.113846, -0.153741, 0.133933, -0.115552, 0.010863, -0.020906, -0.068961, -0.060816, -0.092592, 0.038623, 0.040366, -0.163396, -0.016944, 0.081345, 0.180529, -0.166486, -0.019679, -0.110958, -0.050628, -0.136083, 0.093735, 0.075683, -0.061843, -0.157631, -0.336202, -0.065655, -0.076196, -0.245072, 0.339369, 0.000139, -0.166140, -0.117896, 0.107062, -0.212360, 0.173639, -0.267841, -0.109161, -0.319869, 0.284192, 0.016583, 0.237695, 0.005013, 0.133106, 0.027810, -0.061466, -0.318257, 0.170021, -0.273279, 0.205566, 0.242398, -0.014215, 0.068911, 0.251996, -0.000661, -0.129828, 0.026996, 0.011184, 0.209173, -0.210642, 0.005476, 0.067632, -0.058205, 0.093285, 0.061245, -0.169867, 0.111751, -0.042982, 0.104836, -0.037090, 0.026388, 0.212791, 0.150223, 0.165245, -0.082420, 0.260582, 0.256565, -0.054418, -0.020909, -0.297231, -0.197605, 0.001498, -0.208695, 0.105974, 0.343267, 0.030832, -0.079547, 0.063873, 0.200932, 0.288438};
#endif

#endif
