//Numpy array shape [3, 32]
//Min -1.083919831847
//Max 1.057309165011
//Number of zeros 0

#ifndef ENCODER_NODE_W0_H_
#define ENCODER_NODE_W0_H_

#ifndef __SYNTHESIS__
ap_fixed<16,6> encoder_node_w0[96];
#else
ap_fixed<16,6> encoder_node_w0[96] = {0.645191, -0.687097, 0.336073, -1.066918, 0.347187, -0.042971, -0.499097, 0.447785, -0.639099, -0.209696, 0.225200, -0.116578, -0.108291, -0.856541, -0.907276, -0.608897, 0.562181, 0.134327, -0.179224, 0.123755, 0.646294, 0.188206, -0.392501, 0.092139, -0.015126, 1.057309, 0.070922, -0.183802, -0.405039, 0.398753, -0.055683, -0.400133, 0.465371, -0.340366, 0.481955, -0.336709, -0.681168, -0.118383, 0.664006, -0.451065, -0.378255, 0.046530, -0.001623, 0.266620, 0.044210, -0.017389, -0.284962, 0.685465, 0.150148, 0.345552, -0.139857, 0.206631, -0.333592, 0.691383, 0.305518, 0.639600, 0.271619, -0.718335, -0.038696, 0.369914, -0.704348, -0.722629, 0.496941, 0.428913, 0.342868, -0.820319, -1.083920, 0.250224, 0.163924, 0.543448, 0.343776, -0.793829, 0.335697, 0.199918, 0.645010, -0.406831, -0.431403, -0.248667, -0.639413, -0.041615, -0.337203, 0.591119, -0.018914, 0.145470, 0.370700, 0.194328, 0.077208, -0.096010, -0.576639, 0.086986, 0.404230, 0.443510, -0.740782, 0.441073, 0.853871, 0.172979};
#endif

#endif
